digraph Tree {
node [shape=box, style="filled, rounded", color="black", fontname="helvetica"] ;
edge [fontname="helvetica"] ;
0 [label="age <= 67.5\ngini = 0.099\nsamples = 2741\nvalue = [2598, 143]\nclass = No Stroke", fillcolor="#e68844"] ;
1 [label="age <= 44.5\ngini = 0.052\nsamples = 2230\nvalue = [2170, 60]\nclass = No Stroke", fillcolor="#e6843e"] ;
0 -> 1 [labeldistance=2.5, labelangle=45, headlabel="True"] ;
2 [label="avg_glucose <= 58.19\ngini = 0.007\nsamples = 1161\nvalue = [1157, 4]\nclass = No Stroke", fillcolor="#e5813a"] ;
1 -> 2 ;
3 [label="avg_glucose <= 58.05\ngini = 0.071\nsamples = 27\nvalue = [26, 1]\nclass = No Stroke", fillcolor="#e68641"] ;
2 -> 3 ;
4 [label="gini = 0.0\nsamples = 26\nvalue = [26, 0]\nclass = No Stroke", fillcolor="#e58139"] ;
3 -> 4 ;
5 [label="gini = 0.0\nsamples = 1\nvalue = [0, 1]\nclass = Stroke", fillcolor="#399de5"] ;
3 -> 5 ;
6 [label="age <= 31.5\ngini = 0.005\nsamples = 1134\nvalue = [1131, 3]\nclass = No Stroke", fillcolor="#e5813a"] ;
2 -> 6 ;
7 [label="gini = 0.0\nsamples = 594\nvalue = [594, 0]\nclass = No Stroke", fillcolor="#e58139"] ;
6 -> 7 ;
8 [label="bmi <= 29.95\ngini = 0.011\nsamples = 540\nvalue = [537, 3]\nclass = No Stroke", fillcolor="#e5823a"] ;
6 -> 8 ;
9 [label="bmi <= 29.55\ngini = 0.023\nsamples = 257\nvalue = [254, 3]\nclass = No Stroke", fillcolor="#e5823b"] ;
8 -> 9 ;
10 [label="smoking_status <= 0.5\ngini = 0.008\nsamples = 246\nvalue = [245, 1]\nclass = No Stroke", fillcolor="#e5823a"] ;
9 -> 10 ;
11 [label="ever_married <= 0.5\ngini = 0.059\nsamples = 33\nvalue = [32, 1]\nclass = No Stroke", fillcolor="#e6853f"] ;
10 -> 11 ;
12 [label="age <= 37.5\ngini = 0.278\nsamples = 6\nvalue = [5, 1]\nclass = No Stroke", fillcolor="#ea9a61"] ;
11 -> 12 ;
13 [label="gini = 0.0\nsamples = 4\nvalue = [4, 0]\nclass = No Stroke", fillcolor="#e58139"] ;
12 -> 13 ;
14 [label="work_type <= 3.5\ngini = 0.5\nsamples = 2\nvalue = [1, 1]\nclass = No Stroke", fillcolor="#ffffff"] ;
12 -> 14 ;
15 [label="gini = 0.0\nsamples = 1\nvalue = [0, 1]\nclass = Stroke", fillcolor="#399de5"] ;
14 -> 15 ;
16 [label="gini = 0.0\nsamples = 1\nvalue = [1, 0]\nclass = No Stroke", fillcolor="#e58139"] ;
14 -> 16 ;
17 [label="gini = 0.0\nsamples = 27\nvalue = [27, 0]\nclass = No Stroke", fillcolor="#e58139"] ;
11 -> 17 ;
18 [label="gini = 0.0\nsamples = 213\nvalue = [213, 0]\nclass = No Stroke", fillcolor="#e58139"] ;
10 -> 18 ;
19 [label="smoking_status <= 1.5\ngini = 0.298\nsamples = 11\nvalue = [9, 2]\nclass = No Stroke", fillcolor="#eb9d65"] ;
9 -> 19 ;
20 [label="gini = 0.0\nsamples = 8\nvalue = [8, 0]\nclass = No Stroke", fillcolor="#e58139"] ;
19 -> 20 ;
21 [label="ever_married <= 0.5\ngini = 0.444\nsamples = 3\nvalue = [1, 2]\nclass = Stroke", fillcolor="#9ccef2"] ;
19 -> 21 ;
22 [label="gini = 0.0\nsamples = 1\nvalue = [1, 0]\nclass = No Stroke", fillcolor="#e58139"] ;
21 -> 22 ;
23 [label="gini = 0.0\nsamples = 2\nvalue = [0, 2]\nclass = Stroke", fillcolor="#399de5"] ;
21 -> 23 ;
24 [label="gini = 0.0\nsamples = 283\nvalue = [283, 0]\nclass = No Stroke", fillcolor="#e58139"] ;
8 -> 24 ;
25 [label="avg_glucose <= 170.725\ngini = 0.099\nsamples = 1069\nvalue = [1013, 56]\nclass = No Stroke", fillcolor="#e68844"] ;
1 -> 25 ;
26 [label="bmi <= 25.25\ngini = 0.08\nsamples = 885\nvalue = [848, 37]\nclass = No Stroke", fillcolor="#e68642"] ;
25 -> 26 ;
27 [label="age <= 65.5\ngini = 0.023\nsamples = 170\nvalue = [168, 2]\nclass = No Stroke", fillcolor="#e5823b"] ;
26 -> 27 ;
28 [label="bmi <= 20.55\ngini = 0.012\nsamples = 159\nvalue = [158, 1]\nclass = No Stroke", fillcolor="#e5823a"] ;
27 -> 28 ;
29 [label="bmi <= 20.35\ngini = 0.071\nsamples = 27\nvalue = [26, 1]\nclass = No Stroke", fillcolor="#e68641"] ;
28 -> 29 ;
30 [label="gini = 0.0\nsamples = 24\nvalue = [24, 0]\nclass = No Stroke", fillcolor="#e58139"] ;
29 -> 30 ;
31 [label="avg_glucose <= 85.44\ngini = 0.444\nsamples = 3\nvalue = [2, 1]\nclass = No Stroke", fillcolor="#f2c09c"] ;
29 -> 31 ;
32 [label="gini = 0.0\nsamples = 1\nvalue = [0, 1]\nclass = Stroke", fillcolor="#399de5"] ;
31 -> 32 ;
33 [label="gini = 0.0\nsamples = 2\nvalue = [2, 0]\nclass = No Stroke", fillcolor="#e58139"] ;
31 -> 33 ;
34 [label="gini = 0.0\nsamples = 132\nvalue = [132, 0]\nclass = No Stroke", fillcolor="#e58139"] ;
28 -> 34 ;
35 [label="avg_glucose <= 78.32\ngini = 0.165\nsamples = 11\nvalue = [10, 1]\nclass = No Stroke", fillcolor="#e88e4d"] ;
27 -> 35 ;
36 [label="gini = 0.0\nsamples = 1\nvalue = [0, 1]\nclass = Stroke", fillcolor="#399de5"] ;
35 -> 36 ;
37 [label="gini = 0.0\nsamples = 10\nvalue = [10, 0]\nclass = No Stroke", fillcolor="#e58139"] ;
35 -> 37 ;
38 [label="avg_glucose <= 86.22\ngini = 0.093\nsamples = 715\nvalue = [680, 35]\nclass = No Stroke", fillcolor="#e68743"] ;
26 -> 38 ;
39 [label="hypertension <= 0.5\ngini = 0.062\nsamples = 343\nvalue = [332, 11]\nclass = No Stroke", fillcolor="#e68540"] ;
38 -> 39 ;
40 [label="avg_glucose <= 64.175\ngini = 0.045\nsamples = 302\nvalue = [295, 7]\nclass = No Stroke", fillcolor="#e6843e"] ;
39 -> 40 ;
41 [label="avg_glucose <= 64.115\ngini = 0.124\nsamples = 60\nvalue = [56, 4]\nclass = No Stroke", fillcolor="#e78a47"] ;
40 -> 41 ;
42 [label="bmi <= 29.95\ngini = 0.067\nsamples = 58\nvalue = [56, 2]\nclass = No Stroke", fillcolor="#e68640"] ;
41 -> 42 ;
43 [label="bmi <= 29.75\ngini = 0.124\nsamples = 30\nvalue = [28, 2]\nclass = No Stroke", fillcolor="#e78a47"] ;
42 -> 43 ;
44 [label="smoking_status <= 0.5\ngini = 0.067\nsamples = 29\nvalue = [28, 1]\nclass = No Stroke", fillcolor="#e68640"] ;
43 -> 44 ;
45 [label="age <= 58.5\ngini = 0.18\nsamples = 10\nvalue = [9, 1]\nclass = No Stroke", fillcolor="#e88f4f"] ;
44 -> 45 ;
46 [label="age <= 56.5\ngini = 0.444\nsamples = 3\nvalue = [2, 1]\nclass = No Stroke", fillcolor="#f2c09c"] ;
45 -> 46 ;
47 [label="gini = 0.0\nsamples = 2\nvalue = [2, 0]\nclass = No Stroke", fillcolor="#e58139"] ;
46 -> 47 ;
48 [label="gini = 0.0\nsamples = 1\nvalue = [0, 1]\nclass = Stroke", fillcolor="#399de5"] ;
46 -> 48 ;
49 [label="gini = 0.0\nsamples = 7\nvalue = [7, 0]\nclass = No Stroke", fillcolor="#e58139"] ;
45 -> 49 ;
50 [label="gini = 0.0\nsamples = 19\nvalue = [19, 0]\nclass = No Stroke", fillcolor="#e58139"] ;
44 -> 50 ;
51 [label="gini = 0.0\nsamples = 1\nvalue = [0, 1]\nclass = Stroke", fillcolor="#399de5"] ;
43 -> 51 ;
52 [label="gini = 0.0\nsamples = 28\nvalue = [28, 0]\nclass = No Stroke", fillcolor="#e58139"] ;
42 -> 52 ;
53 [label="gini = 0.0\nsamples = 2\nvalue = [0, 2]\nclass = Stroke", fillcolor="#399de5"] ;
41 -> 53 ;
54 [label="ever_married <= 0.5\ngini = 0.024\nsamples = 242\nvalue = [239, 3]\nclass = No Stroke", fillcolor="#e5833b"] ;
40 -> 54 ;
55 [label="bmi <= 37.3\ngini = 0.208\nsamples = 17\nvalue = [15, 2]\nclass = No Stroke", fillcolor="#e89253"] ;
54 -> 55 ;
56 [label="age <= 49.0\ngini = 0.117\nsamples = 16\nvalue = [15, 1]\nclass = No Stroke", fillcolor="#e78946"] ;
55 -> 56 ;
57 [label="work_type <= 2.5\ngini = 0.5\nsamples = 2\nvalue = [1, 1]\nclass = No Stroke", fillcolor="#ffffff"] ;
56 -> 57 ;
58 [label="gini = 0.0\nsamples = 1\nvalue = [0, 1]\nclass = Stroke", fillcolor="#399de5"] ;
57 -> 58 ;
59 [label="gini = 0.0\nsamples = 1\nvalue = [1, 0]\nclass = No Stroke", fillcolor="#e58139"] ;
57 -> 59 ;
60 [label="gini = 0.0\nsamples = 14\nvalue = [14, 0]\nclass = No Stroke", fillcolor="#e58139"] ;
56 -> 60 ;
61 [label="gini = 0.0\nsamples = 1\nvalue = [0, 1]\nclass = Stroke", fillcolor="#399de5"] ;
55 -> 61 ;
62 [label="age <= 46.5\ngini = 0.009\nsamples = 225\nvalue = [224, 1]\nclass = No Stroke", fillcolor="#e5823a"] ;
54 -> 62 ;
63 [label="age <= 45.5\ngini = 0.091\nsamples = 21\nvalue = [20, 1]\nclass = No Stroke", fillcolor="#e68743"] ;
62 -> 63 ;
64 [label="gini = 0.0\nsamples = 13\nvalue = [13, 0]\nclass = No Stroke", fillcolor="#e58139"] ;
63 -> 64 ;
65 [label="avg_glucose <= 78.485\ngini = 0.219\nsamples = 8\nvalue = [7, 1]\nclass = No Stroke", fillcolor="#e99355"] ;
63 -> 65 ;
66 [label="avg_glucose <= 76.635\ngini = 0.375\nsamples = 4\nvalue = [3, 1]\nclass = No Stroke", fillcolor="#eeab7b"] ;
65 -> 66 ;
67 [label="gini = 0.0\nsamples = 3\nvalue = [3, 0]\nclass = No Stroke", fillcolor="#e58139"] ;
66 -> 67 ;
68 [label="gini = 0.0\nsamples = 1\nvalue = [0, 1]\nclass = Stroke", fillcolor="#399de5"] ;
66 -> 68 ;
69 [label="gini = 0.0\nsamples = 4\nvalue = [4, 0]\nclass = No Stroke", fillcolor="#e58139"] ;
65 -> 69 ;
70 [label="gini = 0.0\nsamples = 204\nvalue = [204, 0]\nclass = No Stroke", fillcolor="#e58139"] ;
62 -> 70 ;
71 [label="bmi <= 25.4\ngini = 0.176\nsamples = 41\nvalue = [37, 4]\nclass = No Stroke", fillcolor="#e88f4e"] ;
39 -> 71 ;
72 [label="gini = 0.0\nsamples = 1\nvalue = [0, 1]\nclass = Stroke", fillcolor="#399de5"] ;
71 -> 72 ;
73 [label="bmi <= 27.75\ngini = 0.139\nsamples = 40\nvalue = [37, 3]\nclass = No Stroke", fillcolor="#e78b49"] ;
71 -> 73 ;
74 [label="bmi <= 27.05\ngini = 0.408\nsamples = 7\nvalue = [5, 2]\nclass = No Stroke", fillcolor="#efb388"] ;
73 -> 74 ;
75 [label="gini = 0.0\nsamples = 4\nvalue = [4, 0]\nclass = No Stroke", fillcolor="#e58139"] ;
74 -> 75 ;
76 [label="avg_glucose <= 65.945\ngini = 0.444\nsamples = 3\nvalue = [1, 2]\nclass = Stroke", fillcolor="#9ccef2"] ;
74 -> 76 ;
77 [label="gini = 0.0\nsamples = 1\nvalue = [1, 0]\nclass = No Stroke", fillcolor="#e58139"] ;
76 -> 77 ;
78 [label="gini = 0.0\nsamples = 2\nvalue = [0, 2]\nclass = Stroke", fillcolor="#399de5"] ;
76 -> 78 ;
79 [label="work_type <= 2.5\ngini = 0.059\nsamples = 33\nvalue = [32, 1]\nclass = No Stroke", fillcolor="#e6853f"] ;
73 -> 79 ;
80 [label="avg_glucose <= 68.675\ngini = 0.198\nsamples = 9\nvalue = [8, 1]\nclass = No Stroke", fillcolor="#e89152"] ;
79 -> 80 ;
81 [label="avg_glucose <= 63.465\ngini = 0.5\nsamples = 2\nvalue = [1, 1]\nclass = No Stroke", fillcolor="#ffffff"] ;
80 -> 81 ;
82 [label="gini = 0.0\nsamples = 1\nvalue = [1, 0]\nclass = No Stroke", fillcolor="#e58139"] ;
81 -> 82 ;
83 [label="gini = 0.0\nsamples = 1\nvalue = [0, 1]\nclass = Stroke", fillcolor="#399de5"] ;
81 -> 83 ;
84 [label="gini = 0.0\nsamples = 7\nvalue = [7, 0]\nclass = No Stroke", fillcolor="#e58139"] ;
80 -> 84 ;
85 [label="gini = 0.0\nsamples = 24\nvalue = [24, 0]\nclass = No Stroke", fillcolor="#e58139"] ;
79 -> 85 ;
86 [label="avg_glucose <= 86.24\ngini = 0.121\nsamples = 372\nvalue = [348, 24]\nclass = No Stroke", fillcolor="#e78a47"] ;
38 -> 86 ;
87 [label="gini = 0.0\nsamples = 1\nvalue = [0, 1]\nclass = Stroke", fillcolor="#399de5"] ;
86 -> 87 ;
88 [label="age <= 58.5\ngini = 0.116\nsamples = 371\nvalue = [348, 23]\nclass = No Stroke", fillcolor="#e78946"] ;
86 -> 88 ;
89 [label="avg_glucose <= 105.015\ngini = 0.081\nsamples = 261\nvalue = [250, 11]\nclass = No Stroke", fillcolor="#e68742"] ;
88 -> 89 ;
90 [label="avg_glucose <= 104.465\ngini = 0.13\nsamples = 143\nvalue = [133, 10]\nclass = No Stroke", fillcolor="#e78a48"] ;
89 -> 90 ;
91 [label="bmi <= 31.45\ngini = 0.119\nsamples = 142\nvalue = [133, 9]\nclass = No Stroke", fillcolor="#e78a46"] ;
90 -> 91 ;
92 [label="residence_type <= 0.5\ngini = 0.2\nsamples = 71\nvalue = [63, 8]\nclass = No Stroke", fillcolor="#e89152"] ;
91 -> 92 ;
93 [label="bmi <= 26.45\ngini = 0.334\nsamples = 33\nvalue = [26, 7]\nclass = No Stroke", fillcolor="#eca36e"] ;
92 -> 93 ;
94 [label="ever_married <= 0.5\ngini = 0.5\nsamples = 4\nvalue = [2, 2]\nclass = No Stroke", fillcolor="#ffffff"] ;
93 -> 94 ;
95 [label="gini = 0.0\nsamples = 1\nvalue = [1, 0]\nclass = No Stroke", fillcolor="#e58139"] ;
94 -> 95 ;
96 [label="age <= 56.0\ngini = 0.444\nsamples = 3\nvalue = [1, 2]\nclass = Stroke", fillcolor="#9ccef2"] ;
94 -> 96 ;
97 [label="gini = 0.0\nsamples = 2\nvalue = [0, 2]\nclass = Stroke", fillcolor="#399de5"] ;
96 -> 97 ;
98 [label="gini = 0.0\nsamples = 1\nvalue = [1, 0]\nclass = No Stroke", fillcolor="#e58139"] ;
96 -> 98 ;
99 [label="work_type <= 2.5\ngini = 0.285\nsamples = 29\nvalue = [24, 5]\nclass = No Stroke", fillcolor="#ea9b62"] ;
93 -> 99 ;
100 [label="smoking_status <= 0.5\ngini = 0.5\nsamples = 4\nvalue = [2, 2]\nclass = No Stroke", fillcolor="#ffffff"] ;
99 -> 100 ;
101 [label="gini = 0.0\nsamples = 1\nvalue = [0, 1]\nclass = Stroke", fillcolor="#399de5"] ;
100 -> 101 ;
102 [label="smoking_status <= 1.5\ngini = 0.444\nsamples = 3\nvalue = [2, 1]\nclass = No Stroke", fillcolor="#f2c09c"] ;
100 -> 102 ;
103 [label="gini = 0.0\nsamples = 2\nvalue = [2, 0]\nclass = No Stroke", fillcolor="#e58139"] ;
102 -> 103 ;
104 [label="gini = 0.0\nsamples = 1\nvalue = [0, 1]\nclass = Stroke", fillcolor="#399de5"] ;
102 -> 104 ;
105 [label="smoking_status <= 1.5\ngini = 0.211\nsamples = 25\nvalue = [22, 3]\nclass = No Stroke", fillcolor="#e99254"] ;
99 -> 105 ;
106 [label="age <= 45.5\ngini = 0.105\nsamples = 18\nvalue = [17, 1]\nclass = No Stroke", fillcolor="#e78845"] ;
105 -> 106 ;
107 [label="avg_glucose <= 95.42\ngini = 0.5\nsamples = 2\nvalue = [1, 1]\nclass = No Stroke", fillcolor="#ffffff"] ;
106 -> 107 ;
108 [label="gini = 0.0\nsamples = 1\nvalue = [0, 1]\nclass = Stroke", fillcolor="#399de5"] ;
107 -> 108 ;
109 [label="gini = 0.0\nsamples = 1\nvalue = [1, 0]\nclass = No Stroke", fillcolor="#e58139"] ;
107 -> 109 ;
110 [label="gini = 0.0\nsamples = 16\nvalue = [16, 0]\nclass = No Stroke", fillcolor="#e58139"] ;
106 -> 110 ;
111 [label="avg_glucose <= 96.295\ngini = 0.408\nsamples = 7\nvalue = [5, 2]\nclass = No Stroke", fillcolor="#efb388"] ;
105 -> 111 ;
112 [label="gini = 0.0\nsamples = 4\nvalue = [4, 0]\nclass = No Stroke", fillcolor="#e58139"] ;
111 -> 112 ;
113 [label="heart_disease <= 0.5\ngini = 0.444\nsamples = 3\nvalue = [1, 2]\nclass = Stroke", fillcolor="#9ccef2"] ;
111 -> 113 ;
114 [label="gini = 0.0\nsamples = 2\nvalue = [0, 2]\nclass = Stroke", fillcolor="#399de5"] ;
113 -> 114 ;
115 [label="gini = 0.0\nsamples = 1\nvalue = [1, 0]\nclass = No Stroke", fillcolor="#e58139"] ;
113 -> 115 ;
116 [label="hypertension <= 0.5\ngini = 0.051\nsamples = 38\nvalue = [37, 1]\nclass = No Stroke", fillcolor="#e6843e"] ;
92 -> 116 ;
117 [label="gini = 0.0\nsamples = 36\nvalue = [36, 0]\nclass = No Stroke", fillcolor="#e58139"] ;
116 -> 117 ;
118 [label="smoking_status <= 0.5\ngini = 0.5\nsamples = 2\nvalue = [1, 1]\nclass = No Stroke", fillcolor="#ffffff"] ;
116 -> 118 ;
119 [label="gini = 0.0\nsamples = 1\nvalue = [1, 0]\nclass = No Stroke", fillcolor="#e58139"] ;
118 -> 119 ;
120 [label="gini = 0.0\nsamples = 1\nvalue = [0, 1]\nclass = Stroke", fillcolor="#399de5"] ;
118 -> 120 ;
121 [label="avg_glucose <= 86.965\ngini = 0.028\nsamples = 71\nvalue = [70, 1]\nclass = No Stroke", fillcolor="#e5833c"] ;
91 -> 121 ;
122 [label="avg_glucose <= 86.76\ngini = 0.375\nsamples = 4\nvalue = [3, 1]\nclass = No Stroke", fillcolor="#eeab7b"] ;
121 -> 122 ;
123 [label="gini = 0.0\nsamples = 3\nvalue = [3, 0]\nclass = No Stroke", fillcolor="#e58139"] ;
122 -> 123 ;
124 [label="gini = 0.0\nsamples = 1\nvalue = [0, 1]\nclass = Stroke", fillcolor="#399de5"] ;
122 -> 124 ;
125 [label="gini = 0.0\nsamples = 67\nvalue = [67, 0]\nclass = No Stroke", fillcolor="#e58139"] ;
121 -> 125 ;
126 [label="gini = 0.0\nsamples = 1\nvalue = [0, 1]\nclass = Stroke", fillcolor="#399de5"] ;
90 -> 126 ;
127 [label="bmi <= 42.3\ngini = 0.017\nsamples = 118\nvalue = [117, 1]\nclass = No Stroke", fillcolor="#e5823b"] ;
89 -> 127 ;
128 [label="gini = 0.0\nsamples = 110\nvalue = [110, 0]\nclass = No Stroke", fillcolor="#e58139"] ;
127 -> 128 ;
129 [label="bmi <= 42.7\ngini = 0.219\nsamples = 8\nvalue = [7, 1]\nclass = No Stroke", fillcolor="#e99355"] ;
127 -> 129 ;
130 [label="gini = 0.0\nsamples = 1\nvalue = [0, 1]\nclass = Stroke", fillcolor="#399de5"] ;
129 -> 130 ;
131 [label="gini = 0.0\nsamples = 7\nvalue = [7, 0]\nclass = No Stroke", fillcolor="#e58139"] ;
129 -> 131 ;
132 [label="heart_disease <= 0.5\ngini = 0.194\nsamples = 110\nvalue = [98, 12]\nclass = No Stroke", fillcolor="#e89051"] ;
88 -> 132 ;
133 [label="avg_glucose <= 110.725\ngini = 0.149\nsamples = 99\nvalue = [91, 8]\nclass = No Stroke", fillcolor="#e78c4a"] ;
132 -> 133 ;
134 [label="bmi <= 28.25\ngini = 0.084\nsamples = 68\nvalue = [65, 3]\nclass = No Stroke", fillcolor="#e68742"] ;
133 -> 134 ;
135 [label="bmi <= 28.05\ngini = 0.219\nsamples = 16\nvalue = [14, 2]\nclass = No Stroke", fillcolor="#e99355"] ;
134 -> 135 ;
136 [label="age <= 60.5\ngini = 0.124\nsamples = 15\nvalue = [14, 1]\nclass = No Stroke", fillcolor="#e78a47"] ;
135 -> 136 ;
137 [label="smoking_status <= 1.5\ngini = 0.444\nsamples = 3\nvalue = [2, 1]\nclass = No Stroke", fillcolor="#f2c09c"] ;
136 -> 137 ;
138 [label="gini = 0.0\nsamples = 2\nvalue = [2, 0]\nclass = No Stroke", fillcolor="#e58139"] ;
137 -> 138 ;
139 [label="gini = 0.0\nsamples = 1\nvalue = [0, 1]\nclass = Stroke", fillcolor="#399de5"] ;
137 -> 139 ;
140 [label="gini = 0.0\nsamples = 12\nvalue = [12, 0]\nclass = No Stroke", fillcolor="#e58139"] ;
136 -> 140 ;
141 [label="gini = 0.0\nsamples = 1\nvalue = [0, 1]\nclass = Stroke", fillcolor="#399de5"] ;
135 -> 141 ;
142 [label="ever_married <= 0.5\ngini = 0.038\nsamples = 52\nvalue = [51, 1]\nclass = No Stroke", fillcolor="#e6833d"] ;
134 -> 142 ;
143 [label="bmi <= 35.45\ngini = 0.375\nsamples = 4\nvalue = [3, 1]\nclass = No Stroke", fillcolor="#eeab7b"] ;
142 -> 143 ;
144 [label="gini = 0.0\nsamples = 3\nvalue = [3, 0]\nclass = No Stroke", fillcolor="#e58139"] ;
143 -> 144 ;
145 [label="gini = 0.0\nsamples = 1\nvalue = [0, 1]\nclass = Stroke", fillcolor="#399de5"] ;
143 -> 145 ;
146 [label="gini = 0.0\nsamples = 48\nvalue = [48, 0]\nclass = No Stroke", fillcolor="#e58139"] ;
142 -> 146 ;
147 [label="avg_glucose <= 111.49\ngini = 0.271\nsamples = 31\nvalue = [26, 5]\nclass = No Stroke", fillcolor="#ea995f"] ;
133 -> 147 ;
148 [label="gini = 0.0\nsamples = 1\nvalue = [0, 1]\nclass = Stroke", fillcolor="#399de5"] ;
147 -> 148 ;
149 [label="age <= 65.5\ngini = 0.231\nsamples = 30\nvalue = [26, 4]\nclass = No Stroke", fillcolor="#e99457"] ;
147 -> 149 ;
150 [label="bmi <= 31.65\ngini = 0.147\nsamples = 25\nvalue = [23, 2]\nclass = No Stroke", fillcolor="#e78c4a"] ;
149 -> 150 ;
151 [label="gini = 0.0\nsamples = 14\nvalue = [14, 0]\nclass = No Stroke", fillcolor="#e58139"] ;
150 -> 151 ;
152 [label="bmi <= 32.55\ngini = 0.298\nsamples = 11\nvalue = [9, 2]\nclass = No Stroke", fillcolor="#eb9d65"] ;
150 -> 152 ;
153 [label="gini = 0.0\nsamples = 1\nvalue = [0, 1]\nclass = Stroke", fillcolor="#399de5"] ;
152 -> 153 ;
154 [label="age <= 59.5\ngini = 0.18\nsamples = 10\nvalue = [9, 1]\nclass = No Stroke", fillcolor="#e88f4f"] ;
152 -> 154 ;
155 [label="smoking_status <= 1.0\ngini = 0.5\nsamples = 2\nvalue = [1, 1]\nclass = No Stroke", fillcolor="#ffffff"] ;
154 -> 155 ;
156 [label="gini = 0.0\nsamples = 1\nvalue = [1, 0]\nclass = No Stroke", fillcolor="#e58139"] ;
155 -> 156 ;
157 [label="gini = 0.0\nsamples = 1\nvalue = [0, 1]\nclass = Stroke", fillcolor="#399de5"] ;
155 -> 157 ;
158 [label="gini = 0.0\nsamples = 8\nvalue = [8, 0]\nclass = No Stroke", fillcolor="#e58139"] ;
154 -> 158 ;
159 [label="hypertension <= 0.5\ngini = 0.48\nsamples = 5\nvalue = [3, 2]\nclass = No Stroke", fillcolor="#f6d5bd"] ;
149 -> 159 ;
160 [label="residence_type <= 0.5\ngini = 0.375\nsamples = 4\nvalue = [3, 1]\nclass = No Stroke", fillcolor="#eeab7b"] ;
159 -> 160 ;
161 [label="gini = 0.0\nsamples = 3\nvalue = [3, 0]\nclass = No Stroke", fillcolor="#e58139"] ;
160 -> 161 ;
162 [label="gini = 0.0\nsamples = 1\nvalue = [0, 1]\nclass = Stroke", fillcolor="#399de5"] ;
160 -> 162 ;
163 [label="gini = 0.0\nsamples = 1\nvalue = [0, 1]\nclass = Stroke", fillcolor="#399de5"] ;
159 -> 163 ;
164 [label="age <= 61.5\ngini = 0.463\nsamples = 11\nvalue = [7, 4]\nclass = No Stroke", fillcolor="#f4c9aa"] ;
132 -> 164 ;
165 [label="ever_married <= 0.5\ngini = 0.32\nsamples = 5\nvalue = [1, 4]\nclass = Stroke", fillcolor="#6ab6ec"] ;
164 -> 165 ;
166 [label="gini = 0.0\nsamples = 1\nvalue = [1, 0]\nclass = No Stroke", fillcolor="#e58139"] ;
165 -> 166 ;
167 [label="gini = 0.0\nsamples = 4\nvalue = [0, 4]\nclass = Stroke", fillcolor="#399de5"] ;
165 -> 167 ;
168 [label="gini = 0.0\nsamples = 6\nvalue = [6, 0]\nclass = No Stroke", fillcolor="#e58139"] ;
164 -> 168 ;
169 [label="avg_glucose <= 172.045\ngini = 0.185\nsamples = 184\nvalue = [165, 19]\nclass = No Stroke", fillcolor="#e89050"] ;
25 -> 169 ;
170 [label="gini = 0.0\nsamples = 1\nvalue = [0, 1]\nclass = Stroke", fillcolor="#399de5"] ;
169 -> 170 ;
171 [label="bmi <= 20.25\ngini = 0.177\nsamples = 183\nvalue = [165, 18]\nclass = No Stroke", fillcolor="#e88f4f"] ;
169 -> 171 ;
172 [label="gini = 0.0\nsamples = 1\nvalue = [0, 1]\nclass = Stroke", fillcolor="#399de5"] ;
171 -> 172 ;
173 [label="bmi <= 36.45\ngini = 0.169\nsamples = 182\nvalue = [165, 17]\nclass = No Stroke", fillcolor="#e88e4d"] ;
171 -> 173 ;
174 [label="avg_glucose <= 181.575\ngini = 0.099\nsamples = 115\nvalue = [109, 6]\nclass = No Stroke", fillcolor="#e68844"] ;
173 -> 174 ;
175 [label="avg_glucose <= 180.865\ngini = 0.231\nsamples = 15\nvalue = [13, 2]\nclass = No Stroke", fillcolor="#e99457"] ;
174 -> 175 ;
176 [label="age <= 66.0\ngini = 0.133\nsamples = 14\nvalue = [13, 1]\nclass = No Stroke", fillcolor="#e78b48"] ;
175 -> 176 ;
177 [label="gini = 0.0\nsamples = 13\nvalue = [13, 0]\nclass = No Stroke", fillcolor="#e58139"] ;
176 -> 177 ;
178 [label="gini = 0.0\nsamples = 1\nvalue = [0, 1]\nclass = Stroke", fillcolor="#399de5"] ;
176 -> 178 ;
179 [label="gini = 0.0\nsamples = 1\nvalue = [0, 1]\nclass = Stroke", fillcolor="#399de5"] ;
175 -> 179 ;
180 [label="gender <= 0.5\ngini = 0.077\nsamples = 100\nvalue = [96, 4]\nclass = No Stroke", fillcolor="#e68641"] ;
174 -> 180 ;
181 [label="gini = 0.0\nsamples = 40\nvalue = [40, 0]\nclass = No Stroke", fillcolor="#e58139"] ;
180 -> 181 ;
182 [label="avg_glucose <= 248.84\ngini = 0.124\nsamples = 60\nvalue = [56, 4]\nclass = No Stroke", fillcolor="#e78a47"] ;
180 -> 182 ;
183 [label="work_type <= 3.5\ngini = 0.098\nsamples = 58\nvalue = [55, 3]\nclass = No Stroke", fillcolor="#e68844"] ;
182 -> 183 ;
184 [label="gini = 0.0\nsamples = 20\nvalue = [20, 0]\nclass = No Stroke", fillcolor="#e58139"] ;
183 -> 184 ;
185 [label="age <= 62.0\ngini = 0.145\nsamples = 38\nvalue = [35, 3]\nclass = No Stroke", fillcolor="#e78c4a"] ;
183 -> 185 ;
186 [label="avg_glucose <= 198.35\ngini = 0.077\nsamples = 25\nvalue = [24, 1]\nclass = No Stroke", fillcolor="#e68641"] ;
185 -> 186 ;
187 [label="avg_glucose <= 194.47\ngini = 0.375\nsamples = 4\nvalue = [3, 1]\nclass = No Stroke", fillcolor="#eeab7b"] ;
186 -> 187 ;
188 [label="gini = 0.0\nsamples = 3\nvalue = [3, 0]\nclass = No Stroke", fillcolor="#e58139"] ;
187 -> 188 ;
189 [label="gini = 0.0\nsamples = 1\nvalue = [0, 1]\nclass = Stroke", fillcolor="#399de5"] ;
187 -> 189 ;
190 [label="gini = 0.0\nsamples = 21\nvalue = [21, 0]\nclass = No Stroke", fillcolor="#e58139"] ;
186 -> 190 ;
191 [label="bmi <= 27.8\ngini = 0.26\nsamples = 13\nvalue = [11, 2]\nclass = No Stroke", fillcolor="#ea985d"] ;
185 -> 191 ;
192 [label="gini = 0.0\nsamples = 1\nvalue = [0, 1]\nclass = Stroke", fillcolor="#399de5"] ;
191 -> 192 ;
193 [label="age <= 63.5\ngini = 0.153\nsamples = 12\nvalue = [11, 1]\nclass = No Stroke", fillcolor="#e78c4b"] ;
191 -> 193 ;
194 [label="avg_glucose <= 203.895\ngini = 0.444\nsamples = 3\nvalue = [2, 1]\nclass = No Stroke", fillcolor="#f2c09c"] ;
193 -> 194 ;
195 [label="gini = 0.0\nsamples = 1\nvalue = [1, 0]\nclass = No Stroke", fillcolor="#e58139"] ;
194 -> 195 ;
196 [label="smoking_status <= 0.5\ngini = 0.5\nsamples = 2\nvalue = [1, 1]\nclass = No Stroke", fillcolor="#ffffff"] ;
194 -> 196 ;
197 [label="gini = 0.0\nsamples = 1\nvalue = [1, 0]\nclass = No Stroke", fillcolor="#e58139"] ;
196 -> 197 ;
198 [label="gini = 0.0\nsamples = 1\nvalue = [0, 1]\nclass = Stroke", fillcolor="#399de5"] ;
196 -> 198 ;
199 [label="gini = 0.0\nsamples = 9\nvalue = [9, 0]\nclass = No Stroke", fillcolor="#e58139"] ;
193 -> 199 ;
200 [label="bmi <= 33.4\ngini = 0.5\nsamples = 2\nvalue = [1, 1]\nclass = No Stroke", fillcolor="#ffffff"] ;
182 -> 200 ;
201 [label="gini = 0.0\nsamples = 1\nvalue = [1, 0]\nclass = No Stroke", fillcolor="#e58139"] ;
200 -> 201 ;
202 [label="gini = 0.0\nsamples = 1\nvalue = [0, 1]\nclass = Stroke", fillcolor="#399de5"] ;
200 -> 202 ;
203 [label="heart_disease <= 0.5\ngini = 0.274\nsamples = 67\nvalue = [56, 11]\nclass = No Stroke", fillcolor="#ea9a60"] ;
173 -> 203 ;
204 [label="age <= 45.5\ngini = 0.225\nsamples = 62\nvalue = [54, 8]\nclass = No Stroke", fillcolor="#e99456"] ;
203 -> 204 ;
205 [label="gini = 0.0\nsamples = 1\nvalue = [0, 1]\nclass = Stroke", fillcolor="#399de5"] ;
204 -> 205 ;
206 [label="avg_glucose <= 206.01\ngini = 0.203\nsamples = 61\nvalue = [54, 7]\nclass = No Stroke", fillcolor="#e89153"] ;
204 -> 206 ;
207 [label="avg_glucose <= 205.305\ngini = 0.36\nsamples = 17\nvalue = [13, 4]\nclass = No Stroke", fillcolor="#eda876"] ;
206 -> 207 ;
208 [label="avg_glucose <= 185.24\ngini = 0.231\nsamples = 15\nvalue = [13, 2]\nclass = No Stroke", fillcolor="#e99457"] ;
207 -> 208 ;
209 [label="avg_glucose <= 180.975\ngini = 0.5\nsamples = 2\nvalue = [1, 1]\nclass = No Stroke", fillcolor="#ffffff"] ;
208 -> 209 ;
210 [label="gini = 0.0\nsamples = 1\nvalue = [1, 0]\nclass = No Stroke", fillcolor="#e58139"] ;
209 -> 210 ;
211 [label="gini = 0.0\nsamples = 1\nvalue = [0, 1]\nclass = Stroke", fillcolor="#399de5"] ;
209 -> 211 ;
212 [label="age <= 54.5\ngini = 0.142\nsamples = 13\nvalue = [12, 1]\nclass = No Stroke", fillcolor="#e78c49"] ;
208 -> 212 ;
213 [label="bmi <= 42.1\ngini = 0.444\nsamples = 3\nvalue = [2, 1]\nclass = No Stroke", fillcolor="#f2c09c"] ;
212 -> 213 ;
214 [label="gini = 0.0\nsamples = 1\nvalue = [0, 1]\nclass = Stroke", fillcolor="#399de5"] ;
213 -> 214 ;
215 [label="gini = 0.0\nsamples = 2\nvalue = [2, 0]\nclass = No Stroke", fillcolor="#e58139"] ;
213 -> 215 ;
216 [label="gini = 0.0\nsamples = 10\nvalue = [10, 0]\nclass = No Stroke", fillcolor="#e58139"] ;
212 -> 216 ;
217 [label="gini = 0.0\nsamples = 2\nvalue = [0, 2]\nclass = Stroke", fillcolor="#399de5"] ;
207 -> 217 ;
218 [label="smoking_status <= 1.5\ngini = 0.127\nsamples = 44\nvalue = [41, 3]\nclass = No Stroke", fillcolor="#e78a47"] ;
206 -> 218 ;
219 [label="avg_glucose <= 232.965\ngini = 0.054\nsamples = 36\nvalue = [35, 1]\nclass = No Stroke", fillcolor="#e6853f"] ;
218 -> 219 ;
220 [label="gini = 0.0\nsamples = 28\nvalue = [28, 0]\nclass = No Stroke", fillcolor="#e58139"] ;
219 -> 220 ;
221 [label="avg_glucose <= 233.87\ngini = 0.219\nsamples = 8\nvalue = [7, 1]\nclass = No Stroke", fillcolor="#e99355"] ;
219 -> 221 ;
222 [label="gini = 0.0\nsamples = 1\nvalue = [0, 1]\nclass = Stroke", fillcolor="#399de5"] ;
221 -> 222 ;
223 [label="gini = 0.0\nsamples = 7\nvalue = [7, 0]\nclass = No Stroke", fillcolor="#e58139"] ;
221 -> 223 ;
224 [label="age <= 56.5\ngini = 0.375\nsamples = 8\nvalue = [6, 2]\nclass = No Stroke", fillcolor="#eeab7b"] ;
218 -> 224 ;
225 [label="gini = 0.0\nsamples = 4\nvalue = [4, 0]\nclass = No Stroke", fillcolor="#e58139"] ;
224 -> 225 ;
226 [label="work_type <= 3.5\ngini = 0.5\nsamples = 4\nvalue = [2, 2]\nclass = No Stroke", fillcolor="#ffffff"] ;
224 -> 226 ;
227 [label="gini = 0.0\nsamples = 2\nvalue = [2, 0]\nclass = No Stroke", fillcolor="#e58139"] ;
226 -> 227 ;
228 [label="gini = 0.0\nsamples = 2\nvalue = [0, 2]\nclass = Stroke", fillcolor="#399de5"] ;
226 -> 228 ;
229 [label="age <= 61.5\ngini = 0.48\nsamples = 5\nvalue = [2, 3]\nclass = Stroke", fillcolor="#bddef6"] ;
203 -> 229 ;
230 [label="gini = 0.0\nsamples = 2\nvalue = [2, 0]\nclass = No Stroke", fillcolor="#e58139"] ;
229 -> 230 ;
231 [label="gini = 0.0\nsamples = 3\nvalue = [0, 3]\nclass = Stroke", fillcolor="#399de5"] ;
229 -> 231 ;
232 [label="bmi <= 44.85\ngini = 0.272\nsamples = 511\nvalue = [428, 83]\nclass = No Stroke", fillcolor="#ea995f"] ;
0 -> 232 [labeldistance=2.5, labelangle=-45, headlabel="False"] ;
233 [label="hypertension <= 0.5\ngini = 0.264\nsamples = 505\nvalue = [426, 79]\nclass = No Stroke", fillcolor="#ea985e"] ;
232 -> 233 ;
234 [label="age <= 76.5\ngini = 0.223\nsamples = 376\nvalue = [328, 48]\nclass = No Stroke", fillcolor="#e99356"] ;
233 -> 234 ;
235 [label="bmi <= 34.65\ngini = 0.14\nsamples = 198\nvalue = [183, 15]\nclass = No Stroke", fillcolor="#e78b49"] ;
234 -> 235 ;
236 [label="bmi <= 33.6\ngini = 0.167\nsamples = 163\nvalue = [148, 15]\nclass = No Stroke", fillcolor="#e88e4d"] ;
235 -> 236 ;
237 [label="bmi <= 30.0\ngini = 0.133\nsamples = 154\nvalue = [143, 11]\nclass = No Stroke", fillcolor="#e78b48"] ;
236 -> 237 ;
238 [label="bmi <= 29.85\ngini = 0.177\nsamples = 112\nvalue = [101, 11]\nclass = No Stroke", fillcolor="#e88f4f"] ;
237 -> 238 ;
239 [label="work_type <= 3.5\ngini = 0.164\nsamples = 111\nvalue = [101, 10]\nclass = No Stroke", fillcolor="#e88d4d"] ;
238 -> 239 ;
240 [label="bmi <= 27.4\ngini = 0.245\nsamples = 63\nvalue = [54, 9]\nclass = No Stroke", fillcolor="#e9965a"] ;
239 -> 240 ;
241 [label="avg_glucose <= 76.815\ngini = 0.133\nsamples = 42\nvalue = [39, 3]\nclass = No Stroke", fillcolor="#e78b48"] ;
240 -> 241 ;
242 [label="avg_glucose <= 74.66\ngini = 0.346\nsamples = 9\nvalue = [7, 2]\nclass = No Stroke", fillcolor="#eca572"] ;
241 -> 242 ;
243 [label="gini = 0.0\nsamples = 6\nvalue = [6, 0]\nclass = No Stroke", fillcolor="#e58139"] ;
242 -> 243 ;
244 [label="age <= 69.0\ngini = 0.444\nsamples = 3\nvalue = [1, 2]\nclass = Stroke", fillcolor="#9ccef2"] ;
242 -> 244 ;
245 [label="gini = 0.0\nsamples = 1\nvalue = [1, 0]\nclass = No Stroke", fillcolor="#e58139"] ;
244 -> 245 ;
246 [label="gini = 0.0\nsamples = 2\nvalue = [0, 2]\nclass = Stroke", fillcolor="#399de5"] ;
244 -> 246 ;
247 [label="smoking_status <= 1.5\ngini = 0.059\nsamples = 33\nvalue = [32, 1]\nclass = No Stroke", fillcolor="#e6853f"] ;
241 -> 247 ;
248 [label="gini = 0.0\nsamples = 28\nvalue = [28, 0]\nclass = No Stroke", fillcolor="#e58139"] ;
247 -> 248 ;
249 [label="age <= 71.5\ngini = 0.32\nsamples = 5\nvalue = [4, 1]\nclass = No Stroke", fillcolor="#eca06a"] ;
247 -> 249 ;
250 [label="gini = 0.0\nsamples = 1\nvalue = [0, 1]\nclass = Stroke", fillcolor="#399de5"] ;
249 -> 250 ;
251 [label="gini = 0.0\nsamples = 4\nvalue = [4, 0]\nclass = No Stroke", fillcolor="#e58139"] ;
249 -> 251 ;
252 [label="avg_glucose <= 75.18\ngini = 0.408\nsamples = 21\nvalue = [15, 6]\nclass = No Stroke", fillcolor="#efb388"] ;
240 -> 252 ;
253 [label="gini = 0.0\nsamples = 5\nvalue = [5, 0]\nclass = No Stroke", fillcolor="#e58139"] ;
252 -> 253 ;
254 [label="avg_glucose <= 79.825\ngini = 0.469\nsamples = 16\nvalue = [10, 6]\nclass = No Stroke", fillcolor="#f5cdb0"] ;
252 -> 254 ;
255 [label="gini = 0.0\nsamples = 2\nvalue = [0, 2]\nclass = Stroke", fillcolor="#399de5"] ;
254 -> 255 ;
256 [label="heart_disease <= 0.5\ngini = 0.408\nsamples = 14\nvalue = [10, 4]\nclass = No Stroke", fillcolor="#efb388"] ;
254 -> 256 ;
257 [label="work_type <= 2.5\ngini = 0.298\nsamples = 11\nvalue = [9, 2]\nclass = No Stroke", fillcolor="#eb9d65"] ;
256 -> 257 ;
258 [label="age <= 68.5\ngini = 0.48\nsamples = 5\nvalue = [3, 2]\nclass = No Stroke", fillcolor="#f6d5bd"] ;
257 -> 258 ;
259 [label="gini = 0.0\nsamples = 2\nvalue = [2, 0]\nclass = No Stroke", fillcolor="#e58139"] ;
258 -> 259 ;
260 [label="gender <= 0.5\ngini = 0.444\nsamples = 3\nvalue = [1, 2]\nclass = Stroke", fillcolor="#9ccef2"] ;
258 -> 260 ;
261 [label="gini = 0.0\nsamples = 2\nvalue = [0, 2]\nclass = Stroke", fillcolor="#399de5"] ;
260 -> 261 ;
262 [label="gini = 0.0\nsamples = 1\nvalue = [1, 0]\nclass = No Stroke", fillcolor="#e58139"] ;
260 -> 262 ;
263 [label="gini = 0.0\nsamples = 6\nvalue = [6, 0]\nclass = No Stroke", fillcolor="#e58139"] ;
257 -> 263 ;
264 [label="avg_glucose <= 146.38\ngini = 0.444\nsamples = 3\nvalue = [1, 2]\nclass = Stroke", fillcolor="#9ccef2"] ;
256 -> 264 ;
265 [label="gini = 0.0\nsamples = 1\nvalue = [1, 0]\nclass = No Stroke", fillcolor="#e58139"] ;
264 -> 265 ;
266 [label="gini = 0.0\nsamples = 2\nvalue = [0, 2]\nclass = Stroke", fillcolor="#399de5"] ;
264 -> 266 ;
267 [label="ever_married <= 0.5\ngini = 0.041\nsamples = 48\nvalue = [47, 1]\nclass = No Stroke", fillcolor="#e6843d"] ;
239 -> 267 ;
268 [label="gini = 0.0\nsamples = 1\nvalue = [0, 1]\nclass = Stroke", fillcolor="#399de5"] ;
267 -> 268 ;
269 [label="gini = 0.0\nsamples = 47\nvalue = [47, 0]\nclass = No Stroke", fillcolor="#e58139"] ;
267 -> 269 ;
270 [label="gini = 0.0\nsamples = 1\nvalue = [0, 1]\nclass = Stroke", fillcolor="#399de5"] ;
238 -> 270 ;
271 [label="gini = 0.0\nsamples = 42\nvalue = [42, 0]\nclass = No Stroke", fillcolor="#e58139"] ;
237 -> 271 ;
272 [label="age <= 70.5\ngini = 0.494\nsamples = 9\nvalue = [5, 4]\nclass = No Stroke", fillcolor="#fae6d7"] ;
236 -> 272 ;
273 [label="gini = 0.0\nsamples = 3\nvalue = [3, 0]\nclass = No Stroke", fillcolor="#e58139"] ;
272 -> 273 ;
274 [label="age <= 75.0\ngini = 0.444\nsamples = 6\nvalue = [2, 4]\nclass = Stroke", fillcolor="#9ccef2"] ;
272 -> 274 ;
275 [label="avg_glucose <= 68.63\ngini = 0.32\nsamples = 5\nvalue = [1, 4]\nclass = Stroke", fillcolor="#6ab6ec"] ;
274 -> 275 ;
276 [label="gini = 0.0\nsamples = 1\nvalue = [1, 0]\nclass = No Stroke", fillcolor="#e58139"] ;
275 -> 276 ;
277 [label="gini = 0.0\nsamples = 4\nvalue = [0, 4]\nclass = Stroke", fillcolor="#399de5"] ;
275 -> 277 ;
278 [label="gini = 0.0\nsamples = 1\nvalue = [1, 0]\nclass = No Stroke", fillcolor="#e58139"] ;
274 -> 278 ;
279 [label="gini = 0.0\nsamples = 35\nvalue = [35, 0]\nclass = No Stroke", fillcolor="#e58139"] ;
235 -> 279 ;
280 [label="avg_glucose <= 251.76\ngini = 0.302\nsamples = 178\nvalue = [145, 33]\nclass = No Stroke", fillcolor="#eb9e66"] ;
234 -> 280 ;
281 [label="bmi <= 21.4\ngini = 0.292\nsamples = 175\nvalue = [144, 31]\nclass = No Stroke", fillcolor="#eb9c64"] ;
280 -> 281 ;
282 [label="gini = 0.0\nsamples = 12\nvalue = [12, 0]\nclass = No Stroke", fillcolor="#e58139"] ;
281 -> 282 ;
283 [label="bmi <= 34.15\ngini = 0.308\nsamples = 163\nvalue = [132, 31]\nclass = No Stroke", fillcolor="#eb9f68"] ;
281 -> 283 ;
284 [label="bmi <= 30.75\ngini = 0.33\nsamples = 144\nvalue = [114, 30]\nclass = No Stroke", fillcolor="#eca26d"] ;
283 -> 284 ;
285 [label="bmi <= 24.25\ngini = 0.283\nsamples = 117\nvalue = [97, 20]\nclass = No Stroke", fillcolor="#ea9b62"] ;
284 -> 285 ;
286 [label="residence_type <= 0.5\ngini = 0.397\nsamples = 33\nvalue = [24, 9]\nclass = No Stroke", fillcolor="#efb083"] ;
285 -> 286 ;
287 [label="bmi <= 22.55\ngini = 0.5\nsamples = 12\nvalue = [6, 6]\nclass = No Stroke", fillcolor="#ffffff"] ;
286 -> 287 ;
288 [label="heart_disease <= 0.5\ngini = 0.278\nsamples = 6\nvalue = [5, 1]\nclass = No Stroke", fillcolor="#ea9a61"] ;
287 -> 288 ;
289 [label="gini = 0.0\nsamples = 5\nvalue = [5, 0]\nclass = No Stroke", fillcolor="#e58139"] ;
288 -> 289 ;
290 [label="gini = 0.0\nsamples = 1\nvalue = [0, 1]\nclass = Stroke", fillcolor="#399de5"] ;
288 -> 290 ;
291 [label="work_type <= 3.5\ngini = 0.278\nsamples = 6\nvalue = [1, 5]\nclass = Stroke", fillcolor="#61b1ea"] ;
287 -> 291 ;
292 [label="gini = 0.0\nsamples = 1\nvalue = [1, 0]\nclass = No Stroke", fillcolor="#e58139"] ;
291 -> 292 ;
293 [label="gini = 0.0\nsamples = 5\nvalue = [0, 5]\nclass = Stroke", fillcolor="#399de5"] ;
291 -> 293 ;
294 [label="avg_glucose <= 95.63\ngini = 0.245\nsamples = 21\nvalue = [18, 3]\nclass = No Stroke", fillcolor="#e9965a"] ;
286 -> 294 ;
295 [label="bmi <= 24.15\ngini = 0.124\nsamples = 15\nvalue = [14, 1]\nclass = No Stroke", fillcolor="#e78a47"] ;
294 -> 295 ;
296 [label="gini = 0.0\nsamples = 13\nvalue = [13, 0]\nclass = No Stroke", fillcolor="#e58139"] ;
295 -> 296 ;
297 [label="heart_disease <= 0.5\ngini = 0.5\nsamples = 2\nvalue = [1, 1]\nclass = No Stroke", fillcolor="#ffffff"] ;
295 -> 297 ;
298 [label="gini = 0.0\nsamples = 1\nvalue = [1, 0]\nclass = No Stroke", fillcolor="#e58139"] ;
297 -> 298 ;
299 [label="gini = 0.0\nsamples = 1\nvalue = [0, 1]\nclass = Stroke", fillcolor="#399de5"] ;
297 -> 299 ;
300 [label="gender <= 0.5\ngini = 0.444\nsamples = 6\nvalue = [4, 2]\nclass = No Stroke", fillcolor="#f2c09c"] ;
294 -> 300 ;
301 [label="heart_disease <= 0.5\ngini = 0.444\nsamples = 3\nvalue = [1, 2]\nclass = Stroke", fillcolor="#9ccef2"] ;
300 -> 301 ;
302 [label="gini = 0.0\nsamples = 2\nvalue = [0, 2]\nclass = Stroke", fillcolor="#399de5"] ;
301 -> 302 ;
303 [label="gini = 0.0\nsamples = 1\nvalue = [1, 0]\nclass = No Stroke", fillcolor="#e58139"] ;
301 -> 303 ;
304 [label="gini = 0.0\nsamples = 3\nvalue = [3, 0]\nclass = No Stroke", fillcolor="#e58139"] ;
300 -> 304 ;
305 [label="avg_glucose <= 72.87\ngini = 0.228\nsamples = 84\nvalue = [73, 11]\nclass = No Stroke", fillcolor="#e99457"] ;
285 -> 305 ;
306 [label="avg_glucose <= 70.255\ngini = 0.375\nsamples = 16\nvalue = [12, 4]\nclass = No Stroke", fillcolor="#eeab7b"] ;
305 -> 306 ;
307 [label="bmi <= 24.7\ngini = 0.153\nsamples = 12\nvalue = [11, 1]\nclass = No Stroke", fillcolor="#e78c4b"] ;
306 -> 307 ;
308 [label="gini = 0.0\nsamples = 1\nvalue = [0, 1]\nclass = Stroke", fillcolor="#399de5"] ;
307 -> 308 ;
309 [label="gini = 0.0\nsamples = 11\nvalue = [11, 0]\nclass = No Stroke", fillcolor="#e58139"] ;
307 -> 309 ;
310 [label="bmi <= 26.95\ngini = 0.375\nsamples = 4\nvalue = [1, 3]\nclass = Stroke", fillcolor="#7bbeee"] ;
306 -> 310 ;
311 [label="gini = 0.0\nsamples = 2\nvalue = [0, 2]\nclass = Stroke", fillcolor="#399de5"] ;
310 -> 311 ;
312 [label="work_type <= 3.5\ngini = 0.5\nsamples = 2\nvalue = [1, 1]\nclass = No Stroke", fillcolor="#ffffff"] ;
310 -> 312 ;
313 [label="gini = 0.0\nsamples = 1\nvalue = [1, 0]\nclass = No Stroke", fillcolor="#e58139"] ;
312 -> 313 ;
314 [label="gini = 0.0\nsamples = 1\nvalue = [0, 1]\nclass = Stroke", fillcolor="#399de5"] ;
312 -> 314 ;
315 [label="bmi <= 26.55\ngini = 0.185\nsamples = 68\nvalue = [61, 7]\nclass = No Stroke", fillcolor="#e88f50"] ;
305 -> 315 ;
316 [label="gini = 0.0\nsamples = 22\nvalue = [22, 0]\nclass = No Stroke", fillcolor="#e58139"] ;
315 -> 316 ;
317 [label="bmi <= 26.65\ngini = 0.258\nsamples = 46\nvalue = [39, 7]\nclass = No Stroke", fillcolor="#ea985d"] ;
315 -> 317 ;
318 [label="gini = 0.0\nsamples = 1\nvalue = [0, 1]\nclass = Stroke", fillcolor="#399de5"] ;
317 -> 318 ;
319 [label="avg_glucose <= 85.955\ngini = 0.231\nsamples = 45\nvalue = [39, 6]\nclass = No Stroke", fillcolor="#e99457"] ;
317 -> 319 ;
320 [label="gini = 0.0\nsamples = 12\nvalue = [12, 0]\nclass = No Stroke", fillcolor="#e58139"] ;
319 -> 320 ;
321 [label="avg_glucose <= 87.16\ngini = 0.298\nsamples = 33\nvalue = [27, 6]\nclass = No Stroke", fillcolor="#eb9d65"] ;
319 -> 321 ;
322 [label="gini = 0.0\nsamples = 1\nvalue = [0, 1]\nclass = Stroke", fillcolor="#399de5"] ;
321 -> 322 ;
323 [label="bmi <= 27.8\ngini = 0.264\nsamples = 32\nvalue = [27, 5]\nclass = No Stroke", fillcolor="#ea985e"] ;
321 -> 323 ;
324 [label="age <= 79.5\ngini = 0.444\nsamples = 9\nvalue = [6, 3]\nclass = No Stroke", fillcolor="#f2c09c"] ;
323 -> 324 ;
325 [label="smoking_status <= 0.5\ngini = 0.48\nsamples = 5\nvalue = [2, 3]\nclass = Stroke", fillcolor="#bddef6"] ;
324 -> 325 ;
326 [label="gini = 0.0\nsamples = 2\nvalue = [2, 0]\nclass = No Stroke", fillcolor="#e58139"] ;
325 -> 326 ;
327 [label="gini = 0.0\nsamples = 3\nvalue = [0, 3]\nclass = Stroke", fillcolor="#399de5"] ;
325 -> 327 ;
328 [label="gini = 0.0\nsamples = 4\nvalue = [4, 0]\nclass = No Stroke", fillcolor="#e58139"] ;
324 -> 328 ;
329 [label="avg_glucose <= 167.56\ngini = 0.159\nsamples = 23\nvalue = [21, 2]\nclass = No Stroke", fillcolor="#e78d4c"] ;
323 -> 329 ;
330 [label="gini = 0.0\nsamples = 14\nvalue = [14, 0]\nclass = No Stroke", fillcolor="#e58139"] ;
329 -> 330 ;
331 [label="avg_glucose <= 194.785\ngini = 0.346\nsamples = 9\nvalue = [7, 2]\nclass = No Stroke", fillcolor="#eca572"] ;
329 -> 331 ;
332 [label="gini = 0.0\nsamples = 1\nvalue = [0, 1]\nclass = Stroke", fillcolor="#399de5"] ;
331 -> 332 ;
333 [label="bmi <= 29.6\ngini = 0.219\nsamples = 8\nvalue = [7, 1]\nclass = No Stroke", fillcolor="#e99355"] ;
331 -> 333 ;
334 [label="gini = 0.0\nsamples = 5\nvalue = [5, 0]\nclass = No Stroke", fillcolor="#e58139"] ;
333 -> 334 ;
335 [label="bmi <= 30.0\ngini = 0.444\nsamples = 3\nvalue = [2, 1]\nclass = No Stroke", fillcolor="#f2c09c"] ;
333 -> 335 ;
336 [label="gini = 0.0\nsamples = 1\nvalue = [0, 1]\nclass = Stroke", fillcolor="#399de5"] ;
335 -> 336 ;
337 [label="gini = 0.0\nsamples = 2\nvalue = [2, 0]\nclass = No Stroke", fillcolor="#e58139"] ;
335 -> 337 ;
338 [label="avg_glucose <= 209.875\ngini = 0.466\nsamples = 27\nvalue = [17, 10]\nclass = No Stroke", fillcolor="#f4cbad"] ;
284 -> 338 ;
339 [label="avg_glucose <= 87.105\ngini = 0.491\nsamples = 23\nvalue = [13, 10]\nclass = No Stroke", fillcolor="#f9e2d1"] ;
338 -> 339 ;
340 [label="bmi <= 33.9\ngini = 0.346\nsamples = 9\nvalue = [7, 2]\nclass = No Stroke", fillcolor="#eca572"] ;
339 -> 340 ;
341 [label="avg_glucose <= 61.445\ngini = 0.219\nsamples = 8\nvalue = [7, 1]\nclass = No Stroke", fillcolor="#e99355"] ;
340 -> 341 ;
342 [label="residence_type <= 0.5\ngini = 0.5\nsamples = 2\nvalue = [1, 1]\nclass = No Stroke", fillcolor="#ffffff"] ;
341 -> 342 ;
343 [label="gini = 0.0\nsamples = 1\nvalue = [0, 1]\nclass = Stroke", fillcolor="#399de5"] ;
342 -> 343 ;
344 [label="gini = 0.0\nsamples = 1\nvalue = [1, 0]\nclass = No Stroke", fillcolor="#e58139"] ;
342 -> 344 ;
345 [label="gini = 0.0\nsamples = 6\nvalue = [6, 0]\nclass = No Stroke", fillcolor="#e58139"] ;
341 -> 345 ;
346 [label="gini = 0.0\nsamples = 1\nvalue = [0, 1]\nclass = Stroke", fillcolor="#399de5"] ;
340 -> 346 ;
347 [label="bmi <= 31.75\ngini = 0.49\nsamples = 14\nvalue = [6, 8]\nclass = Stroke", fillcolor="#cee6f8"] ;
339 -> 347 ;
348 [label="avg_glucose <= 114.25\ngini = 0.48\nsamples = 10\nvalue = [6, 4]\nclass = No Stroke", fillcolor="#f6d5bd"] ;
347 -> 348 ;
349 [label="smoking_status <= 0.5\ngini = 0.48\nsamples = 5\nvalue = [2, 3]\nclass = Stroke", fillcolor="#bddef6"] ;
348 -> 349 ;
350 [label="gini = 0.0\nsamples = 1\nvalue = [1, 0]\nclass = No Stroke", fillcolor="#e58139"] ;
349 -> 350 ;
351 [label="heart_disease <= 0.5\ngini = 0.375\nsamples = 4\nvalue = [1, 3]\nclass = Stroke", fillcolor="#7bbeee"] ;
349 -> 351 ;
352 [label="gini = 0.0\nsamples = 3\nvalue = [0, 3]\nclass = Stroke", fillcolor="#399de5"] ;
351 -> 352 ;
353 [label="gini = 0.0\nsamples = 1\nvalue = [1, 0]\nclass = No Stroke", fillcolor="#e58139"] ;
351 -> 353 ;
354 [label="smoking_status <= 1.5\ngini = 0.32\nsamples = 5\nvalue = [4, 1]\nclass = No Stroke", fillcolor="#eca06a"] ;
348 -> 354 ;
355 [label="gini = 0.0\nsamples = 4\nvalue = [4, 0]\nclass = No Stroke", fillcolor="#e58139"] ;
354 -> 355 ;
356 [label="gini = 0.0\nsamples = 1\nvalue = [0, 1]\nclass = Stroke", fillcolor="#399de5"] ;
354 -> 356 ;
357 [label="gini = 0.0\nsamples = 4\nvalue = [0, 4]\nclass = Stroke", fillcolor="#399de5"] ;
347 -> 357 ;
358 [label="gini = 0.0\nsamples = 4\nvalue = [4, 0]\nclass = No Stroke", fillcolor="#e58139"] ;
338 -> 358 ;
359 [label="heart_disease <= 0.5\ngini = 0.1\nsamples = 19\nvalue = [18, 1]\nclass = No Stroke", fillcolor="#e68844"] ;
283 -> 359 ;
360 [label="gini = 0.0\nsamples = 17\nvalue = [17, 0]\nclass = No Stroke", fillcolor="#e58139"] ;
359 -> 360 ;
361 [label="smoking_status <= 1.5\ngini = 0.5\nsamples = 2\nvalue = [1, 1]\nclass = No Stroke", fillcolor="#ffffff"] ;
359 -> 361 ;
362 [label="gini = 0.0\nsamples = 1\nvalue = [0, 1]\nclass = Stroke", fillcolor="#399de5"] ;
361 -> 362 ;
363 [label="gini = 0.0\nsamples = 1\nvalue = [1, 0]\nclass = No Stroke", fillcolor="#e58139"] ;
361 -> 363 ;
364 [label="bmi <= 29.65\ngini = 0.444\nsamples = 3\nvalue = [1, 2]\nclass = Stroke", fillcolor="#9ccef2"] ;
280 -> 364 ;
365 [label="gini = 0.0\nsamples = 1\nvalue = [1, 0]\nclass = No Stroke", fillcolor="#e58139"] ;
364 -> 365 ;
366 [label="gini = 0.0\nsamples = 2\nvalue = [0, 2]\nclass = Stroke", fillcolor="#399de5"] ;
364 -> 366 ;
367 [label="ever_married <= 0.5\ngini = 0.365\nsamples = 129\nvalue = [98, 31]\nclass = No Stroke", fillcolor="#eda978"] ;
233 -> 367 ;
368 [label="bmi <= 30.65\ngini = 0.48\nsamples = 15\nvalue = [6, 9]\nclass = Stroke", fillcolor="#bddef6"] ;
367 -> 368 ;
369 [label="bmi <= 27.55\ngini = 0.496\nsamples = 11\nvalue = [6, 5]\nclass = No Stroke", fillcolor="#fbeade"] ;
368 -> 369 ;
370 [label="residence_type <= 0.5\ngini = 0.444\nsamples = 6\nvalue = [2, 4]\nclass = Stroke", fillcolor="#9ccef2"] ;
369 -> 370 ;
371 [label="heart_disease <= 0.5\ngini = 0.444\nsamples = 3\nvalue = [2, 1]\nclass = No Stroke", fillcolor="#f2c09c"] ;
370 -> 371 ;
372 [label="gini = 0.0\nsamples = 2\nvalue = [2, 0]\nclass = No Stroke", fillcolor="#e58139"] ;
371 -> 372 ;
373 [label="gini = 0.0\nsamples = 1\nvalue = [0, 1]\nclass = Stroke", fillcolor="#399de5"] ;
371 -> 373 ;
374 [label="gini = 0.0\nsamples = 3\nvalue = [0, 3]\nclass = Stroke", fillcolor="#399de5"] ;
370 -> 374 ;
375 [label="age <= 68.5\ngini = 0.32\nsamples = 5\nvalue = [4, 1]\nclass = No Stroke", fillcolor="#eca06a"] ;
369 -> 375 ;
376 [label="gini = 0.0\nsamples = 1\nvalue = [0, 1]\nclass = Stroke", fillcolor="#399de5"] ;
375 -> 376 ;
377 [label="gini = 0.0\nsamples = 4\nvalue = [4, 0]\nclass = No Stroke", fillcolor="#e58139"] ;
375 -> 377 ;
378 [label="gini = 0.0\nsamples = 4\nvalue = [0, 4]\nclass = Stroke", fillcolor="#399de5"] ;
368 -> 378 ;
379 [label="avg_glucose <= 242.15\ngini = 0.311\nsamples = 114\nvalue = [92, 22]\nclass = No Stroke", fillcolor="#eb9f68"] ;
367 -> 379 ;
380 [label="avg_glucose <= 169.445\ngini = 0.286\nsamples = 110\nvalue = [91, 19]\nclass = No Stroke", fillcolor="#ea9b62"] ;
379 -> 380 ;
381 [label="avg_glucose <= 75.045\ngini = 0.2\nsamples = 71\nvalue = [63, 8]\nclass = No Stroke", fillcolor="#e89152"] ;
380 -> 381 ;
382 [label="avg_glucose <= 72.355\ngini = 0.42\nsamples = 20\nvalue = [14, 6]\nclass = No Stroke", fillcolor="#f0b78e"] ;
381 -> 382 ;
383 [label="gender <= 0.5\ngini = 0.245\nsamples = 14\nvalue = [12, 2]\nclass = No Stroke", fillcolor="#e9965a"] ;
382 -> 383 ;
384 [label="gini = 0.0\nsamples = 8\nvalue = [8, 0]\nclass = No Stroke", fillcolor="#e58139"] ;
383 -> 384 ;
385 [label="bmi <= 27.85\ngini = 0.444\nsamples = 6\nvalue = [4, 2]\nclass = No Stroke", fillcolor="#f2c09c"] ;
383 -> 385 ;
386 [label="avg_glucose <= 71.065\ngini = 0.444\nsamples = 3\nvalue = [1, 2]\nclass = Stroke", fillcolor="#9ccef2"] ;
385 -> 386 ;
387 [label="gini = 0.0\nsamples = 2\nvalue = [0, 2]\nclass = Stroke", fillcolor="#399de5"] ;
386 -> 387 ;
388 [label="gini = 0.0\nsamples = 1\nvalue = [1, 0]\nclass = No Stroke", fillcolor="#e58139"] ;
386 -> 388 ;
389 [label="gini = 0.0\nsamples = 3\nvalue = [3, 0]\nclass = No Stroke", fillcolor="#e58139"] ;
385 -> 389 ;
390 [label="bmi <= 29.0\ngini = 0.444\nsamples = 6\nvalue = [2, 4]\nclass = Stroke", fillcolor="#9ccef2"] ;
382 -> 390 ;
391 [label="gini = 0.0\nsamples = 4\nvalue = [0, 4]\nclass = Stroke", fillcolor="#399de5"] ;
390 -> 391 ;
392 [label="gini = 0.0\nsamples = 2\nvalue = [2, 0]\nclass = No Stroke", fillcolor="#e58139"] ;
390 -> 392 ;
393 [label="bmi <= 32.8\ngini = 0.075\nsamples = 51\nvalue = [49, 2]\nclass = No Stroke", fillcolor="#e68641"] ;
381 -> 393 ;
394 [label="gini = 0.0\nsamples = 37\nvalue = [37, 0]\nclass = No Stroke", fillcolor="#e58139"] ;
393 -> 394 ;
395 [label="bmi <= 34.25\ngini = 0.245\nsamples = 14\nvalue = [12, 2]\nclass = No Stroke", fillcolor="#e9965a"] ;
393 -> 395 ;
396 [label="work_type <= 3.5\ngini = 0.5\nsamples = 4\nvalue = [2, 2]\nclass = No Stroke", fillcolor="#ffffff"] ;
395 -> 396 ;
397 [label="gini = 0.0\nsamples = 2\nvalue = [0, 2]\nclass = Stroke", fillcolor="#399de5"] ;
396 -> 397 ;
398 [label="gini = 0.0\nsamples = 2\nvalue = [2, 0]\nclass = No Stroke", fillcolor="#e58139"] ;
396 -> 398 ;
399 [label="gini = 0.0\nsamples = 10\nvalue = [10, 0]\nclass = No Stroke", fillcolor="#e58139"] ;
395 -> 399 ;
400 [label="avg_glucose <= 196.99\ngini = 0.405\nsamples = 39\nvalue = [28, 11]\nclass = No Stroke", fillcolor="#efb287"] ;
380 -> 400 ;
401 [label="residence_type <= 0.5\ngini = 0.486\nsamples = 12\nvalue = [5, 7]\nclass = Stroke", fillcolor="#c6e3f8"] ;
400 -> 401 ;
402 [label="gini = 0.0\nsamples = 4\nvalue = [0, 4]\nclass = Stroke", fillcolor="#399de5"] ;
401 -> 402 ;
403 [label="avg_glucose <= 195.975\ngini = 0.469\nsamples = 8\nvalue = [5, 3]\nclass = No Stroke", fillcolor="#f5cdb0"] ;
401 -> 403 ;
404 [label="gender <= 0.5\ngini = 0.408\nsamples = 7\nvalue = [5, 2]\nclass = No Stroke", fillcolor="#efb388"] ;
403 -> 404 ;
405 [label="gini = 0.0\nsamples = 4\nvalue = [4, 0]\nclass = No Stroke", fillcolor="#e58139"] ;
404 -> 405 ;
406 [label="bmi <= 30.1\ngini = 0.444\nsamples = 3\nvalue = [1, 2]\nclass = Stroke", fillcolor="#9ccef2"] ;
404 -> 406 ;
407 [label="gini = 0.0\nsamples = 1\nvalue = [1, 0]\nclass = No Stroke", fillcolor="#e58139"] ;
406 -> 407 ;
408 [label="gini = 0.0\nsamples = 2\nvalue = [0, 2]\nclass = Stroke", fillcolor="#399de5"] ;
406 -> 408 ;
409 [label="gini = 0.0\nsamples = 1\nvalue = [0, 1]\nclass = Stroke", fillcolor="#399de5"] ;
403 -> 409 ;
410 [label="age <= 68.5\ngini = 0.252\nsamples = 27\nvalue = [23, 4]\nclass = No Stroke", fillcolor="#ea975b"] ;
400 -> 410 ;
411 [label="gini = 0.0\nsamples = 1\nvalue = [0, 1]\nclass = Stroke", fillcolor="#399de5"] ;
410 -> 411 ;
412 [label="age <= 81.5\ngini = 0.204\nsamples = 26\nvalue = [23, 3]\nclass = No Stroke", fillcolor="#e89153"] ;
410 -> 412 ;
413 [label="avg_glucose <= 199.86\ngini = 0.147\nsamples = 25\nvalue = [23, 2]\nclass = No Stroke", fillcolor="#e78c4a"] ;
412 -> 413 ;
414 [label="residence_type <= 0.5\ngini = 0.444\nsamples = 3\nvalue = [2, 1]\nclass = No Stroke", fillcolor="#f2c09c"] ;
413 -> 414 ;
415 [label="gini = 0.0\nsamples = 2\nvalue = [2, 0]\nclass = No Stroke", fillcolor="#e58139"] ;
414 -> 415 ;
416 [label="gini = 0.0\nsamples = 1\nvalue = [0, 1]\nclass = Stroke", fillcolor="#399de5"] ;
414 -> 416 ;
417 [label="age <= 73.5\ngini = 0.087\nsamples = 22\nvalue = [21, 1]\nclass = No Stroke", fillcolor="#e68742"] ;
413 -> 417 ;
418 [label="age <= 71.5\ngini = 0.219\nsamples = 8\nvalue = [7, 1]\nclass = No Stroke", fillcolor="#e99355"] ;
417 -> 418 ;
419 [label="gini = 0.0\nsamples = 6\nvalue = [6, 0]\nclass = No Stroke", fillcolor="#e58139"] ;
418 -> 419 ;
420 [label="bmi <= 28.05\ngini = 0.5\nsamples = 2\nvalue = [1, 1]\nclass = No Stroke", fillcolor="#ffffff"] ;
418 -> 420 ;
421 [label="gini = 0.0\nsamples = 1\nvalue = [1, 0]\nclass = No Stroke", fillcolor="#e58139"] ;
420 -> 421 ;
422 [label="gini = 0.0\nsamples = 1\nvalue = [0, 1]\nclass = Stroke", fillcolor="#399de5"] ;
420 -> 422 ;
423 [label="gini = 0.0\nsamples = 14\nvalue = [14, 0]\nclass = No Stroke", fillcolor="#e58139"] ;
417 -> 423 ;
424 [label="gini = 0.0\nsamples = 1\nvalue = [0, 1]\nclass = Stroke", fillcolor="#399de5"] ;
412 -> 424 ;
425 [label="heart_disease <= 0.5\ngini = 0.375\nsamples = 4\nvalue = [1, 3]\nclass = Stroke", fillcolor="#7bbeee"] ;
379 -> 425 ;
426 [label="gini = 0.0\nsamples = 1\nvalue = [1, 0]\nclass = No Stroke", fillcolor="#e58139"] ;
425 -> 426 ;
427 [label="gini = 0.0\nsamples = 3\nvalue = [0, 3]\nclass = Stroke", fillcolor="#399de5"] ;
425 -> 427 ;
428 [label="work_type <= 3.5\ngini = 0.444\nsamples = 6\nvalue = [2, 4]\nclass = Stroke", fillcolor="#9ccef2"] ;
232 -> 428 ;
429 [label="gini = 0.0\nsamples = 2\nvalue = [2, 0]\nclass = No Stroke", fillcolor="#e58139"] ;
428 -> 429 ;
430 [label="gini = 0.0\nsamples = 4\nvalue = [0, 4]\nclass = Stroke", fillcolor="#399de5"] ;
428 -> 430 ;
}