digraph Tree {
node [shape=box, style="filled, rounded", color="black", fontname="helvetica"] ;
edge [fontname="helvetica"] ;
0 [label="age <= 67.5\ngini = 0.108\nsamples = 2753\nvalue = [2595, 158]\nclass = No Stroke", fillcolor="#e78945"] ;
1 [label="age <= 53.5\ngini = 0.053\nsamples = 2216\nvalue = [2156, 60]\nclass = No Stroke", fillcolor="#e6853f"] ;
0 -> 1 [labeldistance=2.5, labelangle=45, headlabel="True"] ;
2 [label="age <= 44.5\ngini = 0.024\nsamples = 1578\nvalue = [1559, 19]\nclass = No Stroke", fillcolor="#e5833b"] ;
1 -> 2 ;
3 [label="age <= 37.5\ngini = 0.009\nsamples = 1140\nvalue = [1135, 5]\nclass = No Stroke", fillcolor="#e5823a"] ;
2 -> 3 ;
4 [label="smoking_status <= 1.5\ngini = 0.002\nsamples = 815\nvalue = [814, 1]\nclass = No Stroke", fillcolor="#e58139"] ;
3 -> 4 ;
5 [label="gini = 0.0\nsamples = 630\nvalue = [630, 0]\nclass = No Stroke", fillcolor="#e58139"] ;
4 -> 5 ;
6 [label="avg_glucose <= 76.235\ngini = 0.011\nsamples = 185\nvalue = [184, 1]\nclass = No Stroke", fillcolor="#e5823a"] ;
4 -> 6 ;
7 [label="avg_glucose <= 75.815\ngini = 0.039\nsamples = 50\nvalue = [49, 1]\nclass = No Stroke", fillcolor="#e6843d"] ;
6 -> 7 ;
8 [label="gini = 0.0\nsamples = 49\nvalue = [49, 0]\nclass = No Stroke", fillcolor="#e58139"] ;
7 -> 8 ;
9 [label="gini = 0.0\nsamples = 1\nvalue = [0, 1]\nclass = Stroke", fillcolor="#399de5"] ;
7 -> 9 ;
10 [label="gini = 0.0\nsamples = 135\nvalue = [135, 0]\nclass = No Stroke", fillcolor="#e58139"] ;
6 -> 10 ;
11 [label="avg_glucose <= 58.22\ngini = 0.024\nsamples = 325\nvalue = [321, 4]\nclass = No Stroke", fillcolor="#e5833b"] ;
3 -> 11 ;
12 [label="avg_glucose <= 57.94\ngini = 0.245\nsamples = 7\nvalue = [6, 1]\nclass = No Stroke", fillcolor="#e9965a"] ;
11 -> 12 ;
13 [label="gini = 0.0\nsamples = 6\nvalue = [6, 0]\nclass = No Stroke", fillcolor="#e58139"] ;
12 -> 13 ;
14 [label="gini = 0.0\nsamples = 1\nvalue = [0, 1]\nclass = Stroke", fillcolor="#399de5"] ;
12 -> 14 ;
15 [label="age <= 39.5\ngini = 0.019\nsamples = 318\nvalue = [315, 3]\nclass = No Stroke", fillcolor="#e5823b"] ;
11 -> 15 ;
16 [label="bmi <= 29.75\ngini = 0.064\nsamples = 91\nvalue = [88, 3]\nclass = No Stroke", fillcolor="#e68540"] ;
15 -> 16 ;
17 [label="bmi <= 29.45\ngini = 0.136\nsamples = 41\nvalue = [38, 3]\nclass = No Stroke", fillcolor="#e78b49"] ;
16 -> 17 ;
18 [label="ever_married <= 0.5\ngini = 0.095\nsamples = 40\nvalue = [38, 2]\nclass = No Stroke", fillcolor="#e68843"] ;
17 -> 18 ;
19 [label="bmi <= 23.35\ngini = 0.444\nsamples = 3\nvalue = [2, 1]\nclass = No Stroke", fillcolor="#f2c09c"] ;
18 -> 19 ;
20 [label="gini = 0.0\nsamples = 2\nvalue = [2, 0]\nclass = No Stroke", fillcolor="#e58139"] ;
19 -> 20 ;
21 [label="gini = 0.0\nsamples = 1\nvalue = [0, 1]\nclass = Stroke", fillcolor="#399de5"] ;
19 -> 21 ;
22 [label="avg_glucose <= 83.375\ngini = 0.053\nsamples = 37\nvalue = [36, 1]\nclass = No Stroke", fillcolor="#e6843e"] ;
18 -> 22 ;
23 [label="avg_glucose <= 83.045\ngini = 0.198\nsamples = 9\nvalue = [8, 1]\nclass = No Stroke", fillcolor="#e89152"] ;
22 -> 23 ;
24 [label="gini = 0.0\nsamples = 8\nvalue = [8, 0]\nclass = No Stroke", fillcolor="#e58139"] ;
23 -> 24 ;
25 [label="gini = 0.0\nsamples = 1\nvalue = [0, 1]\nclass = Stroke", fillcolor="#399de5"] ;
23 -> 25 ;
26 [label="gini = 0.0\nsamples = 28\nvalue = [28, 0]\nclass = No Stroke", fillcolor="#e58139"] ;
22 -> 26 ;
27 [label="gini = 0.0\nsamples = 1\nvalue = [0, 1]\nclass = Stroke", fillcolor="#399de5"] ;
17 -> 27 ;
28 [label="gini = 0.0\nsamples = 50\nvalue = [50, 0]\nclass = No Stroke", fillcolor="#e58139"] ;
16 -> 28 ;
29 [label="gini = 0.0\nsamples = 227\nvalue = [227, 0]\nclass = No Stroke", fillcolor="#e58139"] ;
15 -> 29 ;
30 [label="avg_glucose <= 233.09\ngini = 0.062\nsamples = 438\nvalue = [424, 14]\nclass = No Stroke", fillcolor="#e68540"] ;
2 -> 30 ;
31 [label="bmi <= 31.95\ngini = 0.058\nsamples = 433\nvalue = [420, 13]\nclass = No Stroke", fillcolor="#e6853f"] ;
30 -> 31 ;
32 [label="bmi <= 29.65\ngini = 0.089\nsamples = 257\nvalue = [245, 12]\nclass = No Stroke", fillcolor="#e68743"] ;
31 -> 32 ;
33 [label="bmi <= 20.55\ngini = 0.038\nsamples = 204\nvalue = [200, 4]\nclass = No Stroke", fillcolor="#e6843d"] ;
32 -> 33 ;
34 [label="bmi <= 20.35\ngini = 0.142\nsamples = 13\nvalue = [12, 1]\nclass = No Stroke", fillcolor="#e78c49"] ;
33 -> 34 ;
35 [label="gini = 0.0\nsamples = 11\nvalue = [11, 0]\nclass = No Stroke", fillcolor="#e58139"] ;
34 -> 35 ;
36 [label="avg_glucose <= 88.665\ngini = 0.5\nsamples = 2\nvalue = [1, 1]\nclass = No Stroke", fillcolor="#ffffff"] ;
34 -> 36 ;
37 [label="gini = 0.0\nsamples = 1\nvalue = [0, 1]\nclass = Stroke", fillcolor="#399de5"] ;
36 -> 37 ;
38 [label="gini = 0.0\nsamples = 1\nvalue = [1, 0]\nclass = No Stroke", fillcolor="#e58139"] ;
36 -> 38 ;
39 [label="residence_type <= 0.5\ngini = 0.031\nsamples = 191\nvalue = [188, 3]\nclass = No Stroke", fillcolor="#e5833c"] ;
33 -> 39 ;
40 [label="bmi <= 26.3\ngini = 0.069\nsamples = 84\nvalue = [81, 3]\nclass = No Stroke", fillcolor="#e68640"] ;
39 -> 40 ;
41 [label="gini = 0.0\nsamples = 47\nvalue = [47, 0]\nclass = No Stroke", fillcolor="#e58139"] ;
40 -> 41 ;
42 [label="bmi <= 26.5\ngini = 0.149\nsamples = 37\nvalue = [34, 3]\nclass = No Stroke", fillcolor="#e78c4a"] ;
40 -> 42 ;
43 [label="smoking_status <= 1.5\ngini = 0.5\nsamples = 2\nvalue = [1, 1]\nclass = No Stroke", fillcolor="#ffffff"] ;
42 -> 43 ;
44 [label="gini = 0.0\nsamples = 1\nvalue = [0, 1]\nclass = Stroke", fillcolor="#399de5"] ;
43 -> 44 ;
45 [label="gini = 0.0\nsamples = 1\nvalue = [1, 0]\nclass = No Stroke", fillcolor="#e58139"] ;
43 -> 45 ;
46 [label="avg_glucose <= 65.405\ngini = 0.108\nsamples = 35\nvalue = [33, 2]\nclass = No Stroke", fillcolor="#e78945"] ;
42 -> 46 ;
47 [label="avg_glucose <= 63.39\ngini = 0.375\nsamples = 4\nvalue = [3, 1]\nclass = No Stroke", fillcolor="#eeab7b"] ;
46 -> 47 ;
48 [label="gini = 0.0\nsamples = 3\nvalue = [3, 0]\nclass = No Stroke", fillcolor="#e58139"] ;
47 -> 48 ;
49 [label="gini = 0.0\nsamples = 1\nvalue = [0, 1]\nclass = Stroke", fillcolor="#399de5"] ;
47 -> 49 ;
50 [label="smoking_status <= 0.5\ngini = 0.062\nsamples = 31\nvalue = [30, 1]\nclass = No Stroke", fillcolor="#e68540"] ;
46 -> 50 ;
51 [label="gender <= 0.5\ngini = 0.375\nsamples = 4\nvalue = [3, 1]\nclass = No Stroke", fillcolor="#eeab7b"] ;
50 -> 51 ;
52 [label="avg_glucose <= 105.995\ngini = 0.5\nsamples = 2\nvalue = [1, 1]\nclass = No Stroke", fillcolor="#ffffff"] ;
51 -> 52 ;
53 [label="gini = 0.0\nsamples = 1\nvalue = [0, 1]\nclass = Stroke", fillcolor="#399de5"] ;
52 -> 53 ;
54 [label="gini = 0.0\nsamples = 1\nvalue = [1, 0]\nclass = No Stroke", fillcolor="#e58139"] ;
52 -> 54 ;
55 [label="gini = 0.0\nsamples = 2\nvalue = [2, 0]\nclass = No Stroke", fillcolor="#e58139"] ;
51 -> 55 ;
56 [label="gini = 0.0\nsamples = 27\nvalue = [27, 0]\nclass = No Stroke", fillcolor="#e58139"] ;
50 -> 56 ;
57 [label="gini = 0.0\nsamples = 107\nvalue = [107, 0]\nclass = No Stroke", fillcolor="#e58139"] ;
39 -> 57 ;
58 [label="age <= 50.5\ngini = 0.256\nsamples = 53\nvalue = [45, 8]\nclass = No Stroke", fillcolor="#ea975c"] ;
32 -> 58 ;
59 [label="bmi <= 30.25\ngini = 0.383\nsamples = 31\nvalue = [23, 8]\nclass = No Stroke", fillcolor="#eead7e"] ;
58 -> 59 ;
60 [label="age <= 48.5\ngini = 0.48\nsamples = 5\nvalue = [2, 3]\nclass = Stroke", fillcolor="#bddef6"] ;
59 -> 60 ;
61 [label="gini = 0.0\nsamples = 2\nvalue = [0, 2]\nclass = Stroke", fillcolor="#399de5"] ;
60 -> 61 ;
62 [label="avg_glucose <= 68.395\ngini = 0.444\nsamples = 3\nvalue = [2, 1]\nclass = No Stroke", fillcolor="#f2c09c"] ;
60 -> 62 ;
63 [label="gini = 0.0\nsamples = 1\nvalue = [0, 1]\nclass = Stroke", fillcolor="#399de5"] ;
62 -> 63 ;
64 [label="gini = 0.0\nsamples = 2\nvalue = [2, 0]\nclass = No Stroke", fillcolor="#e58139"] ;
62 -> 64 ;
65 [label="age <= 48.5\ngini = 0.311\nsamples = 26\nvalue = [21, 5]\nclass = No Stroke", fillcolor="#eb9f68"] ;
59 -> 65 ;
66 [label="age <= 46.5\ngini = 0.111\nsamples = 17\nvalue = [16, 1]\nclass = No Stroke", fillcolor="#e78945"] ;
65 -> 66 ;
67 [label="avg_glucose <= 85.195\ngini = 0.278\nsamples = 6\nvalue = [5, 1]\nclass = No Stroke", fillcolor="#ea9a61"] ;
66 -> 67 ;
68 [label="avg_glucose <= 71.84\ngini = 0.444\nsamples = 3\nvalue = [2, 1]\nclass = No Stroke", fillcolor="#f2c09c"] ;
67 -> 68 ;
69 [label="gini = 0.0\nsamples = 2\nvalue = [2, 0]\nclass = No Stroke", fillcolor="#e58139"] ;
68 -> 69 ;
70 [label="gini = 0.0\nsamples = 1\nvalue = [0, 1]\nclass = Stroke", fillcolor="#399de5"] ;
68 -> 70 ;
71 [label="gini = 0.0\nsamples = 3\nvalue = [3, 0]\nclass = No Stroke", fillcolor="#e58139"] ;
67 -> 71 ;
72 [label="gini = 0.0\nsamples = 11\nvalue = [11, 0]\nclass = No Stroke", fillcolor="#e58139"] ;
66 -> 72 ;
73 [label="residence_type <= 0.5\ngini = 0.494\nsamples = 9\nvalue = [5, 4]\nclass = No Stroke", fillcolor="#fae6d7"] ;
65 -> 73 ;
74 [label="gini = 0.0\nsamples = 4\nvalue = [0, 4]\nclass = Stroke", fillcolor="#399de5"] ;
73 -> 74 ;
75 [label="gini = 0.0\nsamples = 5\nvalue = [5, 0]\nclass = No Stroke", fillcolor="#e58139"] ;
73 -> 75 ;
76 [label="gini = 0.0\nsamples = 22\nvalue = [22, 0]\nclass = No Stroke", fillcolor="#e58139"] ;
58 -> 76 ;
77 [label="smoking_status <= 0.5\ngini = 0.011\nsamples = 176\nvalue = [175, 1]\nclass = No Stroke", fillcolor="#e5823a"] ;
31 -> 77 ;
78 [label="bmi <= 41.0\ngini = 0.045\nsamples = 43\nvalue = [42, 1]\nclass = No Stroke", fillcolor="#e6843e"] ;
77 -> 78 ;
79 [label="gini = 0.0\nsamples = 30\nvalue = [30, 0]\nclass = No Stroke", fillcolor="#e58139"] ;
78 -> 79 ;
80 [label="bmi <= 41.5\ngini = 0.142\nsamples = 13\nvalue = [12, 1]\nclass = No Stroke", fillcolor="#e78c49"] ;
78 -> 80 ;
81 [label="gini = 0.0\nsamples = 1\nvalue = [0, 1]\nclass = Stroke", fillcolor="#399de5"] ;
80 -> 81 ;
82 [label="gini = 0.0\nsamples = 12\nvalue = [12, 0]\nclass = No Stroke", fillcolor="#e58139"] ;
80 -> 82 ;
83 [label="gini = 0.0\nsamples = 133\nvalue = [133, 0]\nclass = No Stroke", fillcolor="#e58139"] ;
77 -> 83 ;
84 [label="avg_glucose <= 234.175\ngini = 0.32\nsamples = 5\nvalue = [4, 1]\nclass = No Stroke", fillcolor="#eca06a"] ;
30 -> 84 ;
85 [label="gini = 0.0\nsamples = 1\nvalue = [0, 1]\nclass = Stroke", fillcolor="#399de5"] ;
84 -> 85 ;
86 [label="gini = 0.0\nsamples = 4\nvalue = [4, 0]\nclass = No Stroke", fillcolor="#e58139"] ;
84 -> 86 ;
87 [label="avg_glucose <= 104.465\ngini = 0.12\nsamples = 638\nvalue = [597, 41]\nclass = No Stroke", fillcolor="#e78a47"] ;
1 -> 87 ;
88 [label="smoking_status <= 1.5\ngini = 0.07\nsamples = 385\nvalue = [371, 14]\nclass = No Stroke", fillcolor="#e68640"] ;
87 -> 88 ;
89 [label="ever_married <= 0.5\ngini = 0.051\nsamples = 304\nvalue = [296, 8]\nclass = No Stroke", fillcolor="#e6843e"] ;
88 -> 89 ;
90 [label="bmi <= 37.3\ngini = 0.172\nsamples = 21\nvalue = [19, 2]\nclass = No Stroke", fillcolor="#e88e4e"] ;
89 -> 90 ;
91 [label="gini = 0.0\nsamples = 18\nvalue = [18, 0]\nclass = No Stroke", fillcolor="#e58139"] ;
90 -> 91 ;
92 [label="gender <= 0.5\ngini = 0.444\nsamples = 3\nvalue = [1, 2]\nclass = Stroke", fillcolor="#9ccef2"] ;
90 -> 92 ;
93 [label="gini = 0.0\nsamples = 2\nvalue = [0, 2]\nclass = Stroke", fillcolor="#399de5"] ;
92 -> 93 ;
94 [label="gini = 0.0\nsamples = 1\nvalue = [1, 0]\nclass = No Stroke", fillcolor="#e58139"] ;
92 -> 94 ;
95 [label="bmi <= 30.05\ngini = 0.042\nsamples = 283\nvalue = [277, 6]\nclass = No Stroke", fillcolor="#e6843d"] ;
89 -> 95 ;
96 [label="bmi <= 29.95\ngini = 0.075\nsamples = 153\nvalue = [147, 6]\nclass = No Stroke", fillcolor="#e68641"] ;
95 -> 96 ;
97 [label="smoking_status <= 0.5\ngini = 0.064\nsamples = 150\nvalue = [145, 5]\nclass = No Stroke", fillcolor="#e68540"] ;
96 -> 97 ;
98 [label="hypertension <= 0.5\ngini = 0.117\nsamples = 64\nvalue = [60, 4]\nclass = No Stroke", fillcolor="#e78946"] ;
97 -> 98 ;
99 [label="avg_glucose <= 100.405\ngini = 0.092\nsamples = 62\nvalue = [59, 3]\nclass = No Stroke", fillcolor="#e68743"] ;
98 -> 99 ;
100 [label="bmi <= 21.25\ngini = 0.067\nsamples = 58\nvalue = [56, 2]\nclass = No Stroke", fillcolor="#e68640"] ;
99 -> 100 ;
101 [label="age <= 65.0\ngini = 0.32\nsamples = 5\nvalue = [4, 1]\nclass = No Stroke", fillcolor="#eca06a"] ;
100 -> 101 ;
102 [label="gini = 0.0\nsamples = 4\nvalue = [4, 0]\nclass = No Stroke", fillcolor="#e58139"] ;
101 -> 102 ;
103 [label="gini = 0.0\nsamples = 1\nvalue = [0, 1]\nclass = Stroke", fillcolor="#399de5"] ;
101 -> 103 ;
104 [label="avg_glucose <= 60.03\ngini = 0.037\nsamples = 53\nvalue = [52, 1]\nclass = No Stroke", fillcolor="#e6833d"] ;
100 -> 104 ;
105 [label="avg_glucose <= 59.77\ngini = 0.278\nsamples = 6\nvalue = [5, 1]\nclass = No Stroke", fillcolor="#ea9a61"] ;
104 -> 105 ;
106 [label="gini = 0.0\nsamples = 5\nvalue = [5, 0]\nclass = No Stroke", fillcolor="#e58139"] ;
105 -> 106 ;
107 [label="gini = 0.0\nsamples = 1\nvalue = [0, 1]\nclass = Stroke", fillcolor="#399de5"] ;
105 -> 107 ;
108 [label="gini = 0.0\nsamples = 47\nvalue = [47, 0]\nclass = No Stroke", fillcolor="#e58139"] ;
104 -> 108 ;
109 [label="residence_type <= 0.5\ngini = 0.375\nsamples = 4\nvalue = [3, 1]\nclass = No Stroke", fillcolor="#eeab7b"] ;
99 -> 109 ;
110 [label="gini = 0.0\nsamples = 1\nvalue = [0, 1]\nclass = Stroke", fillcolor="#399de5"] ;
109 -> 110 ;
111 [label="gini = 0.0\nsamples = 3\nvalue = [3, 0]\nclass = No Stroke", fillcolor="#e58139"] ;
109 -> 111 ;
112 [label="avg_glucose <= 90.725\ngini = 0.5\nsamples = 2\nvalue = [1, 1]\nclass = No Stroke", fillcolor="#ffffff"] ;
98 -> 112 ;
113 [label="gini = 0.0\nsamples = 1\nvalue = [0, 1]\nclass = Stroke", fillcolor="#399de5"] ;
112 -> 113 ;
114 [label="gini = 0.0\nsamples = 1\nvalue = [1, 0]\nclass = No Stroke", fillcolor="#e58139"] ;
112 -> 114 ;
115 [label="age <= 55.5\ngini = 0.023\nsamples = 86\nvalue = [85, 1]\nclass = No Stroke", fillcolor="#e5823b"] ;
97 -> 115 ;
116 [label="avg_glucose <= 92.685\ngini = 0.117\nsamples = 16\nvalue = [15, 1]\nclass = No Stroke", fillcolor="#e78946"] ;
115 -> 116 ;
117 [label="gini = 0.0\nsamples = 12\nvalue = [12, 0]\nclass = No Stroke", fillcolor="#e58139"] ;
116 -> 117 ;
118 [label="avg_glucose <= 94.15\ngini = 0.375\nsamples = 4\nvalue = [3, 1]\nclass = No Stroke", fillcolor="#eeab7b"] ;
116 -> 118 ;
119 [label="gini = 0.0\nsamples = 1\nvalue = [0, 1]\nclass = Stroke", fillcolor="#399de5"] ;
118 -> 119 ;
120 [label="gini = 0.0\nsamples = 3\nvalue = [3, 0]\nclass = No Stroke", fillcolor="#e58139"] ;
118 -> 120 ;
121 [label="gini = 0.0\nsamples = 70\nvalue = [70, 0]\nclass = No Stroke", fillcolor="#e58139"] ;
115 -> 121 ;
122 [label="avg_glucose <= 85.875\ngini = 0.444\nsamples = 3\nvalue = [2, 1]\nclass = No Stroke", fillcolor="#f2c09c"] ;
96 -> 122 ;
123 [label="gini = 0.0\nsamples = 2\nvalue = [2, 0]\nclass = No Stroke", fillcolor="#e58139"] ;
122 -> 123 ;
124 [label="gini = 0.0\nsamples = 1\nvalue = [0, 1]\nclass = Stroke", fillcolor="#399de5"] ;
122 -> 124 ;
125 [label="gini = 0.0\nsamples = 130\nvalue = [130, 0]\nclass = No Stroke", fillcolor="#e58139"] ;
95 -> 125 ;
126 [label="residence_type <= 0.5\ngini = 0.137\nsamples = 81\nvalue = [75, 6]\nclass = No Stroke", fillcolor="#e78b49"] ;
88 -> 126 ;
127 [label="bmi <= 31.6\ngini = 0.225\nsamples = 31\nvalue = [27, 4]\nclass = No Stroke", fillcolor="#e99456"] ;
126 -> 127 ;
128 [label="age <= 54.5\ngini = 0.346\nsamples = 18\nvalue = [14, 4]\nclass = No Stroke", fillcolor="#eca572"] ;
127 -> 128 ;
129 [label="gini = 0.0\nsamples = 2\nvalue = [0, 2]\nclass = Stroke", fillcolor="#399de5"] ;
128 -> 129 ;
130 [label="hypertension <= 0.5\ngini = 0.219\nsamples = 16\nvalue = [14, 2]\nclass = No Stroke", fillcolor="#e99355"] ;
128 -> 130 ;
131 [label="gini = 0.0\nsamples = 12\nvalue = [12, 0]\nclass = No Stroke", fillcolor="#e58139"] ;
130 -> 131 ;
132 [label="work_type <= 3.5\ngini = 0.5\nsamples = 4\nvalue = [2, 2]\nclass = No Stroke", fillcolor="#ffffff"] ;
130 -> 132 ;
133 [label="gini = 0.0\nsamples = 2\nvalue = [0, 2]\nclass = Stroke", fillcolor="#399de5"] ;
132 -> 133 ;
134 [label="gini = 0.0\nsamples = 2\nvalue = [2, 0]\nclass = No Stroke", fillcolor="#e58139"] ;
132 -> 134 ;
135 [label="gini = 0.0\nsamples = 13\nvalue = [13, 0]\nclass = No Stroke", fillcolor="#e58139"] ;
127 -> 135 ;
136 [label="avg_glucose <= 91.905\ngini = 0.077\nsamples = 50\nvalue = [48, 2]\nclass = No Stroke", fillcolor="#e68641"] ;
126 -> 136 ;
137 [label="gini = 0.0\nsamples = 33\nvalue = [33, 0]\nclass = No Stroke", fillcolor="#e58139"] ;
136 -> 137 ;
138 [label="avg_glucose <= 92.13\ngini = 0.208\nsamples = 17\nvalue = [15, 2]\nclass = No Stroke", fillcolor="#e89253"] ;
136 -> 138 ;
139 [label="gini = 0.0\nsamples = 1\nvalue = [0, 1]\nclass = Stroke", fillcolor="#399de5"] ;
138 -> 139 ;
140 [label="avg_glucose <= 97.18\ngini = 0.117\nsamples = 16\nvalue = [15, 1]\nclass = No Stroke", fillcolor="#e78946"] ;
138 -> 140 ;
141 [label="gini = 0.0\nsamples = 9\nvalue = [9, 0]\nclass = No Stroke", fillcolor="#e58139"] ;
140 -> 141 ;
142 [label="avg_glucose <= 98.295\ngini = 0.245\nsamples = 7\nvalue = [6, 1]\nclass = No Stroke", fillcolor="#e9965a"] ;
140 -> 142 ;
143 [label="gini = 0.0\nsamples = 1\nvalue = [0, 1]\nclass = Stroke", fillcolor="#399de5"] ;
142 -> 143 ;
144 [label="gini = 0.0\nsamples = 6\nvalue = [6, 0]\nclass = No Stroke", fillcolor="#e58139"] ;
142 -> 144 ;
145 [label="avg_glucose <= 104.605\ngini = 0.191\nsamples = 253\nvalue = [226, 27]\nclass = No Stroke", fillcolor="#e89051"] ;
87 -> 145 ;
146 [label="gini = 0.0\nsamples = 1\nvalue = [0, 1]\nclass = Stroke", fillcolor="#399de5"] ;
145 -> 146 ;
147 [label="smoking_status <= 0.5\ngini = 0.185\nsamples = 252\nvalue = [226, 26]\nclass = No Stroke", fillcolor="#e88f50"] ;
145 -> 147 ;
148 [label="avg_glucose <= 207.46\ngini = 0.286\nsamples = 81\nvalue = [67, 14]\nclass = No Stroke", fillcolor="#ea9b62"] ;
147 -> 148 ;
149 [label="avg_glucose <= 205.18\ngini = 0.366\nsamples = 54\nvalue = [41, 13]\nclass = No Stroke", fillcolor="#eda978"] ;
148 -> 149 ;
150 [label="bmi <= 31.0\ngini = 0.334\nsamples = 52\nvalue = [41, 11]\nclass = No Stroke", fillcolor="#eca36e"] ;
149 -> 150 ;
151 [label="hypertension <= 0.5\ngini = 0.153\nsamples = 24\nvalue = [22, 2]\nclass = No Stroke", fillcolor="#e78c4b"] ;
150 -> 151 ;
152 [label="age <= 65.5\ngini = 0.083\nsamples = 23\nvalue = [22, 1]\nclass = No Stroke", fillcolor="#e68742"] ;
151 -> 152 ;
153 [label="gini = 0.0\nsamples = 18\nvalue = [18, 0]\nclass = No Stroke", fillcolor="#e58139"] ;
152 -> 153 ;
154 [label="residence_type <= 0.5\ngini = 0.32\nsamples = 5\nvalue = [4, 1]\nclass = No Stroke", fillcolor="#eca06a"] ;
152 -> 154 ;
155 [label="gini = 0.0\nsamples = 3\nvalue = [3, 0]\nclass = No Stroke", fillcolor="#e58139"] ;
154 -> 155 ;
156 [label="avg_glucose <= 130.92\ngini = 0.5\nsamples = 2\nvalue = [1, 1]\nclass = No Stroke", fillcolor="#ffffff"] ;
154 -> 156 ;
157 [label="gini = 0.0\nsamples = 1\nvalue = [1, 0]\nclass = No Stroke", fillcolor="#e58139"] ;
156 -> 157 ;
158 [label="gini = 0.0\nsamples = 1\nvalue = [0, 1]\nclass = Stroke", fillcolor="#399de5"] ;
156 -> 158 ;
159 [label="gini = 0.0\nsamples = 1\nvalue = [0, 1]\nclass = Stroke", fillcolor="#399de5"] ;
151 -> 159 ;
160 [label="bmi <= 31.75\ngini = 0.436\nsamples = 28\nvalue = [19, 9]\nclass = No Stroke", fillcolor="#f1bd97"] ;
150 -> 160 ;
161 [label="gini = 0.0\nsamples = 2\nvalue = [0, 2]\nclass = Stroke", fillcolor="#399de5"] ;
160 -> 161 ;
162 [label="avg_glucose <= 116.735\ngini = 0.393\nsamples = 26\nvalue = [19, 7]\nclass = No Stroke", fillcolor="#efaf82"] ;
160 -> 162 ;
163 [label="residence_type <= 0.5\ngini = 0.48\nsamples = 5\nvalue = [2, 3]\nclass = Stroke", fillcolor="#bddef6"] ;
162 -> 163 ;
164 [label="gini = 0.0\nsamples = 2\nvalue = [2, 0]\nclass = No Stroke", fillcolor="#e58139"] ;
163 -> 164 ;
165 [label="gini = 0.0\nsamples = 3\nvalue = [0, 3]\nclass = Stroke", fillcolor="#399de5"] ;
163 -> 165 ;
166 [label="avg_glucose <= 183.695\ngini = 0.308\nsamples = 21\nvalue = [17, 4]\nclass = No Stroke", fillcolor="#eb9f68"] ;
162 -> 166 ;
167 [label="gini = 0.0\nsamples = 10\nvalue = [10, 0]\nclass = No Stroke", fillcolor="#e58139"] ;
166 -> 167 ;
168 [label="age <= 64.0\ngini = 0.463\nsamples = 11\nvalue = [7, 4]\nclass = No Stroke", fillcolor="#f4c9aa"] ;
166 -> 168 ;
169 [label="avg_glucose <= 201.645\ngini = 0.49\nsamples = 7\nvalue = [3, 4]\nclass = Stroke", fillcolor="#cee6f8"] ;
168 -> 169 ;
170 [label="bmi <= 42.0\ngini = 0.32\nsamples = 5\nvalue = [1, 4]\nclass = Stroke", fillcolor="#6ab6ec"] ;
169 -> 170 ;
171 [label="gini = 0.0\nsamples = 4\nvalue = [0, 4]\nclass = Stroke", fillcolor="#399de5"] ;
170 -> 171 ;
172 [label="gini = 0.0\nsamples = 1\nvalue = [1, 0]\nclass = No Stroke", fillcolor="#e58139"] ;
170 -> 172 ;
173 [label="gini = 0.0\nsamples = 2\nvalue = [2, 0]\nclass = No Stroke", fillcolor="#e58139"] ;
169 -> 173 ;
174 [label="gini = 0.0\nsamples = 4\nvalue = [4, 0]\nclass = No Stroke", fillcolor="#e58139"] ;
168 -> 174 ;
175 [label="gini = 0.0\nsamples = 2\nvalue = [0, 2]\nclass = Stroke", fillcolor="#399de5"] ;
149 -> 175 ;
176 [label="age <= 66.5\ngini = 0.071\nsamples = 27\nvalue = [26, 1]\nclass = No Stroke", fillcolor="#e68641"] ;
148 -> 176 ;
177 [label="gini = 0.0\nsamples = 24\nvalue = [24, 0]\nclass = No Stroke", fillcolor="#e58139"] ;
176 -> 177 ;
178 [label="bmi <= 36.15\ngini = 0.444\nsamples = 3\nvalue = [2, 1]\nclass = No Stroke", fillcolor="#f2c09c"] ;
176 -> 178 ;
179 [label="gini = 0.0\nsamples = 2\nvalue = [2, 0]\nclass = No Stroke", fillcolor="#e58139"] ;
178 -> 179 ;
180 [label="gini = 0.0\nsamples = 1\nvalue = [0, 1]\nclass = Stroke", fillcolor="#399de5"] ;
178 -> 180 ;
181 [label="heart_disease <= 0.5\ngini = 0.131\nsamples = 171\nvalue = [159, 12]\nclass = No Stroke", fillcolor="#e78b48"] ;
147 -> 181 ;
182 [label="avg_glucose <= 208.245\ngini = 0.099\nsamples = 153\nvalue = [145, 8]\nclass = No Stroke", fillcolor="#e68844"] ;
181 -> 182 ;
183 [label="age <= 54.5\ngini = 0.051\nsamples = 115\nvalue = [112, 3]\nclass = No Stroke", fillcolor="#e6843e"] ;
182 -> 183 ;
184 [label="work_type <= 3.5\ngini = 0.278\nsamples = 12\nvalue = [10, 2]\nclass = No Stroke", fillcolor="#ea9a61"] ;
183 -> 184 ;
185 [label="gini = 0.0\nsamples = 2\nvalue = [0, 2]\nclass = Stroke", fillcolor="#399de5"] ;
184 -> 185 ;
186 [label="gini = 0.0\nsamples = 10\nvalue = [10, 0]\nclass = No Stroke", fillcolor="#e58139"] ;
184 -> 186 ;
187 [label="bmi <= 24.0\ngini = 0.019\nsamples = 103\nvalue = [102, 1]\nclass = No Stroke", fillcolor="#e5823b"] ;
183 -> 187 ;
188 [label="bmi <= 23.65\ngini = 0.153\nsamples = 12\nvalue = [11, 1]\nclass = No Stroke", fillcolor="#e78c4b"] ;
187 -> 188 ;
189 [label="gini = 0.0\nsamples = 11\nvalue = [11, 0]\nclass = No Stroke", fillcolor="#e58139"] ;
188 -> 189 ;
190 [label="gini = 0.0\nsamples = 1\nvalue = [0, 1]\nclass = Stroke", fillcolor="#399de5"] ;
188 -> 190 ;
191 [label="gini = 0.0\nsamples = 91\nvalue = [91, 0]\nclass = No Stroke", fillcolor="#e58139"] ;
187 -> 191 ;
192 [label="avg_glucose <= 212.5\ngini = 0.229\nsamples = 38\nvalue = [33, 5]\nclass = No Stroke", fillcolor="#e99457"] ;
182 -> 192 ;
193 [label="gini = 0.0\nsamples = 2\nvalue = [0, 2]\nclass = Stroke", fillcolor="#399de5"] ;
192 -> 193 ;
194 [label="work_type <= 3.5\ngini = 0.153\nsamples = 36\nvalue = [33, 3]\nclass = No Stroke", fillcolor="#e78c4b"] ;
192 -> 194 ;
195 [label="gini = 0.0\nsamples = 17\nvalue = [17, 0]\nclass = No Stroke", fillcolor="#e58139"] ;
194 -> 195 ;
196 [label="avg_glucose <= 248.395\ngini = 0.266\nsamples = 19\nvalue = [16, 3]\nclass = No Stroke", fillcolor="#ea995e"] ;
194 -> 196 ;
197 [label="bmi <= 27.55\ngini = 0.198\nsamples = 18\nvalue = [16, 2]\nclass = No Stroke", fillcolor="#e89152"] ;
196 -> 197 ;
198 [label="smoking_status <= 1.5\ngini = 0.5\nsamples = 2\nvalue = [1, 1]\nclass = No Stroke", fillcolor="#ffffff"] ;
197 -> 198 ;
199 [label="gini = 0.0\nsamples = 1\nvalue = [0, 1]\nclass = Stroke", fillcolor="#399de5"] ;
198 -> 199 ;
200 [label="gini = 0.0\nsamples = 1\nvalue = [1, 0]\nclass = No Stroke", fillcolor="#e58139"] ;
198 -> 200 ;
201 [label="smoking_status <= 1.5\ngini = 0.117\nsamples = 16\nvalue = [15, 1]\nclass = No Stroke", fillcolor="#e78946"] ;
197 -> 201 ;
202 [label="gini = 0.0\nsamples = 10\nvalue = [10, 0]\nclass = No Stroke", fillcolor="#e58139"] ;
201 -> 202 ;
203 [label="bmi <= 36.2\ngini = 0.278\nsamples = 6\nvalue = [5, 1]\nclass = No Stroke", fillcolor="#ea9a61"] ;
201 -> 203 ;
204 [label="gini = 0.0\nsamples = 4\nvalue = [4, 0]\nclass = No Stroke", fillcolor="#e58139"] ;
203 -> 204 ;
205 [label="bmi <= 38.7\ngini = 0.5\nsamples = 2\nvalue = [1, 1]\nclass = No Stroke", fillcolor="#ffffff"] ;
203 -> 205 ;
206 [label="gini = 0.0\nsamples = 1\nvalue = [0, 1]\nclass = Stroke", fillcolor="#399de5"] ;
205 -> 206 ;
207 [label="gini = 0.0\nsamples = 1\nvalue = [1, 0]\nclass = No Stroke", fillcolor="#e58139"] ;
205 -> 207 ;
208 [label="gini = 0.0\nsamples = 1\nvalue = [0, 1]\nclass = Stroke", fillcolor="#399de5"] ;
196 -> 208 ;
209 [label="bmi <= 36.25\ngini = 0.346\nsamples = 18\nvalue = [14, 4]\nclass = No Stroke", fillcolor="#eca572"] ;
181 -> 209 ;
210 [label="avg_glucose <= 112.09\ngini = 0.133\nsamples = 14\nvalue = [13, 1]\nclass = No Stroke", fillcolor="#e78b48"] ;
209 -> 210 ;
211 [label="avg_glucose <= 110.75\ngini = 0.5\nsamples = 2\nvalue = [1, 1]\nclass = No Stroke", fillcolor="#ffffff"] ;
210 -> 211 ;
212 [label="gini = 0.0\nsamples = 1\nvalue = [1, 0]\nclass = No Stroke", fillcolor="#e58139"] ;
211 -> 212 ;
213 [label="gini = 0.0\nsamples = 1\nvalue = [0, 1]\nclass = Stroke", fillcolor="#399de5"] ;
211 -> 213 ;
214 [label="gini = 0.0\nsamples = 12\nvalue = [12, 0]\nclass = No Stroke", fillcolor="#e58139"] ;
210 -> 214 ;
215 [label="avg_glucose <= 215.32\ngini = 0.375\nsamples = 4\nvalue = [1, 3]\nclass = Stroke", fillcolor="#7bbeee"] ;
209 -> 215 ;
216 [label="gini = 0.0\nsamples = 3\nvalue = [0, 3]\nclass = Stroke", fillcolor="#399de5"] ;
215 -> 216 ;
217 [label="gini = 0.0\nsamples = 1\nvalue = [1, 0]\nclass = No Stroke", fillcolor="#e58139"] ;
215 -> 217 ;
218 [label="bmi <= 44.85\ngini = 0.298\nsamples = 537\nvalue = [439, 98]\nclass = No Stroke", fillcolor="#eb9d65"] ;
0 -> 218 [labeldistance=2.5, labelangle=-45, headlabel="False"] ;
219 [label="avg_glucose <= 126.815\ngini = 0.273\nsamples = 521\nvalue = [436, 85]\nclass = No Stroke", fillcolor="#ea9a60"] ;
218 -> 219 ;
220 [label="ever_married <= 0.5\ngini = 0.222\nsamples = 346\nvalue = [302, 44]\nclass = No Stroke", fillcolor="#e99356"] ;
219 -> 220 ;
221 [label="bmi <= 26.75\ngini = 0.42\nsamples = 30\nvalue = [21, 9]\nclass = No Stroke", fillcolor="#f0b78e"] ;
220 -> 221 ;
222 [label="avg_glucose <= 65.885\ngini = 0.496\nsamples = 11\nvalue = [5, 6]\nclass = Stroke", fillcolor="#deeffb"] ;
221 -> 222 ;
223 [label="gini = 0.0\nsamples = 2\nvalue = [2, 0]\nclass = No Stroke", fillcolor="#e58139"] ;
222 -> 223 ;
224 [label="work_type <= 3.5\ngini = 0.444\nsamples = 9\nvalue = [3, 6]\nclass = Stroke", fillcolor="#9ccef2"] ;
222 -> 224 ;
225 [label="work_type <= 2.5\ngini = 0.48\nsamples = 5\nvalue = [3, 2]\nclass = No Stroke", fillcolor="#f6d5bd"] ;
224 -> 225 ;
226 [label="gini = 0.0\nsamples = 2\nvalue = [0, 2]\nclass = Stroke", fillcolor="#399de5"] ;
225 -> 226 ;
227 [label="gini = 0.0\nsamples = 3\nvalue = [3, 0]\nclass = No Stroke", fillcolor="#e58139"] ;
225 -> 227 ;
228 [label="gini = 0.0\nsamples = 4\nvalue = [0, 4]\nclass = Stroke", fillcolor="#399de5"] ;
224 -> 228 ;
229 [label="hypertension <= 0.5\ngini = 0.266\nsamples = 19\nvalue = [16, 3]\nclass = No Stroke", fillcolor="#ea995e"] ;
221 -> 229 ;
230 [label="gini = 0.0\nsamples = 13\nvalue = [13, 0]\nclass = No Stroke", fillcolor="#e58139"] ;
229 -> 230 ;
231 [label="gender <= 0.5\ngini = 0.5\nsamples = 6\nvalue = [3, 3]\nclass = No Stroke", fillcolor="#ffffff"] ;
229 -> 231 ;
232 [label="gini = 0.0\nsamples = 3\nvalue = [0, 3]\nclass = Stroke", fillcolor="#399de5"] ;
231 -> 232 ;
233 [label="gini = 0.0\nsamples = 3\nvalue = [3, 0]\nclass = No Stroke", fillcolor="#e58139"] ;
231 -> 233 ;
234 [label="age <= 76.5\ngini = 0.197\nsamples = 316\nvalue = [281, 35]\nclass = No Stroke", fillcolor="#e89152"] ;
220 -> 234 ;
235 [label="avg_glucose <= 79.19\ngini = 0.133\nsamples = 168\nvalue = [156, 12]\nclass = No Stroke", fillcolor="#e78b48"] ;
234 -> 235 ;
236 [label="avg_glucose <= 74.495\ngini = 0.252\nsamples = 61\nvalue = [52, 9]\nclass = No Stroke", fillcolor="#ea975b"] ;
235 -> 236 ;
237 [label="bmi <= 22.3\ngini = 0.156\nsamples = 47\nvalue = [43, 4]\nclass = No Stroke", fillcolor="#e78d4b"] ;
236 -> 237 ;
238 [label="work_type <= 3.5\ngini = 0.5\nsamples = 2\nvalue = [1, 1]\nclass = No Stroke", fillcolor="#ffffff"] ;
237 -> 238 ;
239 [label="gini = 0.0\nsamples = 1\nvalue = [1, 0]\nclass = No Stroke", fillcolor="#e58139"] ;
238 -> 239 ;
240 [label="gini = 0.0\nsamples = 1\nvalue = [0, 1]\nclass = Stroke", fillcolor="#399de5"] ;
238 -> 240 ;
241 [label="bmi <= 32.25\ngini = 0.124\nsamples = 45\nvalue = [42, 3]\nclass = No Stroke", fillcolor="#e78a47"] ;
237 -> 241 ;
242 [label="hypertension <= 0.5\ngini = 0.059\nsamples = 33\nvalue = [32, 1]\nclass = No Stroke", fillcolor="#e6853f"] ;
241 -> 242 ;
243 [label="gini = 0.0\nsamples = 26\nvalue = [26, 0]\nclass = No Stroke", fillcolor="#e58139"] ;
242 -> 243 ;
244 [label="heart_disease <= 0.5\ngini = 0.245\nsamples = 7\nvalue = [6, 1]\nclass = No Stroke", fillcolor="#e9965a"] ;
242 -> 244 ;
245 [label="gini = 0.0\nsamples = 5\nvalue = [5, 0]\nclass = No Stroke", fillcolor="#e58139"] ;
244 -> 245 ;
246 [label="smoking_status <= 1.5\ngini = 0.5\nsamples = 2\nvalue = [1, 1]\nclass = No Stroke", fillcolor="#ffffff"] ;
244 -> 246 ;
247 [label="gini = 0.0\nsamples = 1\nvalue = [0, 1]\nclass = Stroke", fillcolor="#399de5"] ;
246 -> 247 ;
248 [label="gini = 0.0\nsamples = 1\nvalue = [1, 0]\nclass = No Stroke", fillcolor="#e58139"] ;
246 -> 248 ;
249 [label="bmi <= 34.6\ngini = 0.278\nsamples = 12\nvalue = [10, 2]\nclass = No Stroke", fillcolor="#ea9a61"] ;
241 -> 249 ;
250 [label="work_type <= 2.5\ngini = 0.48\nsamples = 5\nvalue = [3, 2]\nclass = No Stroke", fillcolor="#f6d5bd"] ;
249 -> 250 ;
251 [label="gini = 0.0\nsamples = 2\nvalue = [2, 0]\nclass = No Stroke", fillcolor="#e58139"] ;
250 -> 251 ;
252 [label="age <= 74.5\ngini = 0.444\nsamples = 3\nvalue = [1, 2]\nclass = Stroke", fillcolor="#9ccef2"] ;
250 -> 252 ;
253 [label="gini = 0.0\nsamples = 2\nvalue = [0, 2]\nclass = Stroke", fillcolor="#399de5"] ;
252 -> 253 ;
254 [label="gini = 0.0\nsamples = 1\nvalue = [1, 0]\nclass = No Stroke", fillcolor="#e58139"] ;
252 -> 254 ;
255 [label="gini = 0.0\nsamples = 7\nvalue = [7, 0]\nclass = No Stroke", fillcolor="#e58139"] ;
249 -> 255 ;
256 [label="age <= 72.5\ngini = 0.459\nsamples = 14\nvalue = [9, 5]\nclass = No Stroke", fillcolor="#f3c7a7"] ;
236 -> 256 ;
257 [label="bmi <= 25.1\ngini = 0.48\nsamples = 5\nvalue = [2, 3]\nclass = Stroke", fillcolor="#bddef6"] ;
256 -> 257 ;
258 [label="gini = 0.0\nsamples = 2\nvalue = [0, 2]\nclass = Stroke", fillcolor="#399de5"] ;
257 -> 258 ;
259 [label="bmi <= 26.75\ngini = 0.444\nsamples = 3\nvalue = [2, 1]\nclass = No Stroke", fillcolor="#f2c09c"] ;
257 -> 259 ;
260 [label="gini = 0.0\nsamples = 2\nvalue = [2, 0]\nclass = No Stroke", fillcolor="#e58139"] ;
259 -> 260 ;
261 [label="gini = 0.0\nsamples = 1\nvalue = [0, 1]\nclass = Stroke", fillcolor="#399de5"] ;
259 -> 261 ;
262 [label="avg_glucose <= 78.75\ngini = 0.346\nsamples = 9\nvalue = [7, 2]\nclass = No Stroke", fillcolor="#eca572"] ;
256 -> 262 ;
263 [label="avg_glucose <= 75.175\ngini = 0.219\nsamples = 8\nvalue = [7, 1]\nclass = No Stroke", fillcolor="#e99355"] ;
262 -> 263 ;
264 [label="avg_glucose <= 74.875\ngini = 0.5\nsamples = 2\nvalue = [1, 1]\nclass = No Stroke", fillcolor="#ffffff"] ;
263 -> 264 ;
265 [label="gini = 0.0\nsamples = 1\nvalue = [1, 0]\nclass = No Stroke", fillcolor="#e58139"] ;
264 -> 265 ;
266 [label="gini = 0.0\nsamples = 1\nvalue = [0, 1]\nclass = Stroke", fillcolor="#399de5"] ;
264 -> 266 ;
267 [label="gini = 0.0\nsamples = 6\nvalue = [6, 0]\nclass = No Stroke", fillcolor="#e58139"] ;
263 -> 267 ;
268 [label="gini = 0.0\nsamples = 1\nvalue = [0, 1]\nclass = Stroke", fillcolor="#399de5"] ;
262 -> 268 ;
269 [label="smoking_status <= 1.5\ngini = 0.055\nsamples = 107\nvalue = [104, 3]\nclass = No Stroke", fillcolor="#e6853f"] ;
235 -> 269 ;
270 [label="smoking_status <= 0.5\ngini = 0.04\nsamples = 98\nvalue = [96, 2]\nclass = No Stroke", fillcolor="#e6843d"] ;
269 -> 270 ;
271 [label="residence_type <= 0.5\ngini = 0.091\nsamples = 42\nvalue = [40, 2]\nclass = No Stroke", fillcolor="#e68743"] ;
270 -> 271 ;
272 [label="gini = 0.0\nsamples = 21\nvalue = [21, 0]\nclass = No Stroke", fillcolor="#e58139"] ;
271 -> 272 ;
273 [label="bmi <= 33.65\ngini = 0.172\nsamples = 21\nvalue = [19, 2]\nclass = No Stroke", fillcolor="#e88e4e"] ;
271 -> 273 ;
274 [label="avg_glucose <= 101.315\ngini = 0.111\nsamples = 17\nvalue = [16, 1]\nclass = No Stroke", fillcolor="#e78945"] ;
273 -> 274 ;
275 [label="gini = 0.0\nsamples = 12\nvalue = [12, 0]\nclass = No Stroke", fillcolor="#e58139"] ;
274 -> 275 ;
276 [label="bmi <= 27.45\ngini = 0.32\nsamples = 5\nvalue = [4, 1]\nclass = No Stroke", fillcolor="#eca06a"] ;
274 -> 276 ;
277 [label="gini = 0.0\nsamples = 1\nvalue = [0, 1]\nclass = Stroke", fillcolor="#399de5"] ;
276 -> 277 ;
278 [label="gini = 0.0\nsamples = 4\nvalue = [4, 0]\nclass = No Stroke", fillcolor="#e58139"] ;
276 -> 278 ;
279 [label="bmi <= 34.25\ngini = 0.375\nsamples = 4\nvalue = [3, 1]\nclass = No Stroke", fillcolor="#eeab7b"] ;
273 -> 279 ;
280 [label="gini = 0.0\nsamples = 1\nvalue = [0, 1]\nclass = Stroke", fillcolor="#399de5"] ;
279 -> 280 ;
281 [label="gini = 0.0\nsamples = 3\nvalue = [3, 0]\nclass = No Stroke", fillcolor="#e58139"] ;
279 -> 281 ;
282 [label="gini = 0.0\nsamples = 56\nvalue = [56, 0]\nclass = No Stroke", fillcolor="#e58139"] ;
270 -> 282 ;
283 [label="avg_glucose <= 99.205\ngini = 0.198\nsamples = 9\nvalue = [8, 1]\nclass = No Stroke", fillcolor="#e89152"] ;
269 -> 283 ;
284 [label="avg_glucose <= 96.64\ngini = 0.444\nsamples = 3\nvalue = [2, 1]\nclass = No Stroke", fillcolor="#f2c09c"] ;
283 -> 284 ;
285 [label="gini = 0.0\nsamples = 2\nvalue = [2, 0]\nclass = No Stroke", fillcolor="#e58139"] ;
284 -> 285 ;
286 [label="gini = 0.0\nsamples = 1\nvalue = [0, 1]\nclass = Stroke", fillcolor="#399de5"] ;
284 -> 286 ;
287 [label="gini = 0.0\nsamples = 6\nvalue = [6, 0]\nclass = No Stroke", fillcolor="#e58139"] ;
283 -> 287 ;
288 [label="avg_glucose <= 56.145\ngini = 0.263\nsamples = 148\nvalue = [125, 23]\nclass = No Stroke", fillcolor="#ea985d"] ;
234 -> 288 ;
289 [label="gini = 0.0\nsamples = 1\nvalue = [0, 1]\nclass = Stroke", fillcolor="#399de5"] ;
288 -> 289 ;
290 [label="avg_glucose <= 66.44\ngini = 0.255\nsamples = 147\nvalue = [125, 22]\nclass = No Stroke", fillcolor="#ea975c"] ;
288 -> 290 ;
291 [label="gini = 0.0\nsamples = 22\nvalue = [22, 0]\nclass = No Stroke", fillcolor="#e58139"] ;
290 -> 291 ;
292 [label="bmi <= 17.4\ngini = 0.29\nsamples = 125\nvalue = [103, 22]\nclass = No Stroke", fillcolor="#eb9c63"] ;
290 -> 292 ;
293 [label="gini = 0.0\nsamples = 1\nvalue = [0, 1]\nclass = Stroke", fillcolor="#399de5"] ;
292 -> 293 ;
294 [label="avg_glucose <= 67.565\ngini = 0.281\nsamples = 124\nvalue = [103, 21]\nclass = No Stroke", fillcolor="#ea9b61"] ;
292 -> 294 ;
295 [label="gini = 0.0\nsamples = 1\nvalue = [0, 1]\nclass = Stroke", fillcolor="#399de5"] ;
294 -> 295 ;
296 [label="avg_glucose <= 90.99\ngini = 0.272\nsamples = 123\nvalue = [103, 20]\nclass = No Stroke", fillcolor="#ea995f"] ;
294 -> 296 ;
297 [label="residence_type <= 0.5\ngini = 0.202\nsamples = 70\nvalue = [62, 8]\nclass = No Stroke", fillcolor="#e89153"] ;
296 -> 297 ;
298 [label="hypertension <= 0.5\ngini = 0.35\nsamples = 31\nvalue = [24, 7]\nclass = No Stroke", fillcolor="#eda673"] ;
297 -> 298 ;
299 [label="bmi <= 24.2\ngini = 0.269\nsamples = 25\nvalue = [21, 4]\nclass = No Stroke", fillcolor="#ea995f"] ;
298 -> 299 ;
300 [label="bmi <= 22.6\ngini = 0.48\nsamples = 5\nvalue = [3, 2]\nclass = No Stroke", fillcolor="#f6d5bd"] ;
299 -> 300 ;
301 [label="gini = 0.0\nsamples = 3\nvalue = [3, 0]\nclass = No Stroke", fillcolor="#e58139"] ;
300 -> 301 ;
302 [label="gini = 0.0\nsamples = 2\nvalue = [0, 2]\nclass = Stroke", fillcolor="#399de5"] ;
300 -> 302 ;
303 [label="avg_glucose <= 85.955\ngini = 0.18\nsamples = 20\nvalue = [18, 2]\nclass = No Stroke", fillcolor="#e88f4f"] ;
299 -> 303 ;
304 [label="gini = 0.0\nsamples = 13\nvalue = [13, 0]\nclass = No Stroke", fillcolor="#e58139"] ;
303 -> 304 ;
305 [label="avg_glucose <= 87.565\ngini = 0.408\nsamples = 7\nvalue = [5, 2]\nclass = No Stroke", fillcolor="#efb388"] ;
303 -> 305 ;
306 [label="gini = 0.0\nsamples = 1\nvalue = [0, 1]\nclass = Stroke", fillcolor="#399de5"] ;
305 -> 306 ;
307 [label="age <= 78.0\ngini = 0.278\nsamples = 6\nvalue = [5, 1]\nclass = No Stroke", fillcolor="#ea9a61"] ;
305 -> 307 ;
308 [label="bmi <= 31.75\ngini = 0.5\nsamples = 2\nvalue = [1, 1]\nclass = No Stroke", fillcolor="#ffffff"] ;
307 -> 308 ;
309 [label="gini = 0.0\nsamples = 1\nvalue = [1, 0]\nclass = No Stroke", fillcolor="#e58139"] ;
308 -> 309 ;
310 [label="gini = 0.0\nsamples = 1\nvalue = [0, 1]\nclass = Stroke", fillcolor="#399de5"] ;
308 -> 310 ;
311 [label="gini = 0.0\nsamples = 4\nvalue = [4, 0]\nclass = No Stroke", fillcolor="#e58139"] ;
307 -> 311 ;
312 [label="age <= 79.5\ngini = 0.5\nsamples = 6\nvalue = [3, 3]\nclass = No Stroke", fillcolor="#ffffff"] ;
298 -> 312 ;
313 [label="gini = 0.0\nsamples = 3\nvalue = [3, 0]\nclass = No Stroke", fillcolor="#e58139"] ;
312 -> 313 ;
314 [label="gini = 0.0\nsamples = 3\nvalue = [0, 3]\nclass = Stroke", fillcolor="#399de5"] ;
312 -> 314 ;
315 [label="avg_glucose <= 69.37\ngini = 0.05\nsamples = 39\nvalue = [38, 1]\nclass = No Stroke", fillcolor="#e6843e"] ;
297 -> 315 ;
316 [label="age <= 79.5\ngini = 0.375\nsamples = 4\nvalue = [3, 1]\nclass = No Stroke", fillcolor="#eeab7b"] ;
315 -> 316 ;
317 [label="gini = 0.0\nsamples = 3\nvalue = [3, 0]\nclass = No Stroke", fillcolor="#e58139"] ;
316 -> 317 ;
318 [label="gini = 0.0\nsamples = 1\nvalue = [0, 1]\nclass = Stroke", fillcolor="#399de5"] ;
316 -> 318 ;
319 [label="gini = 0.0\nsamples = 35\nvalue = [35, 0]\nclass = No Stroke", fillcolor="#e58139"] ;
315 -> 319 ;
320 [label="avg_glucose <= 91.585\ngini = 0.35\nsamples = 53\nvalue = [41, 12]\nclass = No Stroke", fillcolor="#eda673"] ;
296 -> 320 ;
321 [label="gini = 0.0\nsamples = 2\nvalue = [0, 2]\nclass = Stroke", fillcolor="#399de5"] ;
320 -> 321 ;
322 [label="residence_type <= 0.5\ngini = 0.315\nsamples = 51\nvalue = [41, 10]\nclass = No Stroke", fillcolor="#eba069"] ;
320 -> 322 ;
323 [label="work_type <= 2.5\ngini = 0.153\nsamples = 24\nvalue = [22, 2]\nclass = No Stroke", fillcolor="#e78c4b"] ;
322 -> 323 ;
324 [label="gini = 0.0\nsamples = 1\nvalue = [0, 1]\nclass = Stroke", fillcolor="#399de5"] ;
323 -> 324 ;
325 [label="gender <= 0.5\ngini = 0.083\nsamples = 23\nvalue = [22, 1]\nclass = No Stroke", fillcolor="#e68742"] ;
323 -> 325 ;
326 [label="gini = 0.0\nsamples = 16\nvalue = [16, 0]\nclass = No Stroke", fillcolor="#e58139"] ;
325 -> 326 ;
327 [label="avg_glucose <= 103.665\ngini = 0.245\nsamples = 7\nvalue = [6, 1]\nclass = No Stroke", fillcolor="#e9965a"] ;
325 -> 327 ;
328 [label="gini = 0.0\nsamples = 4\nvalue = [4, 0]\nclass = No Stroke", fillcolor="#e58139"] ;
327 -> 328 ;
329 [label="avg_glucose <= 108.38\ngini = 0.444\nsamples = 3\nvalue = [2, 1]\nclass = No Stroke", fillcolor="#f2c09c"] ;
327 -> 329 ;
330 [label="gini = 0.0\nsamples = 1\nvalue = [0, 1]\nclass = Stroke", fillcolor="#399de5"] ;
329 -> 330 ;
331 [label="gini = 0.0\nsamples = 2\nvalue = [2, 0]\nclass = No Stroke", fillcolor="#e58139"] ;
329 -> 331 ;
332 [label="avg_glucose <= 99.555\ngini = 0.417\nsamples = 27\nvalue = [19, 8]\nclass = No Stroke", fillcolor="#f0b68c"] ;
322 -> 332 ;
333 [label="work_type <= 2.5\ngini = 0.375\nsamples = 4\nvalue = [1, 3]\nclass = Stroke", fillcolor="#7bbeee"] ;
332 -> 333 ;
334 [label="gini = 0.0\nsamples = 1\nvalue = [1, 0]\nclass = No Stroke", fillcolor="#e58139"] ;
333 -> 334 ;
335 [label="gini = 0.0\nsamples = 3\nvalue = [0, 3]\nclass = Stroke", fillcolor="#399de5"] ;
333 -> 335 ;
336 [label="age <= 79.5\ngini = 0.34\nsamples = 23\nvalue = [18, 5]\nclass = No Stroke", fillcolor="#eca470"] ;
332 -> 336 ;
337 [label="avg_glucose <= 104.795\ngini = 0.473\nsamples = 13\nvalue = [8, 5]\nclass = No Stroke", fillcolor="#f5d0b5"] ;
336 -> 337 ;
338 [label="gini = 0.0\nsamples = 4\nvalue = [4, 0]\nclass = No Stroke", fillcolor="#e58139"] ;
337 -> 338 ;
339 [label="smoking_status <= 0.5\ngini = 0.494\nsamples = 9\nvalue = [4, 5]\nclass = Stroke", fillcolor="#d7ebfa"] ;
337 -> 339 ;
340 [label="gini = 0.0\nsamples = 2\nvalue = [0, 2]\nclass = Stroke", fillcolor="#399de5"] ;
339 -> 340 ;
341 [label="age <= 77.5\ngini = 0.49\nsamples = 7\nvalue = [4, 3]\nclass = No Stroke", fillcolor="#f8e0ce"] ;
339 -> 341 ;
342 [label="gini = 0.0\nsamples = 2\nvalue = [0, 2]\nclass = Stroke", fillcolor="#399de5"] ;
341 -> 342 ;
343 [label="gender <= 0.5\ngini = 0.32\nsamples = 5\nvalue = [4, 1]\nclass = No Stroke", fillcolor="#eca06a"] ;
341 -> 343 ;
344 [label="gini = 0.0\nsamples = 3\nvalue = [3, 0]\nclass = No Stroke", fillcolor="#e58139"] ;
343 -> 344 ;
345 [label="age <= 78.5\ngini = 0.5\nsamples = 2\nvalue = [1, 1]\nclass = No Stroke", fillcolor="#ffffff"] ;
343 -> 345 ;
346 [label="gini = 0.0\nsamples = 1\nvalue = [0, 1]\nclass = Stroke", fillcolor="#399de5"] ;
345 -> 346 ;
347 [label="gini = 0.0\nsamples = 1\nvalue = [1, 0]\nclass = No Stroke", fillcolor="#e58139"] ;
345 -> 347 ;
348 [label="gini = 0.0\nsamples = 10\nvalue = [10, 0]\nclass = No Stroke", fillcolor="#e58139"] ;
336 -> 348 ;
349 [label="avg_glucose <= 141.365\ngini = 0.359\nsamples = 175\nvalue = [134, 41]\nclass = No Stroke", fillcolor="#eda876"] ;
219 -> 349 ;
350 [label="bmi <= 32.4\ngini = 0.375\nsamples = 8\nvalue = [2, 6]\nclass = Stroke", fillcolor="#7bbeee"] ;
349 -> 350 ;
351 [label="gini = 0.0\nsamples = 6\nvalue = [0, 6]\nclass = Stroke", fillcolor="#399de5"] ;
350 -> 351 ;
352 [label="gini = 0.0\nsamples = 2\nvalue = [2, 0]\nclass = No Stroke", fillcolor="#e58139"] ;
350 -> 352 ;
353 [label="avg_glucose <= 256.745\ngini = 0.331\nsamples = 167\nvalue = [132, 35]\nclass = No Stroke", fillcolor="#eca26e"] ;
349 -> 353 ;
354 [label="avg_glucose <= 200.66\ngini = 0.317\nsamples = 162\nvalue = [130, 32]\nclass = No Stroke", fillcolor="#eba06a"] ;
353 -> 354 ;
355 [label="avg_glucose <= 182.595\ngini = 0.4\nsamples = 58\nvalue = [42, 16]\nclass = No Stroke", fillcolor="#efb184"] ;
354 -> 355 ;
356 [label="bmi <= 27.0\ngini = 0.198\nsamples = 27\nvalue = [24, 3]\nclass = No Stroke", fillcolor="#e89152"] ;
355 -> 356 ;
357 [label="age <= 78.5\ngini = 0.375\nsamples = 8\nvalue = [6, 2]\nclass = No Stroke", fillcolor="#eeab7b"] ;
356 -> 357 ;
358 [label="gini = 0.0\nsamples = 5\nvalue = [5, 0]\nclass = No Stroke", fillcolor="#e58139"] ;
357 -> 358 ;
359 [label="ever_married <= 0.5\ngini = 0.444\nsamples = 3\nvalue = [1, 2]\nclass = Stroke", fillcolor="#9ccef2"] ;
357 -> 359 ;
360 [label="gini = 0.0\nsamples = 1\nvalue = [1, 0]\nclass = No Stroke", fillcolor="#e58139"] ;
359 -> 360 ;
361 [label="gini = 0.0\nsamples = 2\nvalue = [0, 2]\nclass = Stroke", fillcolor="#399de5"] ;
359 -> 361 ;
362 [label="avg_glucose <= 162.045\ngini = 0.1\nsamples = 19\nvalue = [18, 1]\nclass = No Stroke", fillcolor="#e68844"] ;
356 -> 362 ;
363 [label="gini = 0.0\nsamples = 12\nvalue = [12, 0]\nclass = No Stroke", fillcolor="#e58139"] ;
362 -> 363 ;
364 [label="avg_glucose <= 164.865\ngini = 0.245\nsamples = 7\nvalue = [6, 1]\nclass = No Stroke", fillcolor="#e9965a"] ;
362 -> 364 ;
365 [label="gini = 0.0\nsamples = 1\nvalue = [0, 1]\nclass = Stroke", fillcolor="#399de5"] ;
364 -> 365 ;
366 [label="gini = 0.0\nsamples = 6\nvalue = [6, 0]\nclass = No Stroke", fillcolor="#e58139"] ;
364 -> 366 ;
367 [label="age <= 80.0\ngini = 0.487\nsamples = 31\nvalue = [18, 13]\nclass = No Stroke", fillcolor="#f8dcc8"] ;
355 -> 367 ;
368 [label="avg_glucose <= 196.02\ngini = 0.459\nsamples = 28\nvalue = [18, 10]\nclass = No Stroke", fillcolor="#f3c7a7"] ;
367 -> 368 ;
369 [label="residence_type <= 0.5\ngini = 0.5\nsamples = 18\nvalue = [9, 9]\nclass = No Stroke", fillcolor="#ffffff"] ;
368 -> 369 ;
370 [label="avg_glucose <= 194.81\ngini = 0.375\nsamples = 8\nvalue = [2, 6]\nclass = Stroke", fillcolor="#7bbeee"] ;
369 -> 370 ;
371 [label="bmi <= 26.85\ngini = 0.245\nsamples = 7\nvalue = [1, 6]\nclass = Stroke", fillcolor="#5aade9"] ;
370 -> 371 ;
372 [label="bmi <= 24.55\ngini = 0.5\nsamples = 2\nvalue = [1, 1]\nclass = No Stroke", fillcolor="#ffffff"] ;
371 -> 372 ;
373 [label="gini = 0.0\nsamples = 1\nvalue = [0, 1]\nclass = Stroke", fillcolor="#399de5"] ;
372 -> 373 ;
374 [label="gini = 0.0\nsamples = 1\nvalue = [1, 0]\nclass = No Stroke", fillcolor="#e58139"] ;
372 -> 374 ;
375 [label="gini = 0.0\nsamples = 5\nvalue = [0, 5]\nclass = Stroke", fillcolor="#399de5"] ;
371 -> 375 ;
376 [label="gini = 0.0\nsamples = 1\nvalue = [1, 0]\nclass = No Stroke", fillcolor="#e58139"] ;
370 -> 376 ;
377 [label="avg_glucose <= 194.41\ngini = 0.42\nsamples = 10\nvalue = [7, 3]\nclass = No Stroke", fillcolor="#f0b78e"] ;
369 -> 377 ;
378 [label="gini = 0.0\nsamples = 5\nvalue = [5, 0]\nclass = No Stroke", fillcolor="#e58139"] ;
377 -> 378 ;
379 [label="bmi <= 30.85\ngini = 0.48\nsamples = 5\nvalue = [2, 3]\nclass = Stroke", fillcolor="#bddef6"] ;
377 -> 379 ;
380 [label="bmi <= 28.5\ngini = 0.444\nsamples = 3\nvalue = [2, 1]\nclass = No Stroke", fillcolor="#f2c09c"] ;
379 -> 380 ;
381 [label="gini = 0.0\nsamples = 1\nvalue = [0, 1]\nclass = Stroke", fillcolor="#399de5"] ;
380 -> 381 ;
382 [label="gini = 0.0\nsamples = 2\nvalue = [2, 0]\nclass = No Stroke", fillcolor="#e58139"] ;
380 -> 382 ;
383 [label="gini = 0.0\nsamples = 2\nvalue = [0, 2]\nclass = Stroke", fillcolor="#399de5"] ;
379 -> 383 ;
384 [label="avg_glucose <= 199.315\ngini = 0.18\nsamples = 10\nvalue = [9, 1]\nclass = No Stroke", fillcolor="#e88f4f"] ;
368 -> 384 ;
385 [label="gini = 0.0\nsamples = 7\nvalue = [7, 0]\nclass = No Stroke", fillcolor="#e58139"] ;
384 -> 385 ;
386 [label="heart_disease <= 0.5\ngini = 0.444\nsamples = 3\nvalue = [2, 1]\nclass = No Stroke", fillcolor="#f2c09c"] ;
384 -> 386 ;
387 [label="gini = 0.0\nsamples = 1\nvalue = [0, 1]\nclass = Stroke", fillcolor="#399de5"] ;
386 -> 387 ;
388 [label="gini = 0.0\nsamples = 2\nvalue = [2, 0]\nclass = No Stroke", fillcolor="#e58139"] ;
386 -> 388 ;
389 [label="gini = 0.0\nsamples = 3\nvalue = [0, 3]\nclass = Stroke", fillcolor="#399de5"] ;
367 -> 389 ;
390 [label="avg_glucose <= 216.92\ngini = 0.26\nsamples = 104\nvalue = [88, 16]\nclass = No Stroke", fillcolor="#ea985d"] ;
354 -> 390 ;
391 [label="age <= 68.5\ngini = 0.089\nsamples = 43\nvalue = [41, 2]\nclass = No Stroke", fillcolor="#e68743"] ;
390 -> 391 ;
392 [label="hypertension <= 0.5\ngini = 0.5\nsamples = 2\nvalue = [1, 1]\nclass = No Stroke", fillcolor="#ffffff"] ;
391 -> 392 ;
393 [label="gini = 0.0\nsamples = 1\nvalue = [1, 0]\nclass = No Stroke", fillcolor="#e58139"] ;
392 -> 393 ;
394 [label="gini = 0.0\nsamples = 1\nvalue = [0, 1]\nclass = Stroke", fillcolor="#399de5"] ;
392 -> 394 ;
395 [label="avg_glucose <= 213.71\ngini = 0.048\nsamples = 41\nvalue = [40, 1]\nclass = No Stroke", fillcolor="#e6843e"] ;
391 -> 395 ;
396 [label="gini = 0.0\nsamples = 31\nvalue = [31, 0]\nclass = No Stroke", fillcolor="#e58139"] ;
395 -> 396 ;
397 [label="avg_glucose <= 214.255\ngini = 0.18\nsamples = 10\nvalue = [9, 1]\nclass = No Stroke", fillcolor="#e88f4f"] ;
395 -> 397 ;
398 [label="gini = 0.0\nsamples = 1\nvalue = [0, 1]\nclass = Stroke", fillcolor="#399de5"] ;
397 -> 398 ;
399 [label="gini = 0.0\nsamples = 9\nvalue = [9, 0]\nclass = No Stroke", fillcolor="#e58139"] ;
397 -> 399 ;
400 [label="heart_disease <= 0.5\ngini = 0.354\nsamples = 61\nvalue = [47, 14]\nclass = No Stroke", fillcolor="#eda774"] ;
390 -> 400 ;
401 [label="work_type <= 3.5\ngini = 0.249\nsamples = 48\nvalue = [41, 7]\nclass = No Stroke", fillcolor="#e9975b"] ;
400 -> 401 ;
402 [label="bmi <= 26.85\ngini = 0.074\nsamples = 26\nvalue = [25, 1]\nclass = No Stroke", fillcolor="#e68641"] ;
401 -> 402 ;
403 [label="avg_glucose <= 230.065\ngini = 0.278\nsamples = 6\nvalue = [5, 1]\nclass = No Stroke", fillcolor="#ea9a61"] ;
402 -> 403 ;
404 [label="gini = 0.0\nsamples = 1\nvalue = [0, 1]\nclass = Stroke", fillcolor="#399de5"] ;
403 -> 404 ;
405 [label="gini = 0.0\nsamples = 5\nvalue = [5, 0]\nclass = No Stroke", fillcolor="#e58139"] ;
403 -> 405 ;
406 [label="gini = 0.0\nsamples = 20\nvalue = [20, 0]\nclass = No Stroke", fillcolor="#e58139"] ;
402 -> 406 ;
407 [label="avg_glucose <= 223.695\ngini = 0.397\nsamples = 22\nvalue = [16, 6]\nclass = No Stroke", fillcolor="#efb083"] ;
401 -> 407 ;
408 [label="age <= 76.5\ngini = 0.48\nsamples = 5\nvalue = [2, 3]\nclass = Stroke", fillcolor="#bddef6"] ;
407 -> 408 ;
409 [label="gini = 0.0\nsamples = 3\nvalue = [0, 3]\nclass = Stroke", fillcolor="#399de5"] ;
408 -> 409 ;
410 [label="gini = 0.0\nsamples = 2\nvalue = [2, 0]\nclass = No Stroke", fillcolor="#e58139"] ;
408 -> 410 ;
411 [label="bmi <= 31.95\ngini = 0.291\nsamples = 17\nvalue = [14, 3]\nclass = No Stroke", fillcolor="#eb9c63"] ;
407 -> 411 ;
412 [label="gini = 0.0\nsamples = 9\nvalue = [9, 0]\nclass = No Stroke", fillcolor="#e58139"] ;
411 -> 412 ;
413 [label="bmi <= 32.6\ngini = 0.469\nsamples = 8\nvalue = [5, 3]\nclass = No Stroke", fillcolor="#f5cdb0"] ;
411 -> 413 ;
414 [label="gini = 0.0\nsamples = 1\nvalue = [0, 1]\nclass = Stroke", fillcolor="#399de5"] ;
413 -> 414 ;
415 [label="age <= 74.5\ngini = 0.408\nsamples = 7\nvalue = [5, 2]\nclass = No Stroke", fillcolor="#efb388"] ;
413 -> 415 ;
416 [label="bmi <= 43.15\ngini = 0.444\nsamples = 3\nvalue = [1, 2]\nclass = Stroke", fillcolor="#9ccef2"] ;
415 -> 416 ;
417 [label="gini = 0.0\nsamples = 2\nvalue = [0, 2]\nclass = Stroke", fillcolor="#399de5"] ;
416 -> 417 ;
418 [label="gini = 0.0\nsamples = 1\nvalue = [1, 0]\nclass = No Stroke", fillcolor="#e58139"] ;
416 -> 418 ;
419 [label="gini = 0.0\nsamples = 4\nvalue = [4, 0]\nclass = No Stroke", fillcolor="#e58139"] ;
415 -> 419 ;
420 [label="bmi <= 28.25\ngini = 0.497\nsamples = 13\nvalue = [6, 7]\nclass = Stroke", fillcolor="#e3f1fb"] ;
400 -> 420 ;
421 [label="age <= 71.0\ngini = 0.278\nsamples = 6\nvalue = [5, 1]\nclass = No Stroke", fillcolor="#ea9a61"] ;
420 -> 421 ;
422 [label="gini = 0.0\nsamples = 1\nvalue = [0, 1]\nclass = Stroke", fillcolor="#399de5"] ;
421 -> 422 ;
423 [label="gini = 0.0\nsamples = 5\nvalue = [5, 0]\nclass = No Stroke", fillcolor="#e58139"] ;
421 -> 423 ;
424 [label="bmi <= 41.1\ngini = 0.245\nsamples = 7\nvalue = [1, 6]\nclass = Stroke", fillcolor="#5aade9"] ;
420 -> 424 ;
425 [label="gini = 0.0\nsamples = 6\nvalue = [0, 6]\nclass = Stroke", fillcolor="#399de5"] ;
424 -> 425 ;
426 [label="gini = 0.0\nsamples = 1\nvalue = [1, 0]\nclass = No Stroke", fillcolor="#e58139"] ;
424 -> 426 ;
427 [label="bmi <= 30.8\ngini = 0.48\nsamples = 5\nvalue = [2, 3]\nclass = Stroke", fillcolor="#bddef6"] ;
353 -> 427 ;
428 [label="gini = 0.0\nsamples = 2\nvalue = [2, 0]\nclass = No Stroke", fillcolor="#e58139"] ;
427 -> 428 ;
429 [label="gini = 0.0\nsamples = 3\nvalue = [0, 3]\nclass = Stroke", fillcolor="#399de5"] ;
427 -> 429 ;
430 [label="age <= 76.0\ngini = 0.305\nsamples = 16\nvalue = [3, 13]\nclass = Stroke", fillcolor="#67b4eb"] ;
218 -> 430 ;
431 [label="work_type <= 3.5\ngini = 0.48\nsamples = 5\nvalue = [3, 2]\nclass = No Stroke", fillcolor="#f6d5bd"] ;
430 -> 431 ;
432 [label="gini = 0.0\nsamples = 3\nvalue = [3, 0]\nclass = No Stroke", fillcolor="#e58139"] ;
431 -> 432 ;
433 [label="gini = 0.0\nsamples = 2\nvalue = [0, 2]\nclass = Stroke", fillcolor="#399de5"] ;
431 -> 433 ;
434 [label="gini = 0.0\nsamples = 11\nvalue = [0, 11]\nclass = Stroke", fillcolor="#399de5"] ;
430 -> 434 ;
}