digraph Tree {
node [shape=box, style="filled, rounded", color="black", fontname="helvetica"] ;
edge [fontname="helvetica"] ;
0 [label="age <= 67.5\ngini = 0.103\nsamples = 2740\nvalue = [2590, 150]\nclass = No Stroke", fillcolor="#e78844"] ;
1 [label="age <= 44.5\ngini = 0.052\nsamples = 2214\nvalue = [2155, 59]\nclass = No Stroke", fillcolor="#e6843e"] ;
0 -> 1 [labeldistance=2.5, labelangle=45, headlabel="True"] ;
2 [label="age <= 37.5\ngini = 0.007\nsamples = 1120\nvalue = [1116, 4]\nclass = No Stroke", fillcolor="#e5813a"] ;
1 -> 2 ;
3 [label="gini = 0.0\nsamples = 806\nvalue = [806, 0]\nclass = No Stroke", fillcolor="#e58139"] ;
2 -> 3 ;
4 [label="avg_glucose <= 58.19\ngini = 0.025\nsamples = 314\nvalue = [310, 4]\nclass = No Stroke", fillcolor="#e5833c"] ;
2 -> 4 ;
5 [label="avg_glucose <= 57.94\ngini = 0.278\nsamples = 6\nvalue = [5, 1]\nclass = No Stroke", fillcolor="#ea9a61"] ;
4 -> 5 ;
6 [label="gini = 0.0\nsamples = 5\nvalue = [5, 0]\nclass = No Stroke", fillcolor="#e58139"] ;
5 -> 6 ;
7 [label="gini = 0.0\nsamples = 1\nvalue = [0, 1]\nclass = Stroke", fillcolor="#399de5"] ;
5 -> 7 ;
8 [label="age <= 39.5\ngini = 0.019\nsamples = 308\nvalue = [305, 3]\nclass = No Stroke", fillcolor="#e5823b"] ;
4 -> 8 ;
9 [label="bmi <= 29.75\ngini = 0.064\nsamples = 90\nvalue = [87, 3]\nclass = No Stroke", fillcolor="#e68540"] ;
8 -> 9 ;
10 [label="bmi <= 29.45\ngini = 0.13\nsamples = 43\nvalue = [40, 3]\nclass = No Stroke", fillcolor="#e78a48"] ;
9 -> 10 ;
11 [label="smoking_status <= 0.5\ngini = 0.091\nsamples = 42\nvalue = [40, 2]\nclass = No Stroke", fillcolor="#e68743"] ;
10 -> 11 ;
12 [label="ever_married <= 0.5\ngini = 0.444\nsamples = 3\nvalue = [2, 1]\nclass = No Stroke", fillcolor="#f2c09c"] ;
11 -> 12 ;
13 [label="gini = 0.0\nsamples = 1\nvalue = [0, 1]\nclass = Stroke", fillcolor="#399de5"] ;
12 -> 13 ;
14 [label="gini = 0.0\nsamples = 2\nvalue = [2, 0]\nclass = No Stroke", fillcolor="#e58139"] ;
12 -> 14 ;
15 [label="avg_glucose <= 83.375\ngini = 0.05\nsamples = 39\nvalue = [38, 1]\nclass = No Stroke", fillcolor="#e6843e"] ;
11 -> 15 ;
16 [label="avg_glucose <= 83.045\ngini = 0.153\nsamples = 12\nvalue = [11, 1]\nclass = No Stroke", fillcolor="#e78c4b"] ;
15 -> 16 ;
17 [label="gini = 0.0\nsamples = 11\nvalue = [11, 0]\nclass = No Stroke", fillcolor="#e58139"] ;
16 -> 17 ;
18 [label="gini = 0.0\nsamples = 1\nvalue = [0, 1]\nclass = Stroke", fillcolor="#399de5"] ;
16 -> 18 ;
19 [label="gini = 0.0\nsamples = 27\nvalue = [27, 0]\nclass = No Stroke", fillcolor="#e58139"] ;
15 -> 19 ;
20 [label="gini = 0.0\nsamples = 1\nvalue = [0, 1]\nclass = Stroke", fillcolor="#399de5"] ;
10 -> 20 ;
21 [label="gini = 0.0\nsamples = 47\nvalue = [47, 0]\nclass = No Stroke", fillcolor="#e58139"] ;
9 -> 21 ;
22 [label="gini = 0.0\nsamples = 218\nvalue = [218, 0]\nclass = No Stroke", fillcolor="#e58139"] ;
8 -> 22 ;
23 [label="avg_glucose <= 166.85\ngini = 0.095\nsamples = 1094\nvalue = [1039, 55]\nclass = No Stroke", fillcolor="#e68843"] ;
1 -> 23 ;
24 [label="bmi <= 26.35\ngini = 0.073\nsamples = 901\nvalue = [867, 34]\nclass = No Stroke", fillcolor="#e68641"] ;
23 -> 24 ;
25 [label="bmi <= 21.25\ngini = 0.027\nsamples = 217\nvalue = [214, 3]\nclass = No Stroke", fillcolor="#e5833c"] ;
24 -> 25 ;
26 [label="avg_glucose <= 77.025\ngini = 0.095\nsamples = 40\nvalue = [38, 2]\nclass = No Stroke", fillcolor="#e68843"] ;
25 -> 26 ;
27 [label="avg_glucose <= 73.735\ngini = 0.346\nsamples = 9\nvalue = [7, 2]\nclass = No Stroke", fillcolor="#eca572"] ;
26 -> 27 ;
28 [label="gini = 0.0\nsamples = 7\nvalue = [7, 0]\nclass = No Stroke", fillcolor="#e58139"] ;
27 -> 28 ;
29 [label="gini = 0.0\nsamples = 2\nvalue = [0, 2]\nclass = Stroke", fillcolor="#399de5"] ;
27 -> 29 ;
30 [label="gini = 0.0\nsamples = 31\nvalue = [31, 0]\nclass = No Stroke", fillcolor="#e58139"] ;
26 -> 30 ;
31 [label="bmi <= 25.55\ngini = 0.011\nsamples = 177\nvalue = [176, 1]\nclass = No Stroke", fillcolor="#e5823a"] ;
25 -> 31 ;
32 [label="gini = 0.0\nsamples = 141\nvalue = [141, 0]\nclass = No Stroke", fillcolor="#e58139"] ;
31 -> 32 ;
33 [label="bmi <= 25.65\ngini = 0.054\nsamples = 36\nvalue = [35, 1]\nclass = No Stroke", fillcolor="#e6853f"] ;
31 -> 33 ;
34 [label="residence_type <= 0.5\ngini = 0.219\nsamples = 8\nvalue = [7, 1]\nclass = No Stroke", fillcolor="#e99355"] ;
33 -> 34 ;
35 [label="age <= 53.0\ngini = 0.444\nsamples = 3\nvalue = [2, 1]\nclass = No Stroke", fillcolor="#f2c09c"] ;
34 -> 35 ;
36 [label="gini = 0.0\nsamples = 2\nvalue = [2, 0]\nclass = No Stroke", fillcolor="#e58139"] ;
35 -> 36 ;
37 [label="gini = 0.0\nsamples = 1\nvalue = [0, 1]\nclass = Stroke", fillcolor="#399de5"] ;
35 -> 37 ;
38 [label="gini = 0.0\nsamples = 5\nvalue = [5, 0]\nclass = No Stroke", fillcolor="#e58139"] ;
34 -> 38 ;
39 [label="gini = 0.0\nsamples = 28\nvalue = [28, 0]\nclass = No Stroke", fillcolor="#e58139"] ;
33 -> 39 ;
40 [label="bmi <= 26.45\ngini = 0.087\nsamples = 684\nvalue = [653, 31]\nclass = No Stroke", fillcolor="#e68742"] ;
24 -> 40 ;
41 [label="avg_glucose <= 93.835\ngini = 0.408\nsamples = 7\nvalue = [5, 2]\nclass = No Stroke", fillcolor="#efb388"] ;
40 -> 41 ;
42 [label="gini = 0.0\nsamples = 4\nvalue = [4, 0]\nclass = No Stroke", fillcolor="#e58139"] ;
41 -> 42 ;
43 [label="gender <= 0.5\ngini = 0.444\nsamples = 3\nvalue = [1, 2]\nclass = Stroke", fillcolor="#9ccef2"] ;
41 -> 43 ;
44 [label="gini = 0.0\nsamples = 2\nvalue = [0, 2]\nclass = Stroke", fillcolor="#399de5"] ;
43 -> 44 ;
45 [label="gini = 0.0\nsamples = 1\nvalue = [1, 0]\nclass = No Stroke", fillcolor="#e58139"] ;
43 -> 45 ;
46 [label="bmi <= 32.05\ngini = 0.082\nsamples = 677\nvalue = [648, 29]\nclass = No Stroke", fillcolor="#e68742"] ;
40 -> 46 ;
47 [label="bmi <= 31.95\ngini = 0.112\nsamples = 353\nvalue = [332, 21]\nclass = No Stroke", fillcolor="#e78946"] ;
46 -> 47 ;
48 [label="smoking_status <= 0.5\ngini = 0.107\nsamples = 351\nvalue = [331, 20]\nclass = No Stroke", fillcolor="#e78945"] ;
47 -> 48 ;
49 [label="avg_glucose <= 133.305\ngini = 0.182\nsamples = 89\nvalue = [80, 9]\nclass = No Stroke", fillcolor="#e88f4f"] ;
48 -> 49 ;
50 [label="hypertension <= 0.5\ngini = 0.153\nsamples = 84\nvalue = [77, 7]\nclass = No Stroke", fillcolor="#e78c4b"] ;
49 -> 50 ;
51 [label="age <= 45.5\ngini = 0.102\nsamples = 74\nvalue = [70, 4]\nclass = No Stroke", fillcolor="#e68844"] ;
50 -> 51 ;
52 [label="residence_type <= 0.5\ngini = 0.5\nsamples = 2\nvalue = [1, 1]\nclass = No Stroke", fillcolor="#ffffff"] ;
51 -> 52 ;
53 [label="gini = 0.0\nsamples = 1\nvalue = [0, 1]\nclass = Stroke", fillcolor="#399de5"] ;
52 -> 53 ;
54 [label="gini = 0.0\nsamples = 1\nvalue = [1, 0]\nclass = No Stroke", fillcolor="#e58139"] ;
52 -> 54 ;
55 [label="age <= 57.5\ngini = 0.08\nsamples = 72\nvalue = [69, 3]\nclass = No Stroke", fillcolor="#e68642"] ;
51 -> 55 ;
56 [label="gini = 0.0\nsamples = 31\nvalue = [31, 0]\nclass = No Stroke", fillcolor="#e58139"] ;
55 -> 56 ;
57 [label="age <= 58.5\ngini = 0.136\nsamples = 41\nvalue = [38, 3]\nclass = No Stroke", fillcolor="#e78b49"] ;
55 -> 57 ;
58 [label="bmi <= 27.4\ngini = 0.444\nsamples = 3\nvalue = [2, 1]\nclass = No Stroke", fillcolor="#f2c09c"] ;
57 -> 58 ;
59 [label="gini = 0.0\nsamples = 1\nvalue = [1, 0]\nclass = No Stroke", fillcolor="#e58139"] ;
58 -> 59 ;
60 [label="avg_glucose <= 59.77\ngini = 0.5\nsamples = 2\nvalue = [1, 1]\nclass = No Stroke", fillcolor="#ffffff"] ;
58 -> 60 ;
61 [label="gini = 0.0\nsamples = 1\nvalue = [1, 0]\nclass = No Stroke", fillcolor="#e58139"] ;
60 -> 61 ;
62 [label="gini = 0.0\nsamples = 1\nvalue = [0, 1]\nclass = Stroke", fillcolor="#399de5"] ;
60 -> 62 ;
63 [label="avg_glucose <= 100.05\ngini = 0.1\nsamples = 38\nvalue = [36, 2]\nclass = No Stroke", fillcolor="#e68844"] ;
57 -> 63 ;
64 [label="age <= 59.5\ngini = 0.057\nsamples = 34\nvalue = [33, 1]\nclass = No Stroke", fillcolor="#e6853f"] ;
63 -> 64 ;
65 [label="bmi <= 29.9\ngini = 0.278\nsamples = 6\nvalue = [5, 1]\nclass = No Stroke", fillcolor="#ea9a61"] ;
64 -> 65 ;
66 [label="gini = 0.0\nsamples = 4\nvalue = [4, 0]\nclass = No Stroke", fillcolor="#e58139"] ;
65 -> 66 ;
67 [label="avg_glucose <= 71.85\ngini = 0.5\nsamples = 2\nvalue = [1, 1]\nclass = No Stroke", fillcolor="#ffffff"] ;
65 -> 67 ;
68 [label="gini = 0.0\nsamples = 1\nvalue = [1, 0]\nclass = No Stroke", fillcolor="#e58139"] ;
67 -> 68 ;
69 [label="gini = 0.0\nsamples = 1\nvalue = [0, 1]\nclass = Stroke", fillcolor="#399de5"] ;
67 -> 69 ;
70 [label="gini = 0.0\nsamples = 28\nvalue = [28, 0]\nclass = No Stroke", fillcolor="#e58139"] ;
64 -> 70 ;
71 [label="avg_glucose <= 101.085\ngini = 0.375\nsamples = 4\nvalue = [3, 1]\nclass = No Stroke", fillcolor="#eeab7b"] ;
63 -> 71 ;
72 [label="gini = 0.0\nsamples = 1\nvalue = [0, 1]\nclass = Stroke", fillcolor="#399de5"] ;
71 -> 72 ;
73 [label="gini = 0.0\nsamples = 3\nvalue = [3, 0]\nclass = No Stroke", fillcolor="#e58139"] ;
71 -> 73 ;
74 [label="work_type <= 2.5\ngini = 0.42\nsamples = 10\nvalue = [7, 3]\nclass = No Stroke", fillcolor="#f0b78e"] ;
50 -> 74 ;
75 [label="gini = 0.0\nsamples = 2\nvalue = [0, 2]\nclass = Stroke", fillcolor="#399de5"] ;
74 -> 75 ;
76 [label="avg_glucose <= 77.43\ngini = 0.219\nsamples = 8\nvalue = [7, 1]\nclass = No Stroke", fillcolor="#e99355"] ;
74 -> 76 ;
77 [label="avg_glucose <= 69.82\ngini = 0.5\nsamples = 2\nvalue = [1, 1]\nclass = No Stroke", fillcolor="#ffffff"] ;
76 -> 77 ;
78 [label="gini = 0.0\nsamples = 1\nvalue = [1, 0]\nclass = No Stroke", fillcolor="#e58139"] ;
77 -> 78 ;
79 [label="gini = 0.0\nsamples = 1\nvalue = [0, 1]\nclass = Stroke", fillcolor="#399de5"] ;
77 -> 79 ;
80 [label="gini = 0.0\nsamples = 6\nvalue = [6, 0]\nclass = No Stroke", fillcolor="#e58139"] ;
76 -> 80 ;
81 [label="avg_glucose <= 151.245\ngini = 0.48\nsamples = 5\nvalue = [3, 2]\nclass = No Stroke", fillcolor="#f6d5bd"] ;
49 -> 81 ;
82 [label="gini = 0.0\nsamples = 2\nvalue = [0, 2]\nclass = Stroke", fillcolor="#399de5"] ;
81 -> 82 ;
83 [label="gini = 0.0\nsamples = 3\nvalue = [3, 0]\nclass = No Stroke", fillcolor="#e58139"] ;
81 -> 83 ;
84 [label="age <= 54.5\ngini = 0.08\nsamples = 262\nvalue = [251, 11]\nclass = No Stroke", fillcolor="#e68742"] ;
48 -> 84 ;
85 [label="age <= 53.5\ngini = 0.14\nsamples = 132\nvalue = [122, 10]\nclass = No Stroke", fillcolor="#e78b49"] ;
84 -> 85 ;
86 [label="bmi <= 31.85\ngini = 0.111\nsamples = 119\nvalue = [112, 7]\nclass = No Stroke", fillcolor="#e78945"] ;
85 -> 86 ;
87 [label="bmi <= 29.35\ngini = 0.097\nsamples = 117\nvalue = [111, 6]\nclass = No Stroke", fillcolor="#e68844"] ;
86 -> 87 ;
88 [label="hypertension <= 0.5\ngini = 0.031\nsamples = 63\nvalue = [62, 1]\nclass = No Stroke", fillcolor="#e5833c"] ;
87 -> 88 ;
89 [label="gini = 0.0\nsamples = 59\nvalue = [59, 0]\nclass = No Stroke", fillcolor="#e58139"] ;
88 -> 89 ;
90 [label="avg_glucose <= 97.21\ngini = 0.375\nsamples = 4\nvalue = [3, 1]\nclass = No Stroke", fillcolor="#eeab7b"] ;
88 -> 90 ;
91 [label="gini = 0.0\nsamples = 1\nvalue = [0, 1]\nclass = Stroke", fillcolor="#399de5"] ;
90 -> 91 ;
92 [label="gini = 0.0\nsamples = 3\nvalue = [3, 0]\nclass = No Stroke", fillcolor="#e58139"] ;
90 -> 92 ;
93 [label="age <= 50.5\ngini = 0.168\nsamples = 54\nvalue = [49, 5]\nclass = No Stroke", fillcolor="#e88e4d"] ;
87 -> 93 ;
94 [label="avg_glucose <= 88.205\ngini = 0.293\nsamples = 28\nvalue = [23, 5]\nclass = No Stroke", fillcolor="#eb9c64"] ;
93 -> 94 ;
95 [label="smoking_status <= 1.5\ngini = 0.463\nsamples = 11\nvalue = [7, 4]\nclass = No Stroke", fillcolor="#f4c9aa"] ;
94 -> 95 ;
96 [label="age <= 49.5\ngini = 0.5\nsamples = 8\nvalue = [4, 4]\nclass = No Stroke", fillcolor="#ffffff"] ;
95 -> 96 ;
97 [label="bmi <= 30.3\ngini = 0.444\nsamples = 6\nvalue = [2, 4]\nclass = Stroke", fillcolor="#9ccef2"] ;
96 -> 97 ;
98 [label="gini = 0.0\nsamples = 3\nvalue = [0, 3]\nclass = Stroke", fillcolor="#399de5"] ;
97 -> 98 ;
99 [label="avg_glucose <= 71.84\ngini = 0.444\nsamples = 3\nvalue = [2, 1]\nclass = No Stroke", fillcolor="#f2c09c"] ;
97 -> 99 ;
100 [label="gini = 0.0\nsamples = 2\nvalue = [2, 0]\nclass = No Stroke", fillcolor="#e58139"] ;
99 -> 100 ;
101 [label="gini = 0.0\nsamples = 1\nvalue = [0, 1]\nclass = Stroke", fillcolor="#399de5"] ;
99 -> 101 ;
102 [label="gini = 0.0\nsamples = 2\nvalue = [2, 0]\nclass = No Stroke", fillcolor="#e58139"] ;
96 -> 102 ;
103 [label="gini = 0.0\nsamples = 3\nvalue = [3, 0]\nclass = No Stroke", fillcolor="#e58139"] ;
95 -> 103 ;
104 [label="age <= 49.5\ngini = 0.111\nsamples = 17\nvalue = [16, 1]\nclass = No Stroke", fillcolor="#e78945"] ;
94 -> 104 ;
105 [label="gini = 0.0\nsamples = 13\nvalue = [13, 0]\nclass = No Stroke", fillcolor="#e58139"] ;
104 -> 105 ;
106 [label="smoking_status <= 1.5\ngini = 0.375\nsamples = 4\nvalue = [3, 1]\nclass = No Stroke", fillcolor="#eeab7b"] ;
104 -> 106 ;
107 [label="gini = 0.0\nsamples = 2\nvalue = [2, 0]\nclass = No Stroke", fillcolor="#e58139"] ;
106 -> 107 ;
108 [label="avg_glucose <= 97.835\ngini = 0.5\nsamples = 2\nvalue = [1, 1]\nclass = No Stroke", fillcolor="#ffffff"] ;
106 -> 108 ;
109 [label="gini = 0.0\nsamples = 1\nvalue = [1, 0]\nclass = No Stroke", fillcolor="#e58139"] ;
108 -> 109 ;
110 [label="gini = 0.0\nsamples = 1\nvalue = [0, 1]\nclass = Stroke", fillcolor="#399de5"] ;
108 -> 110 ;
111 [label="gini = 0.0\nsamples = 26\nvalue = [26, 0]\nclass = No Stroke", fillcolor="#e58139"] ;
93 -> 111 ;
112 [label="heart_disease <= 0.5\ngini = 0.5\nsamples = 2\nvalue = [1, 1]\nclass = No Stroke", fillcolor="#ffffff"] ;
86 -> 112 ;
113 [label="gini = 0.0\nsamples = 1\nvalue = [0, 1]\nclass = Stroke", fillcolor="#399de5"] ;
112 -> 113 ;
114 [label="gini = 0.0\nsamples = 1\nvalue = [1, 0]\nclass = No Stroke", fillcolor="#e58139"] ;
112 -> 114 ;
115 [label="work_type <= 2.5\ngini = 0.355\nsamples = 13\nvalue = [10, 3]\nclass = No Stroke", fillcolor="#eda774"] ;
85 -> 115 ;
116 [label="gini = 0.0\nsamples = 1\nvalue = [0, 1]\nclass = Stroke", fillcolor="#399de5"] ;
115 -> 116 ;
117 [label="bmi <= 29.25\ngini = 0.278\nsamples = 12\nvalue = [10, 2]\nclass = No Stroke", fillcolor="#ea9a61"] ;
115 -> 117 ;
118 [label="smoking_status <= 1.5\ngini = 0.408\nsamples = 7\nvalue = [5, 2]\nclass = No Stroke", fillcolor="#efb388"] ;
117 -> 118 ;
119 [label="residence_type <= 0.5\ngini = 0.278\nsamples = 6\nvalue = [5, 1]\nclass = No Stroke", fillcolor="#ea9a61"] ;
118 -> 119 ;
120 [label="gini = 0.0\nsamples = 4\nvalue = [4, 0]\nclass = No Stroke", fillcolor="#e58139"] ;
119 -> 120 ;
121 [label="bmi <= 27.7\ngini = 0.5\nsamples = 2\nvalue = [1, 1]\nclass = No Stroke", fillcolor="#ffffff"] ;
119 -> 121 ;
122 [label="gini = 0.0\nsamples = 1\nvalue = [1, 0]\nclass = No Stroke", fillcolor="#e58139"] ;
121 -> 122 ;
123 [label="gini = 0.0\nsamples = 1\nvalue = [0, 1]\nclass = Stroke", fillcolor="#399de5"] ;
121 -> 123 ;
124 [label="gini = 0.0\nsamples = 1\nvalue = [0, 1]\nclass = Stroke", fillcolor="#399de5"] ;
118 -> 124 ;
125 [label="gini = 0.0\nsamples = 5\nvalue = [5, 0]\nclass = No Stroke", fillcolor="#e58139"] ;
117 -> 125 ;
126 [label="heart_disease <= 0.5\ngini = 0.015\nsamples = 130\nvalue = [129, 1]\nclass = No Stroke", fillcolor="#e5823b"] ;
84 -> 126 ;
127 [label="gini = 0.0\nsamples = 121\nvalue = [121, 0]\nclass = No Stroke", fillcolor="#e58139"] ;
126 -> 127 ;
128 [label="bmi <= 27.45\ngini = 0.198\nsamples = 9\nvalue = [8, 1]\nclass = No Stroke", fillcolor="#e89152"] ;
126 -> 128 ;
129 [label="gini = 0.0\nsamples = 1\nvalue = [0, 1]\nclass = Stroke", fillcolor="#399de5"] ;
128 -> 129 ;
130 [label="gini = 0.0\nsamples = 8\nvalue = [8, 0]\nclass = No Stroke", fillcolor="#e58139"] ;
128 -> 130 ;
131 [label="smoking_status <= 0.5\ngini = 0.5\nsamples = 2\nvalue = [1, 1]\nclass = No Stroke", fillcolor="#ffffff"] ;
47 -> 131 ;
132 [label="gini = 0.0\nsamples = 1\nvalue = [0, 1]\nclass = Stroke", fillcolor="#399de5"] ;
131 -> 132 ;
133 [label="gini = 0.0\nsamples = 1\nvalue = [1, 0]\nclass = No Stroke", fillcolor="#e58139"] ;
131 -> 133 ;
134 [label="heart_disease <= 0.5\ngini = 0.048\nsamples = 324\nvalue = [316, 8]\nclass = No Stroke", fillcolor="#e6843e"] ;
46 -> 134 ;
135 [label="avg_glucose <= 68.075\ngini = 0.039\nsamples = 305\nvalue = [299, 6]\nclass = No Stroke", fillcolor="#e6843d"] ;
134 -> 135 ;
136 [label="avg_glucose <= 67.355\ngini = 0.13\nsamples = 43\nvalue = [40, 3]\nclass = No Stroke", fillcolor="#e78a48"] ;
135 -> 136 ;
137 [label="work_type <= 2.5\ngini = 0.048\nsamples = 41\nvalue = [40, 1]\nclass = No Stroke", fillcolor="#e6843e"] ;
136 -> 137 ;
138 [label="bmi <= 40.45\ngini = 0.278\nsamples = 6\nvalue = [5, 1]\nclass = No Stroke", fillcolor="#ea9a61"] ;
137 -> 138 ;
139 [label="gini = 0.0\nsamples = 4\nvalue = [4, 0]\nclass = No Stroke", fillcolor="#e58139"] ;
138 -> 139 ;
140 [label="gender <= 0.5\ngini = 0.5\nsamples = 2\nvalue = [1, 1]\nclass = No Stroke", fillcolor="#ffffff"] ;
138 -> 140 ;
141 [label="gini = 0.0\nsamples = 1\nvalue = [0, 1]\nclass = Stroke", fillcolor="#399de5"] ;
140 -> 141 ;
142 [label="gini = 0.0\nsamples = 1\nvalue = [1, 0]\nclass = No Stroke", fillcolor="#e58139"] ;
140 -> 142 ;
143 [label="gini = 0.0\nsamples = 35\nvalue = [35, 0]\nclass = No Stroke", fillcolor="#e58139"] ;
137 -> 143 ;
144 [label="gini = 0.0\nsamples = 2\nvalue = [0, 2]\nclass = Stroke", fillcolor="#399de5"] ;
136 -> 144 ;
145 [label="bmi <= 37.75\ngini = 0.023\nsamples = 262\nvalue = [259, 3]\nclass = No Stroke", fillcolor="#e5823b"] ;
135 -> 145 ;
146 [label="gini = 0.0\nsamples = 148\nvalue = [148, 0]\nclass = No Stroke", fillcolor="#e58139"] ;
145 -> 146 ;
147 [label="bmi <= 37.85\ngini = 0.051\nsamples = 114\nvalue = [111, 3]\nclass = No Stroke", fillcolor="#e6843e"] ;
145 -> 147 ;
148 [label="ever_married <= 0.5\ngini = 0.32\nsamples = 5\nvalue = [4, 1]\nclass = No Stroke", fillcolor="#eca06a"] ;
147 -> 148 ;
149 [label="gini = 0.0\nsamples = 1\nvalue = [0, 1]\nclass = Stroke", fillcolor="#399de5"] ;
148 -> 149 ;
150 [label="gini = 0.0\nsamples = 4\nvalue = [4, 0]\nclass = No Stroke", fillcolor="#e58139"] ;
148 -> 150 ;
151 [label="smoking_status <= 0.5\ngini = 0.036\nsamples = 109\nvalue = [107, 2]\nclass = No Stroke", fillcolor="#e5833d"] ;
147 -> 151 ;
152 [label="age <= 47.5\ngini = 0.093\nsamples = 41\nvalue = [39, 2]\nclass = No Stroke", fillcolor="#e68743"] ;
151 -> 152 ;
153 [label="work_type <= 3.0\ngini = 0.32\nsamples = 5\nvalue = [4, 1]\nclass = No Stroke", fillcolor="#eca06a"] ;
152 -> 153 ;
154 [label="gini = 0.0\nsamples = 3\nvalue = [3, 0]\nclass = No Stroke", fillcolor="#e58139"] ;
153 -> 154 ;
155 [label="avg_glucose <= 90.06\ngini = 0.5\nsamples = 2\nvalue = [1, 1]\nclass = No Stroke", fillcolor="#ffffff"] ;
153 -> 155 ;
156 [label="gini = 0.0\nsamples = 1\nvalue = [0, 1]\nclass = Stroke", fillcolor="#399de5"] ;
155 -> 156 ;
157 [label="gini = 0.0\nsamples = 1\nvalue = [1, 0]\nclass = No Stroke", fillcolor="#e58139"] ;
155 -> 157 ;
158 [label="bmi <= 38.65\ngini = 0.054\nsamples = 36\nvalue = [35, 1]\nclass = No Stroke", fillcolor="#e6853f"] ;
152 -> 158 ;
159 [label="bmi <= 38.4\ngini = 0.32\nsamples = 5\nvalue = [4, 1]\nclass = No Stroke", fillcolor="#eca06a"] ;
158 -> 159 ;
160 [label="gini = 0.0\nsamples = 4\nvalue = [4, 0]\nclass = No Stroke", fillcolor="#e58139"] ;
159 -> 160 ;
161 [label="gini = 0.0\nsamples = 1\nvalue = [0, 1]\nclass = Stroke", fillcolor="#399de5"] ;
159 -> 161 ;
162 [label="gini = 0.0\nsamples = 31\nvalue = [31, 0]\nclass = No Stroke", fillcolor="#e58139"] ;
158 -> 162 ;
163 [label="gini = 0.0\nsamples = 68\nvalue = [68, 0]\nclass = No Stroke", fillcolor="#e58139"] ;
151 -> 163 ;
164 [label="avg_glucose <= 113.1\ngini = 0.188\nsamples = 19\nvalue = [17, 2]\nclass = No Stroke", fillcolor="#e89050"] ;
134 -> 164 ;
165 [label="gini = 0.0\nsamples = 13\nvalue = [13, 0]\nclass = No Stroke", fillcolor="#e58139"] ;
164 -> 165 ;
166 [label="work_type <= 3.5\ngini = 0.444\nsamples = 6\nvalue = [4, 2]\nclass = No Stroke", fillcolor="#f2c09c"] ;
164 -> 166 ;
167 [label="gini = 0.0\nsamples = 2\nvalue = [0, 2]\nclass = Stroke", fillcolor="#399de5"] ;
166 -> 167 ;
168 [label="gini = 0.0\nsamples = 4\nvalue = [4, 0]\nclass = No Stroke", fillcolor="#e58139"] ;
166 -> 168 ;
169 [label="avg_glucose <= 167.735\ngini = 0.194\nsamples = 193\nvalue = [172, 21]\nclass = No Stroke", fillcolor="#e89051"] ;
23 -> 169 ;
170 [label="gini = 0.0\nsamples = 1\nvalue = [0, 1]\nclass = Stroke", fillcolor="#399de5"] ;
169 -> 170 ;
171 [label="bmi <= 20.25\ngini = 0.187\nsamples = 192\nvalue = [172, 20]\nclass = No Stroke", fillcolor="#e89050"] ;
169 -> 171 ;
172 [label="gini = 0.0\nsamples = 1\nvalue = [0, 1]\nclass = Stroke", fillcolor="#399de5"] ;
171 -> 172 ;
173 [label="heart_disease <= 0.5\ngini = 0.179\nsamples = 191\nvalue = [172, 19]\nclass = No Stroke", fillcolor="#e88f4f"] ;
171 -> 173 ;
174 [label="avg_glucose <= 212.135\ngini = 0.15\nsamples = 171\nvalue = [157, 14]\nclass = No Stroke", fillcolor="#e78c4b"] ;
173 -> 174 ;
175 [label="avg_glucose <= 211.6\ngini = 0.205\nsamples = 95\nvalue = [84, 11]\nclass = No Stroke", fillcolor="#e89253"] ;
174 -> 175 ;
176 [label="smoking_status <= 0.5\ngini = 0.19\nsamples = 94\nvalue = [84, 10]\nclass = No Stroke", fillcolor="#e89051"] ;
175 -> 176 ;
177 [label="age <= 55.5\ngini = 0.355\nsamples = 26\nvalue = [20, 6]\nclass = No Stroke", fillcolor="#eda774"] ;
176 -> 177 ;
178 [label="gini = 0.0\nsamples = 9\nvalue = [9, 0]\nclass = No Stroke", fillcolor="#e58139"] ;
177 -> 178 ;
179 [label="gender <= 0.5\ngini = 0.457\nsamples = 17\nvalue = [11, 6]\nclass = No Stroke", fillcolor="#f3c6a5"] ;
177 -> 179 ;
180 [label="work_type <= 3.5\ngini = 0.444\nsamples = 6\nvalue = [2, 4]\nclass = Stroke", fillcolor="#9ccef2"] ;
179 -> 180 ;
181 [label="avg_glucose <= 205.18\ngini = 0.444\nsamples = 3\nvalue = [2, 1]\nclass = No Stroke", fillcolor="#f2c09c"] ;
180 -> 181 ;
182 [label="gini = 0.0\nsamples = 2\nvalue = [2, 0]\nclass = No Stroke", fillcolor="#e58139"] ;
181 -> 182 ;
183 [label="gini = 0.0\nsamples = 1\nvalue = [0, 1]\nclass = Stroke", fillcolor="#399de5"] ;
181 -> 183 ;
184 [label="gini = 0.0\nsamples = 3\nvalue = [0, 3]\nclass = Stroke", fillcolor="#399de5"] ;
180 -> 184 ;
185 [label="age <= 60.0\ngini = 0.298\nsamples = 11\nvalue = [9, 2]\nclass = No Stroke", fillcolor="#eb9d65"] ;
179 -> 185 ;
186 [label="bmi <= 39.7\ngini = 0.5\nsamples = 4\nvalue = [2, 2]\nclass = No Stroke", fillcolor="#ffffff"] ;
185 -> 186 ;
187 [label="gini = 0.0\nsamples = 2\nvalue = [0, 2]\nclass = Stroke", fillcolor="#399de5"] ;
186 -> 187 ;
188 [label="gini = 0.0\nsamples = 2\nvalue = [2, 0]\nclass = No Stroke", fillcolor="#e58139"] ;
186 -> 188 ;
189 [label="gini = 0.0\nsamples = 7\nvalue = [7, 0]\nclass = No Stroke", fillcolor="#e58139"] ;
185 -> 189 ;
190 [label="avg_glucose <= 208.245\ngini = 0.111\nsamples = 68\nvalue = [64, 4]\nclass = No Stroke", fillcolor="#e78945"] ;
176 -> 190 ;
191 [label="age <= 54.5\ngini = 0.088\nsamples = 65\nvalue = [62, 3]\nclass = No Stroke", fillcolor="#e68743"] ;
190 -> 191 ;
192 [label="avg_glucose <= 172.185\ngini = 0.227\nsamples = 23\nvalue = [20, 3]\nclass = No Stroke", fillcolor="#e99457"] ;
191 -> 192 ;
193 [label="gini = 0.0\nsamples = 1\nvalue = [0, 1]\nclass = Stroke", fillcolor="#399de5"] ;
192 -> 193 ;
194 [label="age <= 53.5\ngini = 0.165\nsamples = 22\nvalue = [20, 2]\nclass = No Stroke", fillcolor="#e88e4d"] ;
192 -> 194 ;
195 [label="gini = 0.0\nsamples = 18\nvalue = [18, 0]\nclass = No Stroke", fillcolor="#e58139"] ;
194 -> 195 ;
196 [label="work_type <= 3.5\ngini = 0.5\nsamples = 4\nvalue = [2, 2]\nclass = No Stroke", fillcolor="#ffffff"] ;
194 -> 196 ;
197 [label="gini = 0.0\nsamples = 2\nvalue = [0, 2]\nclass = Stroke", fillcolor="#399de5"] ;
196 -> 197 ;
198 [label="gini = 0.0\nsamples = 2\nvalue = [2, 0]\nclass = No Stroke", fillcolor="#e58139"] ;
196 -> 198 ;
199 [label="gini = 0.0\nsamples = 42\nvalue = [42, 0]\nclass = No Stroke", fillcolor="#e58139"] ;
191 -> 199 ;
200 [label="avg_glucose <= 209.075\ngini = 0.444\nsamples = 3\nvalue = [2, 1]\nclass = No Stroke", fillcolor="#f2c09c"] ;
190 -> 200 ;
201 [label="gini = 0.0\nsamples = 1\nvalue = [0, 1]\nclass = Stroke", fillcolor="#399de5"] ;
200 -> 201 ;
202 [label="gini = 0.0\nsamples = 2\nvalue = [2, 0]\nclass = No Stroke", fillcolor="#e58139"] ;
200 -> 202 ;
203 [label="gini = 0.0\nsamples = 1\nvalue = [0, 1]\nclass = Stroke", fillcolor="#399de5"] ;
175 -> 203 ;
204 [label="bmi <= 48.8\ngini = 0.076\nsamples = 76\nvalue = [73, 3]\nclass = No Stroke", fillcolor="#e68641"] ;
174 -> 204 ;
205 [label="avg_glucose <= 248.84\ngini = 0.054\nsamples = 72\nvalue = [70, 2]\nclass = No Stroke", fillcolor="#e6853f"] ;
204 -> 205 ;
206 [label="smoking_status <= 1.5\ngini = 0.029\nsamples = 67\nvalue = [66, 1]\nclass = No Stroke", fillcolor="#e5833c"] ;
205 -> 206 ;
207 [label="gini = 0.0\nsamples = 52\nvalue = [52, 0]\nclass = No Stroke", fillcolor="#e58139"] ;
206 -> 207 ;
208 [label="bmi <= 37.25\ngini = 0.124\nsamples = 15\nvalue = [14, 1]\nclass = No Stroke", fillcolor="#e78a47"] ;
206 -> 208 ;
209 [label="gini = 0.0\nsamples = 12\nvalue = [12, 0]\nclass = No Stroke", fillcolor="#e58139"] ;
208 -> 209 ;
210 [label="avg_glucose <= 220.215\ngini = 0.444\nsamples = 3\nvalue = [2, 1]\nclass = No Stroke", fillcolor="#f2c09c"] ;
208 -> 210 ;
211 [label="gini = 0.0\nsamples = 2\nvalue = [2, 0]\nclass = No Stroke", fillcolor="#e58139"] ;
210 -> 211 ;
212 [label="gini = 0.0\nsamples = 1\nvalue = [0, 1]\nclass = Stroke", fillcolor="#399de5"] ;
210 -> 212 ;
213 [label="gender <= 0.5\ngini = 0.32\nsamples = 5\nvalue = [4, 1]\nclass = No Stroke", fillcolor="#eca06a"] ;
205 -> 213 ;
214 [label="gini = 0.0\nsamples = 4\nvalue = [4, 0]\nclass = No Stroke", fillcolor="#e58139"] ;
213 -> 214 ;
215 [label="gini = 0.0\nsamples = 1\nvalue = [0, 1]\nclass = Stroke", fillcolor="#399de5"] ;
213 -> 215 ;
216 [label="bmi <= 50.35\ngini = 0.375\nsamples = 4\nvalue = [3, 1]\nclass = No Stroke", fillcolor="#eeab7b"] ;
204 -> 216 ;
217 [label="gini = 0.0\nsamples = 1\nvalue = [0, 1]\nclass = Stroke", fillcolor="#399de5"] ;
216 -> 217 ;
218 [label="gini = 0.0\nsamples = 3\nvalue = [3, 0]\nclass = No Stroke", fillcolor="#e58139"] ;
216 -> 218 ;
219 [label="bmi <= 36.1\ngini = 0.375\nsamples = 20\nvalue = [15, 5]\nclass = No Stroke", fillcolor="#eeab7b"] ;
173 -> 219 ;
220 [label="avg_glucose <= 240.27\ngini = 0.133\nsamples = 14\nvalue = [13, 1]\nclass = No Stroke", fillcolor="#e78b48"] ;
219 -> 220 ;
221 [label="gini = 0.0\nsamples = 11\nvalue = [11, 0]\nclass = No Stroke", fillcolor="#e58139"] ;
220 -> 221 ;
222 [label="bmi <= 31.2\ngini = 0.444\nsamples = 3\nvalue = [2, 1]\nclass = No Stroke", fillcolor="#f2c09c"] ;
220 -> 222 ;
223 [label="gini = 0.0\nsamples = 2\nvalue = [2, 0]\nclass = No Stroke", fillcolor="#e58139"] ;
222 -> 223 ;
224 [label="gini = 0.0\nsamples = 1\nvalue = [0, 1]\nclass = Stroke", fillcolor="#399de5"] ;
222 -> 224 ;
225 [label="bmi <= 40.95\ngini = 0.444\nsamples = 6\nvalue = [2, 4]\nclass = Stroke", fillcolor="#9ccef2"] ;
219 -> 225 ;
226 [label="gini = 0.0\nsamples = 4\nvalue = [0, 4]\nclass = Stroke", fillcolor="#399de5"] ;
225 -> 226 ;
227 [label="gini = 0.0\nsamples = 2\nvalue = [2, 0]\nclass = No Stroke", fillcolor="#e58139"] ;
225 -> 227 ;
228 [label="avg_glucose <= 126.84\ngini = 0.286\nsamples = 526\nvalue = [435, 91]\nclass = No Stroke", fillcolor="#ea9b62"] ;
0 -> 228 [labeldistance=2.5, labelangle=-45, headlabel="False"] ;
229 [label="age <= 76.5\ngini = 0.229\nsamples = 357\nvalue = [310, 47]\nclass = No Stroke", fillcolor="#e99457"] ;
228 -> 229 ;
230 [label="avg_glucose <= 79.12\ngini = 0.144\nsamples = 179\nvalue = [165, 14]\nclass = No Stroke", fillcolor="#e78c4a"] ;
229 -> 230 ;
231 [label="avg_glucose <= 70.045\ngini = 0.26\nsamples = 65\nvalue = [55, 10]\nclass = No Stroke", fillcolor="#ea985d"] ;
230 -> 231 ;
232 [label="heart_disease <= 0.5\ngini = 0.061\nsamples = 32\nvalue = [31, 1]\nclass = No Stroke", fillcolor="#e6853f"] ;
231 -> 232 ;
233 [label="gini = 0.0\nsamples = 26\nvalue = [26, 0]\nclass = No Stroke", fillcolor="#e58139"] ;
232 -> 233 ;
234 [label="age <= 70.5\ngini = 0.278\nsamples = 6\nvalue = [5, 1]\nclass = No Stroke", fillcolor="#ea9a61"] ;
232 -> 234 ;
235 [label="gini = 0.0\nsamples = 1\nvalue = [0, 1]\nclass = Stroke", fillcolor="#399de5"] ;
234 -> 235 ;
236 [label="gini = 0.0\nsamples = 5\nvalue = [5, 0]\nclass = No Stroke", fillcolor="#e58139"] ;
234 -> 236 ;
237 [label="avg_glucose <= 70.155\ngini = 0.397\nsamples = 33\nvalue = [24, 9]\nclass = No Stroke", fillcolor="#efb083"] ;
231 -> 237 ;
238 [label="gini = 0.0\nsamples = 1\nvalue = [0, 1]\nclass = Stroke", fillcolor="#399de5"] ;
237 -> 238 ;
239 [label="avg_glucose <= 78.75\ngini = 0.375\nsamples = 32\nvalue = [24, 8]\nclass = No Stroke", fillcolor="#eeab7b"] ;
237 -> 239 ;
240 [label="age <= 74.5\ngini = 0.35\nsamples = 31\nvalue = [24, 7]\nclass = No Stroke", fillcolor="#eda673"] ;
239 -> 240 ;
241 [label="age <= 73.5\ngini = 0.423\nsamples = 23\nvalue = [16, 7]\nclass = No Stroke", fillcolor="#f0b890"] ;
240 -> 241 ;
242 [label="gender <= 0.5\ngini = 0.332\nsamples = 19\nvalue = [15, 4]\nclass = No Stroke", fillcolor="#eca36e"] ;
241 -> 242 ;
243 [label="bmi <= 22.85\ngini = 0.49\nsamples = 7\nvalue = [4, 3]\nclass = No Stroke", fillcolor="#f8e0ce"] ;
242 -> 243 ;
244 [label="gini = 0.0\nsamples = 3\nvalue = [3, 0]\nclass = No Stroke", fillcolor="#e58139"] ;
243 -> 244 ;
245 [label="age <= 71.0\ngini = 0.375\nsamples = 4\nvalue = [1, 3]\nclass = Stroke", fillcolor="#7bbeee"] ;
243 -> 245 ;
246 [label="gini = 0.0\nsamples = 2\nvalue = [0, 2]\nclass = Stroke", fillcolor="#399de5"] ;
245 -> 246 ;
247 [label="hypertension <= 0.5\ngini = 0.5\nsamples = 2\nvalue = [1, 1]\nclass = No Stroke", fillcolor="#ffffff"] ;
245 -> 247 ;
248 [label="gini = 0.0\nsamples = 1\nvalue = [1, 0]\nclass = No Stroke", fillcolor="#e58139"] ;
247 -> 248 ;
249 [label="gini = 0.0\nsamples = 1\nvalue = [0, 1]\nclass = Stroke", fillcolor="#399de5"] ;
247 -> 249 ;
250 [label="age <= 68.5\ngini = 0.153\nsamples = 12\nvalue = [11, 1]\nclass = No Stroke", fillcolor="#e78c4b"] ;
242 -> 250 ;
251 [label="bmi <= 26.75\ngini = 0.5\nsamples = 2\nvalue = [1, 1]\nclass = No Stroke", fillcolor="#ffffff"] ;
250 -> 251 ;
252 [label="gini = 0.0\nsamples = 1\nvalue = [1, 0]\nclass = No Stroke", fillcolor="#e58139"] ;
251 -> 252 ;
253 [label="gini = 0.0\nsamples = 1\nvalue = [0, 1]\nclass = Stroke", fillcolor="#399de5"] ;
251 -> 253 ;
254 [label="gini = 0.0\nsamples = 10\nvalue = [10, 0]\nclass = No Stroke", fillcolor="#e58139"] ;
250 -> 254 ;
255 [label="residence_type <= 0.5\ngini = 0.375\nsamples = 4\nvalue = [1, 3]\nclass = Stroke", fillcolor="#7bbeee"] ;
241 -> 255 ;
256 [label="gini = 0.0\nsamples = 1\nvalue = [1, 0]\nclass = No Stroke", fillcolor="#e58139"] ;
255 -> 256 ;
257 [label="gini = 0.0\nsamples = 3\nvalue = [0, 3]\nclass = Stroke", fillcolor="#399de5"] ;
255 -> 257 ;
258 [label="gini = 0.0\nsamples = 8\nvalue = [8, 0]\nclass = No Stroke", fillcolor="#e58139"] ;
240 -> 258 ;
259 [label="gini = 0.0\nsamples = 1\nvalue = [0, 1]\nclass = Stroke", fillcolor="#399de5"] ;
239 -> 259 ;
260 [label="age <= 72.5\ngini = 0.068\nsamples = 114\nvalue = [110, 4]\nclass = No Stroke", fillcolor="#e68640"] ;
230 -> 260 ;
261 [label="avg_glucose <= 103.06\ngini = 0.112\nsamples = 67\nvalue = [63, 4]\nclass = No Stroke", fillcolor="#e78946"] ;
260 -> 261 ;
262 [label="avg_glucose <= 102.755\ngini = 0.165\nsamples = 44\nvalue = [40, 4]\nclass = No Stroke", fillcolor="#e88e4d"] ;
261 -> 262 ;
263 [label="gender <= 0.5\ngini = 0.13\nsamples = 43\nvalue = [40, 3]\nclass = No Stroke", fillcolor="#e78a48"] ;
262 -> 263 ;
264 [label="hypertension <= 0.5\ngini = 0.219\nsamples = 24\nvalue = [21, 3]\nclass = No Stroke", fillcolor="#e99355"] ;
263 -> 264 ;
265 [label="ever_married <= 0.5\ngini = 0.165\nsamples = 22\nvalue = [20, 2]\nclass = No Stroke", fillcolor="#e88e4d"] ;
264 -> 265 ;
266 [label="bmi <= 26.5\ngini = 0.5\nsamples = 2\nvalue = [1, 1]\nclass = No Stroke", fillcolor="#ffffff"] ;
265 -> 266 ;
267 [label="gini = 0.0\nsamples = 1\nvalue = [0, 1]\nclass = Stroke", fillcolor="#399de5"] ;
266 -> 267 ;
268 [label="gini = 0.0\nsamples = 1\nvalue = [1, 0]\nclass = No Stroke", fillcolor="#e58139"] ;
266 -> 268 ;
269 [label="avg_glucose <= 97.37\ngini = 0.095\nsamples = 20\nvalue = [19, 1]\nclass = No Stroke", fillcolor="#e68843"] ;
265 -> 269 ;
270 [label="gini = 0.0\nsamples = 17\nvalue = [17, 0]\nclass = No Stroke", fillcolor="#e58139"] ;
269 -> 270 ;
271 [label="smoking_status <= 1.5\ngini = 0.444\nsamples = 3\nvalue = [2, 1]\nclass = No Stroke", fillcolor="#f2c09c"] ;
269 -> 271 ;
272 [label="gini = 0.0\nsamples = 2\nvalue = [2, 0]\nclass = No Stroke", fillcolor="#e58139"] ;
271 -> 272 ;
273 [label="gini = 0.0\nsamples = 1\nvalue = [0, 1]\nclass = Stroke", fillcolor="#399de5"] ;
271 -> 273 ;
274 [label="avg_glucose <= 94.365\ngini = 0.5\nsamples = 2\nvalue = [1, 1]\nclass = No Stroke", fillcolor="#ffffff"] ;
264 -> 274 ;
275 [label="gini = 0.0\nsamples = 1\nvalue = [0, 1]\nclass = Stroke", fillcolor="#399de5"] ;
274 -> 275 ;
276 [label="gini = 0.0\nsamples = 1\nvalue = [1, 0]\nclass = No Stroke", fillcolor="#e58139"] ;
274 -> 276 ;
277 [label="gini = 0.0\nsamples = 19\nvalue = [19, 0]\nclass = No Stroke", fillcolor="#e58139"] ;
263 -> 277 ;
278 [label="gini = 0.0\nsamples = 1\nvalue = [0, 1]\nclass = Stroke", fillcolor="#399de5"] ;
262 -> 278 ;
279 [label="gini = 0.0\nsamples = 23\nvalue = [23, 0]\nclass = No Stroke", fillcolor="#e58139"] ;
261 -> 279 ;
280 [label="gini = 0.0\nsamples = 47\nvalue = [47, 0]\nclass = No Stroke", fillcolor="#e58139"] ;
260 -> 280 ;
281 [label="avg_glucose <= 64.295\ngini = 0.302\nsamples = 178\nvalue = [145, 33]\nclass = No Stroke", fillcolor="#eb9e66"] ;
229 -> 281 ;
282 [label="gini = 0.0\nsamples = 21\nvalue = [21, 0]\nclass = No Stroke", fillcolor="#e58139"] ;
281 -> 282 ;
283 [label="avg_glucose <= 67.565\ngini = 0.332\nsamples = 157\nvalue = [124, 33]\nclass = No Stroke", fillcolor="#eca36e"] ;
281 -> 283 ;
284 [label="age <= 79.5\ngini = 0.32\nsamples = 5\nvalue = [1, 4]\nclass = Stroke", fillcolor="#6ab6ec"] ;
283 -> 284 ;
285 [label="bmi <= 26.35\ngini = 0.5\nsamples = 2\nvalue = [1, 1]\nclass = No Stroke", fillcolor="#ffffff"] ;
284 -> 285 ;
286 [label="gini = 0.0\nsamples = 1\nvalue = [0, 1]\nclass = Stroke", fillcolor="#399de5"] ;
285 -> 286 ;
287 [label="gini = 0.0\nsamples = 1\nvalue = [1, 0]\nclass = No Stroke", fillcolor="#e58139"] ;
285 -> 287 ;
288 [label="gini = 0.0\nsamples = 3\nvalue = [0, 3]\nclass = Stroke", fillcolor="#399de5"] ;
284 -> 288 ;
289 [label="bmi <= 17.4\ngini = 0.309\nsamples = 152\nvalue = [123, 29]\nclass = No Stroke", fillcolor="#eb9f68"] ;
283 -> 289 ;
290 [label="gini = 0.0\nsamples = 1\nvalue = [0, 1]\nclass = Stroke", fillcolor="#399de5"] ;
289 -> 290 ;
291 [label="bmi <= 34.15\ngini = 0.302\nsamples = 151\nvalue = [123, 28]\nclass = No Stroke", fillcolor="#eb9e66"] ;
289 -> 291 ;
292 [label="bmi <= 33.9\ngini = 0.32\nsamples = 140\nvalue = [112, 28]\nclass = No Stroke", fillcolor="#eca06a"] ;
291 -> 292 ;
293 [label="bmi <= 21.45\ngini = 0.313\nsamples = 139\nvalue = [112, 27]\nclass = No Stroke", fillcolor="#eb9f69"] ;
292 -> 293 ;
294 [label="gini = 0.0\nsamples = 9\nvalue = [9, 0]\nclass = No Stroke", fillcolor="#e58139"] ;
293 -> 294 ;
295 [label="bmi <= 21.65\ngini = 0.329\nsamples = 130\nvalue = [103, 27]\nclass = No Stroke", fillcolor="#eca26d"] ;
293 -> 295 ;
296 [label="smoking_status <= 0.5\ngini = 0.5\nsamples = 4\nvalue = [2, 2]\nclass = No Stroke", fillcolor="#ffffff"] ;
295 -> 296 ;
297 [label="gini = 0.0\nsamples = 1\nvalue = [1, 0]\nclass = No Stroke", fillcolor="#e58139"] ;
296 -> 297 ;
298 [label="residence_type <= 0.5\ngini = 0.444\nsamples = 3\nvalue = [1, 2]\nclass = Stroke", fillcolor="#9ccef2"] ;
296 -> 298 ;
299 [label="gini = 0.0\nsamples = 1\nvalue = [1, 0]\nclass = No Stroke", fillcolor="#e58139"] ;
298 -> 299 ;
300 [label="gini = 0.0\nsamples = 2\nvalue = [0, 2]\nclass = Stroke", fillcolor="#399de5"] ;
298 -> 300 ;
301 [label="ever_married <= 0.5\ngini = 0.318\nsamples = 126\nvalue = [101, 25]\nclass = No Stroke", fillcolor="#eba06a"] ;
295 -> 301 ;
302 [label="hypertension <= 0.5\ngini = 0.459\nsamples = 14\nvalue = [9, 5]\nclass = No Stroke", fillcolor="#f3c7a7"] ;
301 -> 302 ;
303 [label="work_type <= 2.5\ngini = 0.298\nsamples = 11\nvalue = [9, 2]\nclass = No Stroke", fillcolor="#eb9d65"] ;
302 -> 303 ;
304 [label="gini = 0.0\nsamples = 1\nvalue = [0, 1]\nclass = Stroke", fillcolor="#399de5"] ;
303 -> 304 ;
305 [label="gender <= 0.5\ngini = 0.18\nsamples = 10\nvalue = [9, 1]\nclass = No Stroke", fillcolor="#e88f4f"] ;
303 -> 305 ;
306 [label="gini = 0.0\nsamples = 7\nvalue = [7, 0]\nclass = No Stroke", fillcolor="#e58139"] ;
305 -> 306 ;
307 [label="avg_glucose <= 95.88\ngini = 0.444\nsamples = 3\nvalue = [2, 1]\nclass = No Stroke", fillcolor="#f2c09c"] ;
305 -> 307 ;
308 [label="gini = 0.0\nsamples = 1\nvalue = [0, 1]\nclass = Stroke", fillcolor="#399de5"] ;
307 -> 308 ;
309 [label="gini = 0.0\nsamples = 2\nvalue = [2, 0]\nclass = No Stroke", fillcolor="#e58139"] ;
307 -> 309 ;
310 [label="gini = 0.0\nsamples = 3\nvalue = [0, 3]\nclass = Stroke", fillcolor="#399de5"] ;
302 -> 310 ;
311 [label="residence_type <= 0.5\ngini = 0.293\nsamples = 112\nvalue = [92, 20]\nclass = No Stroke", fillcolor="#eb9c64"] ;
301 -> 311 ;
312 [label="avg_glucose <= 93.265\ngini = 0.38\nsamples = 51\nvalue = [38, 13]\nclass = No Stroke", fillcolor="#eeac7d"] ;
311 -> 312 ;
313 [label="bmi <= 28.35\ngini = 0.459\nsamples = 28\nvalue = [18, 10]\nclass = No Stroke", fillcolor="#f3c7a7"] ;
312 -> 313 ;
314 [label="bmi <= 25.05\ngini = 0.346\nsamples = 18\nvalue = [14, 4]\nclass = No Stroke", fillcolor="#eca572"] ;
313 -> 314 ;
315 [label="gender <= 0.5\ngini = 0.5\nsamples = 8\nvalue = [4, 4]\nclass = No Stroke", fillcolor="#ffffff"] ;
314 -> 315 ;
316 [label="avg_glucose <= 84.32\ngini = 0.444\nsamples = 6\nvalue = [2, 4]\nclass = Stroke", fillcolor="#9ccef2"] ;
315 -> 316 ;
317 [label="gini = 0.0\nsamples = 3\nvalue = [0, 3]\nclass = Stroke", fillcolor="#399de5"] ;
316 -> 317 ;
318 [label="avg_glucose <= 91.91\ngini = 0.444\nsamples = 3\nvalue = [2, 1]\nclass = No Stroke", fillcolor="#f2c09c"] ;
316 -> 318 ;
319 [label="gini = 0.0\nsamples = 2\nvalue = [2, 0]\nclass = No Stroke", fillcolor="#e58139"] ;
318 -> 319 ;
320 [label="gini = 0.0\nsamples = 1\nvalue = [0, 1]\nclass = Stroke", fillcolor="#399de5"] ;
318 -> 320 ;
321 [label="gini = 0.0\nsamples = 2\nvalue = [2, 0]\nclass = No Stroke", fillcolor="#e58139"] ;
315 -> 321 ;
322 [label="gini = 0.0\nsamples = 10\nvalue = [10, 0]\nclass = No Stroke", fillcolor="#e58139"] ;
314 -> 322 ;
323 [label="age <= 79.5\ngini = 0.48\nsamples = 10\nvalue = [4, 6]\nclass = Stroke", fillcolor="#bddef6"] ;
313 -> 323 ;
324 [label="bmi <= 28.7\ngini = 0.444\nsamples = 6\nvalue = [4, 2]\nclass = No Stroke", fillcolor="#f2c09c"] ;
323 -> 324 ;
325 [label="gini = 0.0\nsamples = 1\nvalue = [0, 1]\nclass = Stroke", fillcolor="#399de5"] ;
324 -> 325 ;
326 [label="age <= 77.5\ngini = 0.32\nsamples = 5\nvalue = [4, 1]\nclass = No Stroke", fillcolor="#eca06a"] ;
324 -> 326 ;
327 [label="avg_glucose <= 90.48\ngini = 0.5\nsamples = 2\nvalue = [1, 1]\nclass = No Stroke", fillcolor="#ffffff"] ;
326 -> 327 ;
328 [label="gini = 0.0\nsamples = 1\nvalue = [0, 1]\nclass = Stroke", fillcolor="#399de5"] ;
327 -> 328 ;
329 [label="gini = 0.0\nsamples = 1\nvalue = [1, 0]\nclass = No Stroke", fillcolor="#e58139"] ;
327 -> 329 ;
330 [label="gini = 0.0\nsamples = 3\nvalue = [3, 0]\nclass = No Stroke", fillcolor="#e58139"] ;
326 -> 330 ;
331 [label="gini = 0.0\nsamples = 4\nvalue = [0, 4]\nclass = Stroke", fillcolor="#399de5"] ;
323 -> 331 ;
332 [label="work_type <= 2.5\ngini = 0.227\nsamples = 23\nvalue = [20, 3]\nclass = No Stroke", fillcolor="#e99457"] ;
312 -> 332 ;
333 [label="gini = 0.0\nsamples = 1\nvalue = [0, 1]\nclass = Stroke", fillcolor="#399de5"] ;
332 -> 333 ;
334 [label="bmi <= 30.75\ngini = 0.165\nsamples = 22\nvalue = [20, 2]\nclass = No Stroke", fillcolor="#e88e4d"] ;
332 -> 334 ;
335 [label="gini = 0.0\nsamples = 18\nvalue = [18, 0]\nclass = No Stroke", fillcolor="#e58139"] ;
334 -> 335 ;
336 [label="avg_glucose <= 103.23\ngini = 0.5\nsamples = 4\nvalue = [2, 2]\nclass = No Stroke", fillcolor="#ffffff"] ;
334 -> 336 ;
337 [label="gini = 0.0\nsamples = 1\nvalue = [1, 0]\nclass = No Stroke", fillcolor="#e58139"] ;
336 -> 337 ;
338 [label="bmi <= 33.0\ngini = 0.444\nsamples = 3\nvalue = [1, 2]\nclass = Stroke", fillcolor="#9ccef2"] ;
336 -> 338 ;
339 [label="gini = 0.0\nsamples = 2\nvalue = [0, 2]\nclass = Stroke", fillcolor="#399de5"] ;
338 -> 339 ;
340 [label="gini = 0.0\nsamples = 1\nvalue = [1, 0]\nclass = No Stroke", fillcolor="#e58139"] ;
338 -> 340 ;
341 [label="avg_glucose <= 104.795\ngini = 0.203\nsamples = 61\nvalue = [54, 7]\nclass = No Stroke", fillcolor="#e89153"] ;
311 -> 341 ;
342 [label="avg_glucose <= 73.0\ngini = 0.087\nsamples = 44\nvalue = [42, 2]\nclass = No Stroke", fillcolor="#e68742"] ;
341 -> 342 ;
343 [label="age <= 79.5\ngini = 0.32\nsamples = 10\nvalue = [8, 2]\nclass = No Stroke", fillcolor="#eca06a"] ;
342 -> 343 ;
344 [label="gini = 0.0\nsamples = 7\nvalue = [7, 0]\nclass = No Stroke", fillcolor="#e58139"] ;
343 -> 344 ;
345 [label="bmi <= 24.05\ngini = 0.444\nsamples = 3\nvalue = [1, 2]\nclass = Stroke", fillcolor="#9ccef2"] ;
343 -> 345 ;
346 [label="gini = 0.0\nsamples = 1\nvalue = [1, 0]\nclass = No Stroke", fillcolor="#e58139"] ;
345 -> 346 ;
347 [label="gini = 0.0\nsamples = 2\nvalue = [0, 2]\nclass = Stroke", fillcolor="#399de5"] ;
345 -> 347 ;
348 [label="gini = 0.0\nsamples = 34\nvalue = [34, 0]\nclass = No Stroke", fillcolor="#e58139"] ;
342 -> 348 ;
349 [label="age <= 77.5\ngini = 0.415\nsamples = 17\nvalue = [12, 5]\nclass = No Stroke", fillcolor="#f0b58b"] ;
341 -> 349 ;
350 [label="gini = 0.0\nsamples = 2\nvalue = [0, 2]\nclass = Stroke", fillcolor="#399de5"] ;
349 -> 350 ;
351 [label="bmi <= 24.2\ngini = 0.32\nsamples = 15\nvalue = [12, 3]\nclass = No Stroke", fillcolor="#eca06a"] ;
349 -> 351 ;
352 [label="gini = 0.0\nsamples = 1\nvalue = [0, 1]\nclass = Stroke", fillcolor="#399de5"] ;
351 -> 352 ;
353 [label="bmi <= 32.05\ngini = 0.245\nsamples = 14\nvalue = [12, 2]\nclass = No Stroke", fillcolor="#e9965a"] ;
351 -> 353 ;
354 [label="age <= 78.5\ngini = 0.142\nsamples = 13\nvalue = [12, 1]\nclass = No Stroke", fillcolor="#e78c49"] ;
353 -> 354 ;
355 [label="work_type <= 3.5\ngini = 0.375\nsamples = 4\nvalue = [3, 1]\nclass = No Stroke", fillcolor="#eeab7b"] ;
354 -> 355 ;
356 [label="gini = 0.0\nsamples = 1\nvalue = [0, 1]\nclass = Stroke", fillcolor="#399de5"] ;
355 -> 356 ;
357 [label="gini = 0.0\nsamples = 3\nvalue = [3, 0]\nclass = No Stroke", fillcolor="#e58139"] ;
355 -> 357 ;
358 [label="gini = 0.0\nsamples = 9\nvalue = [9, 0]\nclass = No Stroke", fillcolor="#e58139"] ;
354 -> 358 ;
359 [label="gini = 0.0\nsamples = 1\nvalue = [0, 1]\nclass = Stroke", fillcolor="#399de5"] ;
353 -> 359 ;
360 [label="gini = 0.0\nsamples = 1\nvalue = [0, 1]\nclass = Stroke", fillcolor="#399de5"] ;
292 -> 360 ;
361 [label="gini = 0.0\nsamples = 11\nvalue = [11, 0]\nclass = No Stroke", fillcolor="#e58139"] ;
291 -> 361 ;
362 [label="avg_glucose <= 135.465\ngini = 0.385\nsamples = 169\nvalue = [125, 44]\nclass = No Stroke", fillcolor="#eead7f"] ;
228 -> 362 ;
363 [label="smoking_status <= 1.5\ngini = 0.278\nsamples = 6\nvalue = [1, 5]\nclass = Stroke", fillcolor="#61b1ea"] ;
362 -> 363 ;
364 [label="gini = 0.0\nsamples = 5\nvalue = [0, 5]\nclass = Stroke", fillcolor="#399de5"] ;
363 -> 364 ;
365 [label="gini = 0.0\nsamples = 1\nvalue = [1, 0]\nclass = No Stroke", fillcolor="#e58139"] ;
363 -> 365 ;
366 [label="avg_glucose <= 252.16\ngini = 0.364\nsamples = 163\nvalue = [124, 39]\nclass = No Stroke", fillcolor="#eda977"] ;
362 -> 366 ;
367 [label="work_type <= 3.5\ngini = 0.348\nsamples = 156\nvalue = [121, 35]\nclass = No Stroke", fillcolor="#eda572"] ;
366 -> 367 ;
368 [label="bmi <= 32.85\ngini = 0.283\nsamples = 82\nvalue = [68, 14]\nclass = No Stroke", fillcolor="#ea9b62"] ;
367 -> 368 ;
369 [label="bmi <= 32.5\ngini = 0.366\nsamples = 58\nvalue = [44, 14]\nclass = No Stroke", fillcolor="#eda978"] ;
368 -> 369 ;
370 [label="work_type <= 2.5\ngini = 0.337\nsamples = 56\nvalue = [44, 12]\nclass = No Stroke", fillcolor="#eca36f"] ;
369 -> 370 ;
371 [label="bmi <= 27.85\ngini = 0.469\nsamples = 16\nvalue = [10, 6]\nclass = No Stroke", fillcolor="#f5cdb0"] ;
370 -> 371 ;
372 [label="bmi <= 22.95\ngini = 0.198\nsamples = 9\nvalue = [8, 1]\nclass = No Stroke", fillcolor="#e89152"] ;
371 -> 372 ;
373 [label="gini = 0.0\nsamples = 1\nvalue = [0, 1]\nclass = Stroke", fillcolor="#399de5"] ;
372 -> 373 ;
374 [label="gini = 0.0\nsamples = 8\nvalue = [8, 0]\nclass = No Stroke", fillcolor="#e58139"] ;
372 -> 374 ;
375 [label="avg_glucose <= 185.775\ngini = 0.408\nsamples = 7\nvalue = [2, 5]\nclass = Stroke", fillcolor="#88c4ef"] ;
371 -> 375 ;
376 [label="gini = 0.0\nsamples = 2\nvalue = [2, 0]\nclass = No Stroke", fillcolor="#e58139"] ;
375 -> 376 ;
377 [label="gini = 0.0\nsamples = 5\nvalue = [0, 5]\nclass = Stroke", fillcolor="#399de5"] ;
375 -> 377 ;
378 [label="age <= 69.5\ngini = 0.255\nsamples = 40\nvalue = [34, 6]\nclass = No Stroke", fillcolor="#ea975c"] ;
370 -> 378 ;
379 [label="smoking_status <= 0.5\ngini = 0.444\nsamples = 3\nvalue = [1, 2]\nclass = Stroke", fillcolor="#9ccef2"] ;
378 -> 379 ;
380 [label="gini = 0.0\nsamples = 1\nvalue = [1, 0]\nclass = No Stroke", fillcolor="#e58139"] ;
379 -> 380 ;
381 [label="gini = 0.0\nsamples = 2\nvalue = [0, 2]\nclass = Stroke", fillcolor="#399de5"] ;
379 -> 381 ;
382 [label="bmi <= 28.35\ngini = 0.193\nsamples = 37\nvalue = [33, 4]\nclass = No Stroke", fillcolor="#e89051"] ;
378 -> 382 ;
383 [label="hypertension <= 0.5\ngini = 0.32\nsamples = 20\nvalue = [16, 4]\nclass = No Stroke", fillcolor="#eca06a"] ;
382 -> 383 ;
384 [label="bmi <= 26.45\ngini = 0.142\nsamples = 13\nvalue = [12, 1]\nclass = No Stroke", fillcolor="#e78c49"] ;
383 -> 384 ;
385 [label="gini = 0.0\nsamples = 8\nvalue = [8, 0]\nclass = No Stroke", fillcolor="#e58139"] ;
384 -> 385 ;
386 [label="bmi <= 26.7\ngini = 0.32\nsamples = 5\nvalue = [4, 1]\nclass = No Stroke", fillcolor="#eca06a"] ;
384 -> 386 ;
387 [label="gini = 0.0\nsamples = 1\nvalue = [0, 1]\nclass = Stroke", fillcolor="#399de5"] ;
386 -> 387 ;
388 [label="gini = 0.0\nsamples = 4\nvalue = [4, 0]\nclass = No Stroke", fillcolor="#e58139"] ;
386 -> 388 ;
389 [label="gender <= 0.5\ngini = 0.49\nsamples = 7\nvalue = [4, 3]\nclass = No Stroke", fillcolor="#f8e0ce"] ;
383 -> 389 ;
390 [label="bmi <= 24.25\ngini = 0.48\nsamples = 5\nvalue = [2, 3]\nclass = Stroke", fillcolor="#bddef6"] ;
389 -> 390 ;
391 [label="gini = 0.0\nsamples = 2\nvalue = [0, 2]\nclass = Stroke", fillcolor="#399de5"] ;
390 -> 391 ;
392 [label="smoking_status <= 0.5\ngini = 0.444\nsamples = 3\nvalue = [2, 1]\nclass = No Stroke", fillcolor="#f2c09c"] ;
390 -> 392 ;
393 [label="gini = 0.0\nsamples = 1\nvalue = [0, 1]\nclass = Stroke", fillcolor="#399de5"] ;
392 -> 393 ;
394 [label="gini = 0.0\nsamples = 2\nvalue = [2, 0]\nclass = No Stroke", fillcolor="#e58139"] ;
392 -> 394 ;
395 [label="gini = 0.0\nsamples = 2\nvalue = [2, 0]\nclass = No Stroke", fillcolor="#e58139"] ;
389 -> 395 ;
396 [label="gini = 0.0\nsamples = 17\nvalue = [17, 0]\nclass = No Stroke", fillcolor="#e58139"] ;
382 -> 396 ;
397 [label="gini = 0.0\nsamples = 2\nvalue = [0, 2]\nclass = Stroke", fillcolor="#399de5"] ;
369 -> 397 ;
398 [label="gini = 0.0\nsamples = 24\nvalue = [24, 0]\nclass = No Stroke", fillcolor="#e58139"] ;
368 -> 398 ;
399 [label="bmi <= 44.7\ngini = 0.407\nsamples = 74\nvalue = [53, 21]\nclass = No Stroke", fillcolor="#efb387"] ;
367 -> 399 ;
400 [label="bmi <= 25.65\ngini = 0.389\nsamples = 72\nvalue = [53, 19]\nclass = No Stroke", fillcolor="#eeae80"] ;
399 -> 400 ;
401 [label="gini = 0.0\nsamples = 10\nvalue = [10, 0]\nclass = No Stroke", fillcolor="#e58139"] ;
400 -> 401 ;
402 [label="heart_disease <= 0.5\ngini = 0.425\nsamples = 62\nvalue = [43, 19]\nclass = No Stroke", fillcolor="#f0b990"] ;
400 -> 402 ;
403 [label="bmi <= 25.9\ngini = 0.369\nsamples = 45\nvalue = [34, 11]\nclass = No Stroke", fillcolor="#edaa79"] ;
402 -> 403 ;
404 [label="gini = 0.0\nsamples = 1\nvalue = [0, 1]\nclass = Stroke", fillcolor="#399de5"] ;
403 -> 404 ;
405 [label="ever_married <= 0.5\ngini = 0.351\nsamples = 44\nvalue = [34, 10]\nclass = No Stroke", fillcolor="#eda673"] ;
403 -> 405 ;
406 [label="gini = 0.0\nsamples = 1\nvalue = [0, 1]\nclass = Stroke", fillcolor="#399de5"] ;
405 -> 406 ;
407 [label="avg_glucose <= 142.15\ngini = 0.331\nsamples = 43\nvalue = [34, 9]\nclass = No Stroke", fillcolor="#eca26d"] ;
405 -> 407 ;
408 [label="gini = 0.0\nsamples = 1\nvalue = [0, 1]\nclass = Stroke", fillcolor="#399de5"] ;
407 -> 408 ;
409 [label="residence_type <= 0.5\ngini = 0.308\nsamples = 42\nvalue = [34, 8]\nclass = No Stroke", fillcolor="#eb9f68"] ;
407 -> 409 ;
410 [label="age <= 72.5\ngini = 0.408\nsamples = 21\nvalue = [15, 6]\nclass = No Stroke", fillcolor="#efb388"] ;
409 -> 410 ;
411 [label="avg_glucose <= 233.765\ngini = 0.165\nsamples = 11\nvalue = [10, 1]\nclass = No Stroke", fillcolor="#e88e4d"] ;
410 -> 411 ;
412 [label="gini = 0.0\nsamples = 9\nvalue = [9, 0]\nclass = No Stroke", fillcolor="#e58139"] ;
411 -> 412 ;
413 [label="bmi <= 35.45\ngini = 0.5\nsamples = 2\nvalue = [1, 1]\nclass = No Stroke", fillcolor="#ffffff"] ;
411 -> 413 ;
414 [label="gini = 0.0\nsamples = 1\nvalue = [1, 0]\nclass = No Stroke", fillcolor="#e58139"] ;
413 -> 414 ;
415 [label="gini = 0.0\nsamples = 1\nvalue = [0, 1]\nclass = Stroke", fillcolor="#399de5"] ;
413 -> 415 ;
416 [label="avg_glucose <= 174.585\ngini = 0.5\nsamples = 10\nvalue = [5, 5]\nclass = No Stroke", fillcolor="#ffffff"] ;
410 -> 416 ;
417 [label="gini = 0.0\nsamples = 2\nvalue = [2, 0]\nclass = No Stroke", fillcolor="#e58139"] ;
416 -> 417 ;
418 [label="bmi <= 31.6\ngini = 0.469\nsamples = 8\nvalue = [3, 5]\nclass = Stroke", fillcolor="#b0d8f5"] ;
416 -> 418 ;
419 [label="avg_glucose <= 199.565\ngini = 0.444\nsamples = 3\nvalue = [2, 1]\nclass = No Stroke", fillcolor="#f2c09c"] ;
418 -> 419 ;
420 [label="gini = 0.0\nsamples = 1\nvalue = [0, 1]\nclass = Stroke", fillcolor="#399de5"] ;
419 -> 420 ;
421 [label="gini = 0.0\nsamples = 2\nvalue = [2, 0]\nclass = No Stroke", fillcolor="#e58139"] ;
419 -> 421 ;
422 [label="smoking_status <= 0.5\ngini = 0.32\nsamples = 5\nvalue = [1, 4]\nclass = Stroke", fillcolor="#6ab6ec"] ;
418 -> 422 ;
423 [label="bmi <= 34.0\ngini = 0.5\nsamples = 2\nvalue = [1, 1]\nclass = No Stroke", fillcolor="#ffffff"] ;
422 -> 423 ;
424 [label="gini = 0.0\nsamples = 1\nvalue = [0, 1]\nclass = Stroke", fillcolor="#399de5"] ;
423 -> 424 ;
425 [label="gini = 0.0\nsamples = 1\nvalue = [1, 0]\nclass = No Stroke", fillcolor="#e58139"] ;
423 -> 425 ;
426 [label="gini = 0.0\nsamples = 3\nvalue = [0, 3]\nclass = Stroke", fillcolor="#399de5"] ;
422 -> 426 ;
427 [label="bmi <= 30.05\ngini = 0.172\nsamples = 21\nvalue = [19, 2]\nclass = No Stroke", fillcolor="#e88e4e"] ;
409 -> 427 ;
428 [label="bmi <= 28.2\ngini = 0.346\nsamples = 9\nvalue = [7, 2]\nclass = No Stroke", fillcolor="#eca572"] ;
427 -> 428 ;
429 [label="gini = 0.0\nsamples = 6\nvalue = [6, 0]\nclass = No Stroke", fillcolor="#e58139"] ;
428 -> 429 ;
430 [label="avg_glucose <= 222.32\ngini = 0.444\nsamples = 3\nvalue = [1, 2]\nclass = Stroke", fillcolor="#9ccef2"] ;
428 -> 430 ;
431 [label="gini = 0.0\nsamples = 2\nvalue = [0, 2]\nclass = Stroke", fillcolor="#399de5"] ;
430 -> 431 ;
432 [label="gini = 0.0\nsamples = 1\nvalue = [1, 0]\nclass = No Stroke", fillcolor="#e58139"] ;
430 -> 432 ;
433 [label="gini = 0.0\nsamples = 12\nvalue = [12, 0]\nclass = No Stroke", fillcolor="#e58139"] ;
427 -> 433 ;
434 [label="age <= 78.5\ngini = 0.498\nsamples = 17\nvalue = [9, 8]\nclass = No Stroke", fillcolor="#fcf1e9"] ;
402 -> 434 ;
435 [label="avg_glucose <= 220.81\ngini = 0.397\nsamples = 11\nvalue = [8, 3]\nclass = No Stroke", fillcolor="#efb083"] ;
434 -> 435 ;
436 [label="gini = 0.0\nsamples = 7\nvalue = [7, 0]\nclass = No Stroke", fillcolor="#e58139"] ;
435 -> 436 ;
437 [label="age <= 71.0\ngini = 0.375\nsamples = 4\nvalue = [1, 3]\nclass = Stroke", fillcolor="#7bbeee"] ;
435 -> 437 ;
438 [label="gini = 0.0\nsamples = 3\nvalue = [0, 3]\nclass = Stroke", fillcolor="#399de5"] ;
437 -> 438 ;
439 [label="gini = 0.0\nsamples = 1\nvalue = [1, 0]\nclass = No Stroke", fillcolor="#e58139"] ;
437 -> 439 ;
440 [label="residence_type <= 0.5\ngini = 0.278\nsamples = 6\nvalue = [1, 5]\nclass = Stroke", fillcolor="#61b1ea"] ;
434 -> 440 ;
441 [label="gini = 0.0\nsamples = 1\nvalue = [1, 0]\nclass = No Stroke", fillcolor="#e58139"] ;
440 -> 441 ;
442 [label="gini = 0.0\nsamples = 5\nvalue = [0, 5]\nclass = Stroke", fillcolor="#399de5"] ;
440 -> 442 ;
443 [label="gini = 0.0\nsamples = 2\nvalue = [0, 2]\nclass = Stroke", fillcolor="#399de5"] ;
399 -> 443 ;
444 [label="bmi <= 30.8\ngini = 0.49\nsamples = 7\nvalue = [3, 4]\nclass = Stroke", fillcolor="#cee6f8"] ;
366 -> 444 ;
445 [label="age <= 79.5\ngini = 0.375\nsamples = 4\nvalue = [3, 1]\nclass = No Stroke", fillcolor="#eeab7b"] ;
444 -> 445 ;
446 [label="gini = 0.0\nsamples = 3\nvalue = [3, 0]\nclass = No Stroke", fillcolor="#e58139"] ;
445 -> 446 ;
447 [label="gini = 0.0\nsamples = 1\nvalue = [0, 1]\nclass = Stroke", fillcolor="#399de5"] ;
445 -> 447 ;
448 [label="gini = 0.0\nsamples = 3\nvalue = [0, 3]\nclass = Stroke", fillcolor="#399de5"] ;
444 -> 448 ;
}